<?xml version="1.0"?>
<opencv_storage>
<opencv_ml_svm>
  <format>3</format>
  <svmType>C_SVC</svmType>
  <kernel>
    <type>LINEAR</type></kernel>
  <C>312.5</C>
  <term_criteria><epsilon>9.9999999999999995e-07</epsilon>
    <iterations>40</iterations></term_criteria>
  <var_count>1024</var_count>
  <class_count>15</class_count>
  <class_labels type_id="opencv-matrix">
    <rows>15</rows>
    <cols>1</cols>
    <dt>i</dt>
    <data>
      0 1 2 3 4 5 6 7 8 9 10 11 12 13 14</data></class_labels>
  <sv_total>105</sv_total>
  <support_vectors>
    <_>
      -4.21117973 -1.09719038 0.731944621 1.04136395 3.08080292
      3.19887185 0.909219325 -0.810590506 -2.2893393 1.84256852
      0.713404894 1.39292645 -0.946769595 1.4947145 0.699061215
      0.304072618 2.19181919 0. 1.01608634 0.109840818 2.25514674
      1.19501579 -0.542117655 -0.300557822 -1.23248935 -0.179884925
      -0.528069437 -2.79901385 2.16064954 -0.790667534 0. 0.28269133
      -0.0880190358 -0.63997668 0. 0. 0.0804590732 0.990331113
      -0.927477241 -3.29956388 -0.995570064 -0.35459435 0. 0.506797135
      0. -0.543004036 -1.21728301 0.545847416 1.71744001 -0.179639101
      -0.456887603 0.251233459 1.49075413 0.167161852 0.443524182
      -0.98984617 0. 1.32561779 0. -0.550673962 1.7168597 0.109762937
      0.540865779 -0.136690915 0.00349055114 -0.0391647704 0.258506775
      0. -0.561867893 0. 0.551844239 -0.707282245 -0.385729164
      0.741050422 1.35599327 3.10238361 -0.590428114 2.45003152
      -0.641484022 0.142852411 -0.972266972 -1.41650975 -2.16882014 0.
      1.01235592 -0.420146346 0.917094707 0.79821372 0.953381419
      0.387164623 0.847572982 -1.28122258 0.100684553 -0.755922914
      0.167161852 -3.55510044 -2.81034088 1.31430662 0.109840818
      3.42101908 1.5483849 3.12933731 0.776648462 0.0545850769
      3.38323855 0.891654432 -0.956861675 0.357280046 0.581225276
      1.47312057 0.553085446 -0.67486316 -0.259788722 -0.0158772003 0.
      -0.840042531 1.77398646 0. -0.430736631 -0.54590565 -1.55130839
      0.448642582 -2.92502785 -0.70521909 0. 0. -0.659028411 0.
      0.10437502 -1.04110909 -0.108646028 1.88116741 1.39519525
      -2.25719762 0.318603724 -1.13168252 -0.131285816 0.710059762
      0.764318883 -1.79571414 0. -1.07729304 0.681357384 0. 0.0050652707
      -1.14219713 0. -3.35796785 1.65520203 2.20063138 2.05395603
      1.21872401 0.387962431 0.512646139 0. 0. 0.822448313 2.09816647
      0.908711314 0. -2.09499788 -0.471065402 -0.095660761 -0.367503315
      -0.861248076 0.448272914 1.37392235 0.915992618 0.29238075
      -0.199300066 -0.185282052 1.77598047 -1.58277786 -0.328338563
      1.48150647 1.60289252 -0.688648522 -0.487090647 1.624488 0.
      1.68388963 -2.38390207 -0.782630324 -0.315916687 -0.227645054
      -1.27496445 -1.11378396 -0.564646244 1.72005534 0.962724268
      1.17179656 0.734406829 0. -1.39166474 -1.07457578 1.31114376
      -3.83691454 2.49647903 -0.894092858 1.02465904 0.799551129
      -1.83244371 0.201211065 0.174789444 -2.46278167 -0.989785492 0.
      -2.31937385 -0.106219977 -0.725502968 1.67441499 -0.0499152318 0.
      -0.328338563 2.19105005 0.0753498003 0. 2.28058457 -0.626919448
      -0.918789625 0. 2.71654582 -4.53276682 1.37361801 0.0614616238 0.
      -1.99547911 0.562872708 -1.23986948 -0.182969525 -1.12592697
      0.773656011 -10.993041 0.749798357 0.358765572 0.109840818
      -0.611824453 0. -2.20510244 3.53351831 0. 2.33726001 0.522095144
      -1.00321817 1.11450934 0.0823126137 -0.55786413 0.62133944
      -3.93206215 -0.405796438 -0.739531517 1.26040626 3.17909288
      -0.302908093 0.204897076 0.10437502 0.0392477848 -3.30275869
      1.09760487 -0.855101466 0. 1.14922249 1.95907652 -0.574446678
      3.82108116 0.384885967 -0.852529526 -1.22099292 0.0140856709
      -2.32109332 -5.58562231 2.64012098 0. -0.706703722 0. 0.534614921
      0.316644132 0. 0.219681635 0. -0.132744372 1.32790434 0.
      -1.47481489 -2.46464157 -0.206059784 0.148000941 0. 2.42318726
      0.072057575 0. 0.420892686 2.73115158 0. -1.11477983 1.44401729
      2.38211894 0. 0. -0.865567088 0.201211065 -2.11805105 -1.12592697
      1.50555778 -0.0705930293 -2.56540632 0.149194852 2.04838037
      -0.55786413 1.14973712 0.372859359 0. 0.606042862 0.0609590076
      -3.47081614 -4.27033424 0.568607748 1.6946137 1.96892858
      2.86688566 0.143056497 -0.681385934 0.903654099 3.78183246
      -0.492736131 0. 0. 0.436317086 0.179137856 -1.03575861 2.14092755
      -1.00943244 -1.46627414 0.970539153 -2.85672116 -0.82214433
      -4.06087971 2.70074511 1.51809514 0.228060722 -8.5009222
      -0.0783884972 -5.05740595 -1.98500764 0.824544847 0.549632847
      1.22988045 0.0309107415 -0.865899742 -0.0973327979 -2.0502336
      1.45017302 0.841483176 0.677671373 -1.64833045 0.376565099
      1.28776979 0.838347077 2.86794424 0.368372917 -2.62757778
      0.0519450381 -1.5013876 -1.41786337 0.762310684 -0.0768777505
      -0.628896415 -2.38310099 0.0328459926 -1.76314676 4.00104189
      -0.652233422 1.07879078 -0.397890627 0.150105566 0. 0.
      -0.514224112 2.9000814 0. 0.281008095 1.27172458 1.31610262
      3.10904479 -1.41586244 -0.341817677 -0.50132966 0.328837872 0.
      -0.527557492 0.870716989 -2.94593096 -0.788901031 0.382664442
      2.37385893 0.578706264 -1.35616648 -1.34658515 -2.39407635
      1.16594613 2.1114645 -1.94873381 0.519248009 0.46436286 2.4997499
      0.262623817 1.36154795 1.31003785 -1.38371432 -2.36765361
      1.89405859 0. 1.88662291 -0.290063798 1.9690696 -0.859447241
      -0.676518023 -2.37305355 0.409961104 0.143056497 -0.729809046
      -1.0276705 1.07879078 0.258939177 0. 0.132868364 -0.561365604
      -0.906693399 -0.430736631 -3.14813995 -2.13031793 -3.79910088
      1.01032853 -0.691590488 0.204897076 -1.8133868 0.687434614
      0.424578696 1.52947092 -1.24685943 -0.834387302 -0.251403272
      -3.15578604 -1.69367385 1.95442855 -3.3544631 0.351436853
      -0.467170089 0.93473208 0.0973661467 -0.157501325 2.40167665
      -1.83032024 -3.4855113 -3.59340882 -0.136690915 0.956140459
      -0.386899829 -0.621911645 1.56352854 -3.7738018 -3.08387017
      -1.3180908 1.43957043 -0.430736631 0.327864021 0. 0.109840818
      1.10662723 -3.73994088 -0.430736631 1.45915902 0.109840818
      0.781349063 0.401647866 -1.08493805 -0.95270586 1.55579805
      0.714781523 0. -0.0252631847 -0.0172866732 1.07681715 -0.240030006
      0.220082775 1.67916667 0. 1.33168805 0.0159290154 -0.144391656
      -0.770640671 0.204897076 0.420496523 0.72202909 -1.40858257
      -0.421839923 -2.11290979 1.02039266 0.159099728 3.13981938
      -0.220628858 -1.76082766 0.443244636 2.53241801 -2.35651469
      0.944823265 0. -3.1081357 -1.22992551 -0.165176034 -1.01558387
      -2.29827404 -2.41840339 0.333403826 -0.455865949 0.511458039
      -0.691353202 -1.79265094 -1.12441635 0.404742569 1.7019645
      1.82683575 0. -2.23350716 -1.64790797 -3.92973685 -1.00542378
      -1.81373537 1.02775908 -1.03836441 2.44200754 -0.328338563
      -1.48363233 -0.832154095 -0.769897997 -2.31064963 0.314737886
      -0.573289573 -0.152436063 0.47811982 -0.253961325 1.55299628
      0.280556113 0.102149695 0.212518498 1.10335958 -1.41622317
      2.10721874 -5.15594673 -0.504271269 -0.586813152 0.0650569871
      0.271828085 0. 0. 0. -0.882190049 -2.56345677 -1.33518207
      -1.48069608 -0.114122719 0. 0.475608915 -2.03809857 -0.328338563
      -0.88060075 1.44549537 -0.687817514 -1.2659204 -0.161176696 0.
      -0.0432249382 0.791198194 0.45528394 0.314737886 2.20196581
      0.314737886 0.0962928012 -1.74101901 -3.098593 -4.15357351 0. 0.
      1.76682019 -0.934491634 -2.76742744 0. 0.228674814 0.423178762
      -0.861473262 0.525342166 1.09286547 0. 0.844481885 0.875757992
      -0.025185978 0.366610616 -3.6828022 0.306846768 0.911495626
      1.17302203 -0.731294453 0. -2.99480367 -1.53276181 -2.15657187
      -1.62749028 -1.90886903 -0.901887238 1.27899647 0.139354661
      0.0629636645 -0.336717635 -2.36695004 1.16799223 0.973263204
      0.673081398 1.50967288 -0.925059915 0. 0.453875571 -0.657267392
      -0.554424167 1.60885596 -1.26624632 0.534614921 -0.300557822
      -0.741204798 0.221560597 0.110427834 0.232032016 -1.8117857
      -2.53046799 1.48054504 0.462604135 0.894632638 -0.726202548
      -0.735045195 0.969460666 0.32952559 0.35346058 -1.59539902
      0.113490067 -1.66622436 -1.26050055 -1.45685804 1.22029877
      -0.759075165 0.354528815 0.207576662 0.59085238 -0.275312692
      -1.05478179 1.89855111 0.0050652707 -0.181791499 -0.5341627
      -0.790679634 1.81738818 0.803546965 0.307503253 0.851966202
      0.547619641 0.387162894 0. -0.794500053 -0.264950424 1.35425854
      1.61617708 0.397325128 0.379127532 -0.105022341 0.270904601
      0.965228736 0.333403826 -0.390100241 0.783059418 -1.03831899
      0.847667813 1.7946744 2.19472694 -3.24622893 1.08391464
      -2.23728919 -1.01897454 -0.603140831 -0.906693399 3.51895022 0.
      -1.03509331 -1.1405009 -1.0803175 0.433513761 0.356468737
      -2.43907309 0. 0.701037765 1.59006286 0.615804434 0.443244636
      1.95711994 1.41488492 3.32835817 0.365768075 0. 0.333403826
      2.63087106 -2.4958179 1.41588056 0.80843246 0. 0.244698286
      -4.32360029 0.563111126 0. 0.167161852 2.07797146 0.659965515
      -0.430736631 1.21655309 0.0355535187 0. -0.320895821 -0.365514815
      0.611108124 0.919704974 2.24412179 -0.578047931 0.201211065
      1.17907059 0.476460338 0.116206408 1.29809022 -1.64096105 0.
      0.333403826 1.05190611 0.0720591322 -2.12784505 0. 0.778008997
      -0.197370127 -1.43121481 -1.58512235 1.97063482 -0.521966815
      -0.0640879273 -0.218898267 1.07570982 -0.157501325 0.462604135
      0.0839191452 0. 1.15020144 0.342721224 -0.124303497 -2.39182091
      0.200356349 3.8185246 -0.58810252 0.333403826 2.42913485
      1.57749569 0.417749733 0.534614921 -1.53914714 0.18246299
      1.3429029 -3.44779944 -0.151469335 -0.0045016706 0.204897076
      0.663091898 -2.64258361 1.46060014 -0.430736631 2.01469302
      -0.50877589 0.605427802 -1.29568112 2.08588457 -1.14441681
      -0.573741555 0. 0. 0.999354243 -0.423107296 -1.49618328 1.61071134
      0.963168144 0.842863858 0.114574932 0.72272408 0.224585757 0.
      2.76541734 0.553085446 0. 0.874793649 1.19949186 0.368372917
      1.67750406 0. -1.76592445 -0.775127351 0.443244636 -1.30056751
      -0.803896785 -0.00290400651 -0.12348377 -1.43662739 2.20536232
      -1.16524887 0.585702538 0.16655831 -0.799565315 0. 1.34279406
      -0.0705930293 0.247431532 0. -1.70302665 0.065210253 0.889280617
      -0.104454987 1.44206679 -0.317033291 0.338469088 0.365768075
      -0.906693399 -0.430736631 0. 1.45830536 -2.62290382 2.53369999
      -1.42626905 0.201211065 0.697094321 -0.053506963 -0.0390007086
      1.53362584 0.916564465 1.18755651 0.721787751 0.0693152398
      -0.337351173 -0.631474853 0.20892325 6.51745129 -1.34804857
      -1.70625877 -0.906803548 0.163901091 -2.94290948 -0.0809756964
      -0.156396359 3.03898168 -2.34124207 -3.62546849 -1.34804857
      1.29019332 -0.705834329 3.72152662 2.12017179 -1.85550165 0.
      -0.941187561 -2.10371304 0.594636917 0.247785985 1.08159208
      0.333403826 -0.122126743 0.086687617 0.627161145 0.868260443
      -2.85473609 1.44046366 0.240617558 2.40610051 0. 0. 1.57660282
      1.06504846 -0.909818232 -0.920192659 -0.430736631 -1.43176866
      -0.656677127 0.344194829 0. 0.378887534 2.82865405 0.976248145
      2.19951606 -3.31437492 0.666807652 0. 0. -0.613200188 -2.45090795
      0.12747097 2.04371405 0. 0.418599337 1.49880481 0.35107699
      2.5902853 -3.20215106 0. 0. -4.06294012 -0.136690915 0.327531248
      -1.70625877 1.61255968 1.9883256 -0.328338563 0.316088587
      -1.17605829 -2.60229445 -0.901628137 0.63029778 2.48275924 0. 0.
      2.43048167 0.197494909 0.347953588 1.80812585 0. -0.644173503
      5.55865192 -1.01116335 -2.56122899 0. 1.28345788 1.09445536
      -1.79090714 3.33423424 -0.289725751 2.5176754 0. 0.985518336
      -0.444824845 2.35862851 2.82458258 0.134265572 3.17203736
      1.42895019 0.333403826 2.69323421 0.116874345 0. -1.53034246
      -1.02974653 -0.388414919 -0.69519031 0.457794398 2.01556206
      -0.0196349528 1.76860046 0.949617147 2.87350488 -0.77091527
      -0.462632507 1.53609622 -1.5701102 -0.012258416 1.9707371
      -1.63780272 -0.0267728921 0. 0.554874778 3.85447288 -1.85656738
      -1.55261612 0.333403826 -1.31780314 -0.928041518 2.18961501
      0.451076657 2.07995272 -0.449437439 1.23077703 0.271912545
      -0.75265342 0.214215845 -1.21424592 0.252897322 2.25885296
      0.158431381 0. -0.567427516 0.344267577 -0.0669454932 -1.08050811
      0. -0.408591032 1.45263493 2.58208251 1.31084609 0. 0.634268105
      -0.086673148 -0.0507460684 0.606042862 -0.929454207 0.8354792 0.
      0. -4.02508688 0.05675257 0.0755799711 0.585449696 0. 0.277002662
      4.74932146 -0.708878934 -1.20975363 1.91373169 0.477779835
      0.660895705 -2.26007462</_>
    <_>
      -6.21332836 -2.13516951 0.588726223 -0.423903137 0.795769155
      1.79762757 -0.352214217 0.539521635 -0.177953184 1.26865935
      1.82272243 0.792778492 0.513271928 0.0652035549 -0.197337493
      1.83724964 1.31462681 -0.0307221096 -2.19366574 -1.64394379
      1.11977398 -0.437667191 0.329388738 -2.80672836 0.623055935
      -1.57660282 0.423645526 -0.620898604 1.28317428 0.181565344
      -0.831704915 -2.4231627 1.541785 -2.51226044 0. -1.02823424
      -5.03479767 -2.28467488 0.354117841 -2.67621732 1.42177582
      0.875968397 0. -2.02893901 -1.02823424 -0.558717787 -1.15591133
      -0.392234176 0.520689726 1.49464643 0. -1.9137758 -0.11916513 0.
      0.727635324 0.348215967 0. -0.412225127 0. 1.66384065 1.32471907
      0.685266137 0.363258034 0. 0.358668596 0.195426062 -0.327953458 0.
      0.308143854 0. 0.970615447 -5.92332077 -0.0301805045 0.579854071
      1.44201279 2.86516666 -4.3693223 2.02574539 -0.447135955
      0.50800246 0.540840149 -0.856310248 0.144173443 0. 1.43677545
      0.6295591 0.343061924 1.77304888 -3.08952665 1.28781319
      0.567777872 1.55756211 -0.306771129 -1.0427562 -0.814853907
      -1.73062658 0. 1.52320361 -0.76174891 1.66550684 0.0769568458
      2.2013638 -1.44974339 0.886438787 2.55933309 0.835421383
      0.394802332 0.134550363 -1.46517885 0.538487971 -0.0310774893
      0.195426062 0.576405287 -1.02543294 0. -0.373701245 1.35477388 0.
      -4.6001997 0.557447612 0.556986153 0.664619148 0.413274169
      -1.94755757 0. 0. 0.307322443 0. 0.242692843 -0.0217022747
      1.10520542 2.51680756 1.05753911 0.313141376 1.61240292 1.60342205
      1.00471866 0.469780743 0.212409362 -0.183284506 0.126762837
      -0.389117062 0.623821855 0. -0.627082288 1.55997729 -1.02823424
      0.126762837 3.48232269 1.98225439 1.47169352 -1.84637403
      2.07188725 -1.44601512 0. -1.9122951 1.62077212 1.30750704
      0.80648011 0. -0.53251785 0.308383316 0.00385384448 0.195426062
      -0.882906675 -0.0999867544 1.83294988 0.639900625 -1.1695962
      1.97628367 -0.698845506 0.444363892 -2.78014183 0.0645943508
      -0.382958531 -0.322292864 -4.65180349 -1.63423848 0.267237931 0.
      1.464324 0.144173443 0.134550363 1.04305661 0.615376532
      -4.23912621 -0.662688375 -2.05595851 1.44830108 1.16480255
      0.618468702 -0.165068805 0. -0.555100799 -5.44867468 0.336149693
      -1.2453419 1.45538509 0.377017498 -1.15442562 1.77474916
      -0.0733312741 0.0925375596 0.884579062 0.227858022 -0.757944107 0.
      -0.896299243 0. -0.0879473463 -0.185625881 1.17437899 0.
      0.046830643 2.16731596 1.35748041 0. 1.63353324 0.242692843
      -0.879816711 0. 1.99024725 0.170119852 -1.5265522 1.50809526
      -0.319068998 -1.45302534 -0.0890479162 2.67632866 -0.622888863
      0.242692843 0.515051544 -2.63769627 -2.45232534 -0.870977461
      0.134550363 -1.4069221 0. -1.68275487 2.6825285 0. 1.17295671
      1.33269334 -1.50939345 1.12135839 0.780474424 0.0708352849
      0.961176395 -0.371631205 -1.10674238 0. 0.84208256 2.04204345
      0.843472958 0.077482596 0.242692843 0.134550363 -2.33884454
      -1.2042284 -0.858114421 0. 0.215845823 1.98357165 -0.0070952815
      0.0291739367 -0.308099121 1.44092345 0.340549499 -0.0909046456
      0.485385686 -3.0272181 1.95996261 0. -0.0617130809 0. 0.262657404
      -0.734762251 0. 0.269100726 0. 0.688373566 0.239457458 0.
      -2.38058114 -1.7291075 1.2913636 0.558348894 0. 2.60377264
      0.347344726 0. -0.749584079 1.67082536 -1.835904 0.170119852
      1.40024185 1.19487321 0. 0. -2.17627621 -0.808933854 -2.0227952
      0.242692843 1.7186476 0. -2.20974374 -0.412689567 1.56654871
      0.0925375596 1.36763477 0.358666837 0. 0.115974002 -1.31091189
      -5.74633265 -2.58529377 1.35448015 2.02760625 -1.40518689
      1.81384206 0.307686478 0.208767802 0.400934607 2.86334348
      0.519707918 0. 0. -0.0886930004 -0.80895412 0.959211588 1.20366848
      0.401883066 -1.68461597 1.21756709 -0.293001801 -0.436398685
      0.538313031 2.34999251 0.940443397 2.28020859 -0.445769459
      -0.59790343 0.353939712 -0.514383197 0.512763202 2.35021281
      0.334448129 0.422323555 -0.39897871 0.170119852 0.122471176
      0.776209652 -0.813248813 -0.100657776 -2.93762016 2.60447049
      -0.432976097 -1.784356 1.86176419 0.0925375596 1.8204813
      -1.40437567 0. 0.731093943 0.311741084 -1.48051286 -0.322283715
      -1.20790553 0.170119852 0. 3.49613619 0.419057697 0.498035043
      0.170119852 -0.556959152 0. 0. -2.05646849 2.48717499 0.
      0.873233676 -0.142240241 0.759348273 -0.254915208 -2.21305513
      -6.93099642 -1.36233807 -0.838991165 0. 0.993727505 0.785702467
      -1.25897741 0.903657019 0.683140934 1.71880341 -1.65752351
      -1.14731288 -0.724587202 0.28805837 -2.42721868 -0.205676213
      -0.263267279 0.902813077 -0.31410104 0.530504227 -2.80181837
      1.2624073 2.72224927 -0.164103821 1.20258737 1.68368447 0.
      0.900641918 0.0706814304 -0.279397875 -0.850006282 0. 0.382999331
      -0.973026395 0.329388738 0.144173443 0.948792458 0.451204389
      0.87916559 0. 0.910829306 -1.30747902 -0.814853907 -0.814853907
      -6.7075963 -1.2559526 -0.0268254224 -1.32058275 -2.16296005
      0.077482596 0. -2.85203528 -0.681650937 1.59507918 -1.50315332
      0.696346402 1.45489955 -5.07598925 -0.801146328 1.5022012
      -0.464944303 0.865471303 -2.00150895 -0.595551729 -6.62260914
      0.329388738 1.79188061 -5.25710106 -0.395912468 0.55740726 0.
      -5.19701529 0.377243191 0.468334705 0.342968047 -2.70807123
      -0.896299243 0.547363043 -1.002527 0. -0.0705469027 0. 0.134550363
      -1.16783762 -0.00697594741 -1.67315459 1.04190636 -0.570391715
      -0.796286225 1.53745365 0.0451095551 -1.67427886 0.463604331
      0.691536486 0. 0.342207015 -0.27009514 -1.60028863 -0.211136863
      0.483633071 0.966304004 0. 1.18607974 0.42192629 -0.231448516 0.
      0.077482596 -2.7233386 0.170119852 0.46379891 -0.505960107
      -0.552946985 1.03330493 -0.413422585 0.455855817 -6.98020458
      -0.0991292745 0.622437119 1.9215672 -0.313114464 0.818993866 0.
      -0.468531281 -0.422259003 0.646328032 0.657126009 -0.666595995
      0.427767962 0.170119852 0.884343147 1.71156454 0.537057281
      -1.1446799 -0.688094258 0.214479655 0.342557043 -0.30839327 0.
      -0.7621032 0.680811763 -0.217901766 0.0138544589 -2.17205024
      2.89371109 -0.322283715 2.80856037 0.126762837 0.077482596
      0.315796018 -3.29163313 1.54856193 0.212032959 0.361123949
      0.643682063 -0.499168843 -2.0626061 1.33063424 1.40337336
      -1.80752146 1.99989688 0.635936737 1.33871651 -0.458526582
      -0.599494696 -2.05825138 0.660796583 -3.43633842 -2.22107053
      -0.322283715 0. 0. 0.375671297 -0.0585166514 0.398395777
      0.600325048 0.504006028 0. -1.35186422 -1.77805352 -4.83348942
      0.148417577 -0.111256815 0.28805837 -0.944451749 -0.963640213 0.
      -0.773637533 0.855714977 -0.633829832 -0.110250771 1.91339719
      -2.28274655 -0.896954715 0. 0.170119852 -0.616403282 0. 0.
      0.642771661 0.432137072 -0.229746163 0. -1.14035821 -1.01440895
      -0.81946677 -0.309009731 1.07213247 0. 3.03973079 1.34266353
      0.390622973 0.572953105 0.24218446 0.752312481 1.00918257
      0.646630466 0. 0. 0.418225497 0.37223655 -0.0585166514 -1.55412471
      -2.62834072 0.0202248804 3.99368978 -0.582592547 0.103478387
      0.114232898 0.343017846 -0.168758035 -0.120460182 0.739865363
      1.03735077 0.340239704 0. -0.54103148 -0.117267057 2.12243772
      1.5536257 0.505350232 0.406830847 0. 1.22179866 -0.570094228
      1.7709769 1.30923009 -0.1955446 0.422828972 0.575531244
      0.287963599 0.53255868 -2.38414001 -0.413422585 0.742201447
      -0.0787291527 0.615981638 -1.63418734 0.465648472 -0.413422585 0.
      -2.56327462 0.179081991 -0.926289141 -0.195321038 -0.164252758
      -1.67093325 0.670216143 0.361638278 1.21409333 0.170119852
      0.136878207 -1.07762277 -2.02010679 1.13400781 0.123053655
      0.613453448 0.342452049 0.547363043 0.751902699 0. -0.726179361
      0.406830847 1.31474221 1.04147017 -0.349933177 -0.358605802
      0.789520383 0.981676221 0.594809353 -0.692587793 -2.37802792
      0.818993866 0.118772417 0.776914716 0.701728761 1.0519048
      -0.703790963 1.3020215 1.71445286 -0.698845506 0.93390125 0.
      1.35184097 0. 0.727105975 0.192032278 -0.989749491 -2.60499072
      0.651325762 -1.71203887 0. 0.497857124 0.821168244 0.664619148
      0.448843658 1.57501817 2.9057405 2.83310294 0.438118905 0.
      -1.75958586 1.82862556 0.5769912 0.750442743 0.620629489 0.
      1.00436532 -6.20999241 1.41266227 0. 0. 1.09783077 0.0846978649 0.
      -2.92789435 0.272908658 0. 0.2613132 -0.430048913 -1.77037466
      -0.292498916 1.8742255 1.20641553 -0.000996990129 0.833458662
      0.49950859 0.463939101 1.51003039 0.17277208 0. 0.170119852
      1.47679651 0.485385686 -0.763860643 0. -0.639303684 -2.37577653
      0.242692843 -0.855462193 3.25309825 -2.21712303 1.92893136
      -0.327074677 1.15288234 -0.885979474 -0.838532269 1.18165696 0.
      0.529947937 -2.62106776 -1.00242913 -2.39871883 -0.106249571
      1.17458832 -1.47334683 0.314293295 1.3497479 1.05211711 1.08394861
      -1.18234527 -0.212597027 1.0102005 0.863353729 0. 0.640762508
      0.879964352 -3.48137164 -0.139706075 0.0327579267 0.817763507 0.
      1.33885968 -1.22325587 -0.157872081 -0.497483045 1.90897155
      -0.336697757 0.17277208 -0.0935345516 -3.16261554 -1.66443872
      -2.84135413 -1.24889398 1.14961267 1.25653684 -1.79729986
      -0.0851574764 1.96240044 0.769739747 0. 2.09660172 0.710156858
      -0.659840286 1.60063374 1.04044831 0.0925375596 1.61450815
      -0.8840608 -0.0935345516 -0.582567573 -0.723564029 -1.83563995
      -0.816201329 0.765689492 0.170119852 -0.830005944 -2.04467797
      -1.27100658 1.67634714 0.159521714 0. 0. 1.52285707 -0.641356468
      -0.456152678 0. 0.369455695 0.438118905 -0.35957998 -3.04915333
      0.103860162 -0.075633809 0.484413147 0.502713263 0. 0. 0.
      1.29599571 -0.168189064 0.10559912 0.821281612 -1.96935427
      -2.56886911 -0.099159576 -0.761872709 0.485916018 -0.125825465
      -3.07891417 -0.0176334605 0.784747303 -0.238942862 0.854703546
      0.44063738 -0.0847895592 0.126762837 0. 0.84419024 0.977594733
      0.590561748 0.785741985 0.144173443 1.73693907 -1.05223656
      -0.478274226 -3.76685834 1.02130699 0.185075119 2.71516132
      1.13319206 -0.244801134 -0.642238021 -2.70473719 -2.51567292
      -0.663334548 1.38086677 -0.0145729398 0.170119852 0.58494103
      0.192134157 -0.181308985 0.633139908 -1.92321455 -0.0287695788
      -2.51401329 1.57065248 0. 0. 1.52129173 1.1241194 -2.23287296
      2.54542422 -1.02823424 0.161647171 0.173593491 1.56468117
      -0.328715503 1.18519616 1.18419921 1.52061403 2.09534478 0.
      -0.565464616 0. -0.0585166514 -0.595487416 0.304670215 0.
      3.15228081 -2.80541992 0.842570484 0.351692349 -1.36820233
      2.72301221 -2.12558007 0. 0. 0.602897108 0. -1.39275646 -1.7962575
      1.59372067 1.15554607 0. 1.20873892 -2.3632443 -0.566910505
      0.170119852 3.09493279 1.41595554 -3.76732588 0. 2.40319824
      -2.26093841 0.963179231 1.02228165 0. -1.71098256 3.26778269
      1.13208318 0.666208804 -0.0687580332 0.906866312 -0.921775699
      0.570523322 2.23166251 0. 1.82270074 0. 1.06685138 1.24609065
      2.31709027 1.615448 0.287963599 0.395319432 1.12391984
      -0.335840285 1.6764431 0.632547975 0. -3.29212904 -0.500560641
      -0.45965898 -1.29732156 0.541421711 -0.925023198 1.55128241
      2.32053733 -1.44232464 2.66515684 -0.0716939643 0.87904793
      2.8838129 -0.485465199 -1.21617579 1.31973612 -3.9332242
      -1.83093131 0. 0.417023122 2.34261751 3.33212209 0. 0.458466738
      0.402189106 0.562085807 -2.01774335 -0.455223233 0.533283591
      0.0773391947 1.21637774 0.454654753 -0.825843334 -0.437610745
      -2.27365518 0.463939101 1.61377048 -1.94760895 0. 0. 0.40022403
      0.322188884 0.045084659 0. 0.473346144 0.76110822 -2.95521259
      1.11975884 -0.641356468 0.15429242 -0.0875510573 -1.4681946
      0.115974002 0.126762837 0.820661843 0. 0. 0.595634103 0.683266103
      1.90234554 1.30793226 -0.641356468 0.134550363 1.50348854
      1.7467947 -0.53724128 1.34651792 0.788595319 1.46753895
      0.134550363</_>
    <_>
      -1.63796973 -0.14085193 0.543142736 -2.46396112 2.41545939
      4.14477062 2.59857798 -0.901971996 -2.12132049 2.49593091
      2.19541812 3.80028224 1.99490416 -1.14973605 -0.131354272
      0.142387435 4.30504513 -0.0631959811 1.06321359 -0.267361522
      -2.40998888 0.589238346 0.489857614 -1.49614453 0.407769918
      0.0527247861 -0.961493254 -3.15197563 1.22016728 -4.74823856
      -0.394332051 -3.45412469 -0.780875027 -1.86588645 -0.755127311 0.
      0.847749591 0.475599319 -3.45517492 0.633185506 -0.468790442
      -1.84191704 -0.547502756 1.16763687 0. -3.86809587 0.223317713
      -0.920142353 1.79323983 1.74078953 -0.322221071 -1.72897899
      0.162480056 0. 1.68235278 -2.84052706 -0.506198287 -1.78509295 0.
      2.91622543 3.09100747 1.18623292 -2.22645092 -0.952235579
      -1.20423651 0.471277982 -0.49505505 0. -1.27305079 0. 0.255711138
      -0.573517025 -2.95153141 3.01746011 -0.206626192 4.98779535
      1.16168022 0.809871197 -2.47450328 0.502522051 -0.504051089
      -2.61223912 -0.935199916 0. 1.98334634 -1.76625073 -7.35266209
      -0.563944459 -2.44679999 1.11675155 0.564678133 -2.89176893
      -5.21990299 -1.79204476 -2.46720815 -2.09207153 -2.22336221
      1.72460985 -0.624839306 1.7737118 1.28794789 4.77420568
      -0.846842945 1.32294393 1.11007845 1.71978664 -3.42398643
      0.393576801 0.749820292 1.42055774 0.00751766236 -2.1991322
      0.116796397 -1.40072131 -0.921226263 -2.69206905 -3.65922737 0.
      -0.430747837 -1.21471596 -0.947512686 0.916642189 -5.56182528
      4.10910368 0. 0. 0.290723711 0. 0.596461236 -0.53029412
      -4.05067348 6.52465773 -1.4825294 1.82620561 1.61655557 -2.0063138
      -5.44533014 1.54574096 -1.62281036 -0.647613287 -0.497751385
      -1.03519344 -1.68752813 0. -1.8947835 -0.656058311 0. -0.362870395
      3.53716087 2.82217193 3.29009032 -0.210340574 0.675328791
      -0.549207687 0. -4.20272827 1.53367805 -4.03727388 2.04901505 0.
      -1.05851948 0.0709653869 -3.52729487 0.197663814 -4.86830854
      0.174501359 3.71313572 1.92146468 -1.941221 1.35365736 0.252629191
      -0.294151604 0.00526250247 0.521243334 -2.00089192 4.69356346
      -2.66237903 -0.577791154 1.2638706 0. -7.14251995 -0.336810142
      -2.18581605 -0.629403234 -0.709753692 -1.08187759 0.533390701
      2.07757092 2.47897148 2.90021539 0.90512687 0.710909784 0.
      -0.331448287 -0.851590991 3.21973538 0.968750298 -2.59316063
      -1.19479144 -1.24832821 -0.55743891 -2.12058043 0.336521655
      1.73866057 -0.345474154 -0.991918623 -0.660938323 -1.3600359
      -0.388823241 -2.29725623 1.86937332 0.164455324 -0.538590908
      -0.433151364 4.97182226 1.43400502 -0.566020906 4.18814611
      0.379885525 -2.37562561 -0.690185726 1.17371523 0.378329307
      -0.114549175 0.336696804 0. -1.1481092 0.333017021 4.09130621
      -2.15099883 0.596461236 0.803912878 4.55553007 -0.0953908414
      -2.69461489 0.393576801 0.296055198 0. -2.16513133 6.20501328 0.
      2.46814942 2.29906297 0.418092042 2.65020442 3.21074462
      -2.74332309 -4.03332853 0.766432405 0.555330455 -0.371667147
      0.322669357 4.46776485 0.715161383 0. 0.596461236 0.393576801
      -2.53693938 -2.58986211 0.0479030758 -0.660938323 -0.271432281
      2.46705914 -4.20226336 -0.304748267 1.53912842 -1.8400141
      0.0797799751 -1.19405615 -0.0591725148 -4.57508802 5.33398676 0.
      0.660618663 0. 0.931426644 1.63244104 0. 0.513539433 0.
      -0.67049545 1.14528275 0. -3.00398588 -1.20345712 -4.92021084
      0.454922915 0. -2.42875028 0.367856205 0. 0.661904037 0.301078171
      0. -0.986186087 -3.5210638 2.25556469 -8.22448063 0. -0.745114446
      -0.615386188 -1.4844631 -0.330059409 -0.46012792 0. -3.24884415
      4.33898544 4.6472168 0.553097367 1.28789437 -0.278447241
      -0.216575682 0. -1.90719211 -1.53984618 -1.68822289 2.56033015
      3.04075146 2.15537834 4.03085041 0.489857614 -0.184816837
      -1.53421223 6.49762678 0.71117413 -0.132963866 0. -2.30204582
      0.399389833 1.03866315 1.78120744 0.382180691 -4.18722725
      -3.8103888 -0.523843169 2.94638133 -1.14626133 5.43774557
      -3.70132852 4.07468224 -3.02805638 0.000765648729 -1.93237197
      -1.41205668 0.236816898 2.21512532 -1.1656673 0.264739335
      -0.779058397 -2.18653131 -3.39077306 4.38033962 -0.0876213834
      -0.126581013 0.118190482 2.46037197 0.0155812921 0.0985981151
      4.57681608 0.553097367 1.32159507 -4.63674593 0. -0.31287235
      2.27227664 -3.30291867 -0.934552491 -2.7036581 0.378329307
      -0.679447055 6.09140873 -0.108057328 1.14955854 0.378329307
      1.1323967 0. 0. -1.64805651 2.09834671 0. -0.147415444 0.423995882
      0.401753843 2.56102085 -1.94365144 -0.908303857 0. 1.74156487 0.
      -1.25457644 1.21371603 -3.73928952 -1.53878903 1.09845769
      3.45475698 2.12796903 -2.38507867 -4.6799798 -0.326927692
      -1.45505536 -1.11384892 -0.355499923 1.71142161 -0.3878268
      3.32325959 -1.72097003 0.469103098 2.99560118 -1.68935001
      -0.310357451 0.135184422 -0.453804106 2.28784657 -3.20272899
      -0.312713295 -2.68513823 0. -4.71591854 -0.577185214 0.489857614
      -0.727491856 -0.807436645 1.55444312 0.462694079 0. 1.20002198
      0.553097367 0. 0. -3.42188644 -0.545804083 -1.22656846 -5.72158718
      0.941303074 0. -0.273614168 0.926112354 -2.68534303 1.33621752
      -0.910053909 -0.438677728 2.09861422 -0.783192754 0.946674168
      -0.298089474 -1.83903909 -2.38280416 -0.748364508 -0.825713217
      -0.592214108 0.489857614 4.32423592 -0.0959076583 -1.34930587
      -0.966920853 -0.660938323 0.483810127 0.990038037 0.942555964
      0.782270253 0.332589895 -1.35669386 -3.1309042 3.13799953
      -1.24827099 -0.194435552 0. 0.393576801 0.400678515 -6.70249367 0.
      2.17892647 -0.983900428 -0.151275828 1.75872898 0.784781039
      -1.40754402 -0.560390234 1.36836731 -0.377563655 0.784555614
      0.606604993 2.44288063 0.43810305 1.02824306 -2.04325747 0.
      2.17632079 -1.0180589 -1.98192763 -0.132963866 0. -0.461889863
      0.378329307 -1.6935904 -0.371667147 -0.428667605 1.59204531
      0.553097367 -0.0681351721 -1.20716977 -3.01533628 0.75837481
      4.76509666 -0.471170515 -0.369861245 0. 0.131050825 -0.0637920201
      -1.80289733 -0.628391623 -0.253769279 -0.184406593 -0.796898961
      1.13845193 1.62544823 -3.30607128 -0.946505487 -3.01461697
      -2.90976548 1.33456349 -0.879085839 0. -0.113183379 -0.369730204
      -0.139045015 -0.860201836 1.10619473 1.59529054 -2.21622968
      5.72762346 -1.59786212 -5.11328888 -2.54266858 -1.58974791
      -3.58816695 0.393576801 -0.386657089 -2.60806632 -1.54495025
      -2.5935657 -0.228859544 1.75002515 0.519635141 1.87157738
      0.717323482 1.42908859 0.577899992 -0.867604136 -0.608282924
      -0.218445212 -5.47109604 0.868186951 -1.11423194 0. 0. 0.891159594
      0. 0.275167555 -0.106179215 0.132358432 -0.377563655 -0.755986929
      0.366228819 0. -0.653021932 0.432940334 0.35141927 1.28063369
      -0.727848113 -0.660938323 -2.31373954 1.26176369 -2.53347063
      -1.88691723 0.417223334 0.393576801 -3.22153449 -0.762252092
      -3.26054716 -1.86433554 0. 0. -0.0794969946 -4.95168114
      -0.151553243 0. -1.37349343 2.22619009 -1.19952917 -0.517444193
      1.56823337 -1.24328101 3.990628 -3.01843619 0.0353350118
      3.02110314 -0.145835355 -0.780976355 1.17169082 2.31509781
      -0.273614168 0. -4.55850315 0.826621294 0. -0.953581452
      -0.502404332 -0.866355836 8.02641201 0.581601799 0.507246077
      2.10175419 -1.34430122 3.10511661 1.30263066 2.08622003 7.40248442
      0.0957202911 -0.506198287 -0.529625595 -0.927413344 -1.29571116
      2.74195361 0.614303648 0.931426644 -1.15189433 1.90543878
      2.67470717 1.38737535 -1.9115057 1.10486281 -3.81001854 1.39443231
      1.31375217 0.357897311 -1.60824883 -0.544828176 0.11458835
      -3.3414495 -1.689731 -3.80417871 2.06725502 -1.24171722
      -0.50359273 -2.31980467 1.92643845 -0.340069145 1.22484565
      -0.770684242 -0.663235128 -0.661034644 -2.74235845 0.338864923
      0.378329307 0.207931817 -2.33454442 -1.50993335 2.60684061
      -0.367204517 -1.91045618 0.0154726831 1.36836731 1.09533024 0.
      -0.439468265 1.21330225 0.689032674 2.05374312 0.159523979
      0.41478315 1.24194682 2.08744907 -0.612142086 0.378329307
      0.964430451 0.125629753 -1.77552629 1.60464394 0.312514544
      -0.269682139 -1.29254866 3.47462845 0.196409568 -1.63019574
      -1.80112755 -0.770816982 3.4478488 0. -0.601428449 -2.64753032
      -1.44362509 0.00779546332 2.66711593 -3.6517067 -0.678346932
      -0.129256561 2.39517117 0.99763149 -0.567379177 2.43908525
      5.94423962 5.71092796 0.690175533 -0.660938323 0.521657228
      -7.3667264 -0.273204088 -0.0262169447 4.62174463 -0.850195527
      1.4580605 -0.537318587 3.08282161 0. 0. 2.24849868 1.27872145 0.
      4.16167212 -1.67879546 0. 0.536904693 0.0741480291 -0.698852479
      -2.46251917 6.67047834 -2.66605306 -0.00354748545 2.36816001
      0.0502907969 -0.740239561 4.02969885 -2.65907621 0. 0.378329307
      3.00131059 0.531984091 -0.213853851 0. -2.18115973 0.207248598
      -1.43147564 -0.045814611 4.4560113 -1.99661112 1.91300344
      -2.19510984 1.90941894 0.489857614 -1.0717876 1.43895245
      -0.915575385 -0.650579512 -0.320902884 -0.428356528 1.14665079
      1.96213567 -1.05376399 -1.05844748 -0.225669101 -0.140821502
      2.16034675 1.63259661 -0.390450001 -0.482761413 1.52633715
      1.20854366 -2.50594807 1.08859932 -2.16095972 0. -3.92771006
      -0.348875105 2.258147 -0.340069145 0.613195837 3.30386066
      -0.0548167638 -0.454146564 2.86851192 -1.24588966 -0.533889532 0.
      -0.273614168 0.518066943 -4.99178886 -1.2679615 1.57828069
      2.61051178 -3.10726714 -2.19883299 0.368622661 -0.857760429 0.
      4.87724304 -0.627275109 0. 1.40987074 2.16004515 0.553097367
      1.64264679 -1.05780256 -2.65140152 -2.54496098 0.771906137 0.
      -4.31947231 -2.45995164 -0.670031726 -1.70830393 1.79753745
      -0.679874837 1.53007495 0.280714154 -0.929493189 0. 2.32461953
      -0.660938323 -2.04706168 -0.273614168 -0.271834791 1.76200056
      0.74973762 2.35969138 -4.69891691 -0.586194575 -0.518180847
      0.9280442 0. -0.765278161 0. 3.47690797 0.329435349 0.971125066
      -1.04545331 -1.03009498 -0.859507859 -0.169199884 -0.227432981
      2.57250333 -3.03607965 0.569161057 -1.72557664 2.13770819
      0.0113501316 0.168589473 -1.46066904 7.26726818 -0.196741253 0.
      4.19049215 -1.57226431 -1.14778614 -0.055042807 -3.73845291
      -1.65533698 -4.04153872 -2.77820969 -1.57917702 -1.09772754
      -0.416352034 4.89026928 2.56266308 -0.156859234 0. 2.10084438
      -2.16542125 0.0443459563 -1.06671405 -2.89093232 0.0382601731
      -0.515554607 -2.06421566 0.607609928 1.52881742 -1.90000248
      -3.41143656 1.01644456 4.73774052 -0.248173684 0. 3.46748638
      1.67011285 -3.66159773 5.69966459 -1.57709289 -0.573390424
      -1.65194046 0.424612045 -0.877514005 -1.50639343 2.70288801
      -3.00559497 4.15540504 0. -0.181942061 -0.678346932 0.
      0.0113501316 0.0935591757 -0.658332765 2.80837274 -0.470629871
      -3.35352731 0.775913477 1.32620978 5.98173189 0.222496092 0. 0.
      0.757288933 0. -2.33386397 -1.48139405 -3.72223783 1.97337842 0.
      0.00496986182 -0.790370107 0.489857614 0.104715139 1.28148055
      4.22788715 0. 0. 2.263376 -3.84406376 -0.214145303 2.19082832 0.
      -0.00736699766 8.8839817 -0.620025814 1.62598681 -2.71178842
      2.09770179 1.43244922 -0.716494679 4.38352299 0. 5.52582359 0.
      -0.488654822 -0.168750927 4.43684483 3.66353846 -0.357813209
      3.26074314 0.350358039 -0.696768641 -0.238608941 -2.22618365 0.
      -0.42094788 -0.482482642 -0.530674934 -0.36617586 0.392970145
      4.56310892 1.62061822 5.23800039 0.14526543 4.41264153 -1.46326387
      1.93534386 1.99873936 0.273281932 -1.46332192 1.47019577
      -0.660938323 1.22481537 0. -1.47372627 5.51686192 1.50648952
      -0.506198287 -0.300017625 1.15230405 3.40918159 0.60617882
      -1.23925459 -0.132059574 1.57140112 0.0733169615 0.195229694
      -0.435931385 0.498374075 -1.73995936 0.496011704 4.382586
      1.34218478 0. -0.506198287 0.769340754 -5.65878773 -2.14489055 0.
      0.595127702 2.85116005 3.43511653 0.00825694203 0. 2.54571342
      0.666415453 0.141131237 -7.88965273 -3.93013859 -0.951150358 0. 0.
      -0.813487887 2.7738986 2.83884835 2.17598319 0. 0.00615408225
      -0.215887085 1.53288758 -2.93045139 3.83177257 -5.1558547
      1.06837404 -3.39524889</_>
    <_>
      -2.5451045 0.19820419 0.570666313 -1.13098133 0.559129715
      0.822138071 0.395322859 -0.763579071 0.140595511 1.08927071
      0.691307545 0.840980589 1.04171062 1.08373475 0.363354743
      0.752080798 1.05684209 0. 0.416631609 -0.572977722 0.469918311
      0.199189141 0.118866466 -0.369687527 0.284849942 -0.477532774
      0.0780581236 0.0256793015 1.05581284 -0.219764948 0.0480348207
      0.627023757 0.460130095 0.983965278 0. 0. 0.109392777 0.827592194
      0.0752638504 -1.15188491 0.515510678 0.0346656069 0. -1.18716073
      0. 0.304922998 0.183527187 0.418964237 0.680603504 0.0323695801
      -3.16506076 -2.34114218 0.672748327 0. -1.45189762 -0.565253854 0.
      0.772174299 0. 1.0113579 0.89723444 0.268116713 -0.148520842 0.
      0.346196175 0.0546292365 0.725668371 -0.519527316 -0.19735308 0.
      0.421779841 -7.35977364 0.0506148487 0.411786437 0.483495295
      0.727675438 -0.766556442 0.60927099 -0.596242309 0.32974568
      0.935884118 0.223319665 0.0970880464 0. 0.662231684 0.0544580631
      0.215035394 -1.51159489 0.266887993 -0.762126982 -0.678620338
      0.519891143 0.69233042 -0.394393563 0. 0.378284156 0. 0.769600511
      0.140595511 0.725836933 -0.0466919802 1.22028983 0.156043217
      0.172051355 0.967501998 -2.39093113 -0.000362478459 0.321527898
      -0.875226617 0.366752684 -1.41559517 -0.688174009 0.0453574695
      -0.834225297 -0.369687527 0.023171572 0.417812824 0. -0.369687527
      0.281191021 -0.606320977 0.220535383 0.0120592909 0.196147695 0.
      0. -0.483582735 0. -0.342458487 0.0196778234 -0.389092088
      1.39468288 -2.40976548 -0.227423385 -0.47246623 0.581700504
      -1.03992212 0.339352459 0.310240686 0.326171279 0.0351671316
      0.363354743 0.126590326 0. 0.00772385718 -0.601368785 0.
      0.0351671316 1.51520514 0.63364315 0.682721257 -2.11604548
      0.951825261 -0.624565542 0. 0. 0.404783249 0.44521302 0.76770407
      0. 0.809696257 -1.33077514 -0.149839774 0.0546292365 -0.545419455
      -0.801262856 1.2861588 0.249988288 0.125024095 0.731598556
      0.118866466 -1.87711513 0.316358149 0.0480348207 0.569494486
      0.933577299 0.367184848 -0.043967206 0.613605618 0. 0.716209054 0.
      0.302744746 1.23144722 0.53005749 0.0970880464 0.22450234
      0.481909007 0.602950037 0.4721466 -0.0791530684 0.3948448 0.
      -0.194617867 -0.00924427249 0.708190203 0.109087296 -1.47835398
      -0.106443651 0.222759247 -0.787863731 0.445518494 0.0744398907
      -0.46598345 0.486003131 0.244007513 0. -2.23065853 -0.209747508
      -1.2510376 0.963524342 0.210154131 0. 0. 0.697011113 0.609540522
      0. 0.725999892 0.0272290315 0.18632853 0. 1.15217257 0.00772385718
      -0.334813625 0.413503796 0. 0.378328443 -2.53991461 0.906839967
      -1.1731292 0.0272290315 0.344104528 0.703405917 0.296638727
      0.154750243 0.140595511 0.0898876041 0. 0.148879781 1.34461737 0.
      0.485549927 0.036689207 0.281191021 0.548015296 -0.04074765
      -0.232395664 0.305462658 0.0259797107 0.148319364 0.0970880464
      0.626123428 1.21507072 -1.41701484 0. 0.0272290315 -2.37322807
      0.699225724 -1.49358869 0.00772385718 0. 0.465591729 0.721678257
      0.557257831 -0.434677452 0.311107039 0.740785956 0.0621819198
      -0.690089405 -0.315229475 0.190945566 -3.10869026 0. 0.3469432 0.
      0.0821637437 -0.218475446 0. 0.281191021 0. -0.0597525164
      0.553149283 0. -0.656954288 0.0546292365 0.321239561 1.04296708 0.
      -0.104996622 0.134314179 0. 0.355630904 0.305365294 0. -1.84071374
      0.198643267 1.87829924 0. 0. -0.255702227 0.109607019 0.
      -0.342458487 1.03637862 0. 0.0744398907 0.55429852 0.799691856
      0.0744398907 -1.49025381 0.0272290315 0. 0. -0.0578936972
      0.0480348207 0.193306357 0.653654039 0.487944394 0.498895526
      0.810456753 0.118866466 0.0480348207 -0.210100248 1.62750161
      0.391151845 0. 0. 0.337731957 0.351522893 0.214851111 0.849380434
      0.851421893 -2.09161305 0.312349021 -0.594706714 0.538540304
      -0.828994095 0.898528397 0.750566781 0.650420487 -0.373187482
      -1.09470451 0.201400682 -0.188724548 0.076441139 0.480326563
      0.139588729 0.106381759 -0.344900936 0.00772385718 0. 0.697690606
      -0.156934127 -1.68718648 0.118866466 0.984872997 0.272539288
      0.622511268 1.16566062 -0.297305524 -0.347201288 -0.865570664 0.
      0.311058402 -0.310875028 -0.809313416 -0.426127493 0.00772385718
      0.00772385718 0. 1.30607188 0.506884098 0.198756963 0.00772385718
      0.335344404 0. 0. -0.272599488 0.740655422 0. 0.208662838
      0.271444023 0.374519616 1.05561948 0.343554229 0.544287145 0.
      0.304617524 0. -0.378281742 0.699403524 -3.64415741 0.175556034
      -0.115258738 0.212318942 -0.600798547 0. 0.118866466 -1.90183485
      0.874366283 0.976533294 -0.122610748 0.848168492 0.848535657
      0.943852484 0.509026945 0.633233309 0.0564967804 0. 0.177674681
      1.03810537 0. -0.81055218 0.215035394 0.176752418 0.210634902
      -0.119291939 0.190698266 0.164065078 0.118866466 -0.0925181136
      0.560204029 0.360906214 0.414530009 0. 0.796025276 0.0744398907 0.
      0. -1.20615649 -2.20441866 0.103161834 -0.397696614 0.365097851 0.
      -0.300191104 0.374220431 0.281191021 0.504314065 0.0785088092
      -0.0488270707 -0.226054862 -1.8280493 0.215035394 0.692385912
      0.140595511 -0.778139472 0.329973787 -0.935628772 -4.90408182
      0.118866466 0.736840844 0.140595511 0. 0.425173849 -3.40773988
      0.11345005 0.167824537 0.109258473 0.65493995 0.359391838 0.
      -0.538024783 1.09240592 0. -0.776932478 0. 0.140595511 0.81597954
      -0.592547894 0. 0.49338606 0.223797455 0. -0.658637047 0.265395463
      -3.71502018 0.797489226 0.17554839 0. 0.271354496 0.215035394
      0.245709106 0.517119229 -0.459140718 0.56253159 0. 0.49338606
      0.193306357 0.109087296 0.0970880464 0. 0.655260265 0.188656256
      0.386563331 0. -1.26056099 0.52619499 0.255372286 1.04021263
      -0.35168761 -0.0676760301 0.183486491 0.853774786 0.47682026
      0.446078926 0. 0.176108807 0.222759247 0.723734319 0.3469432
      -4.5417285 0.176108807 0.00772385718 0.379362881 0.468334049
      -2.83700371 0.208662838 0.0821637437 0.333750635 0.728101552
      -1.67446196 0. 0.109607019 0.109087296 0.0453574695 0.232081726
      0.148879781 0.722042084 -0.421426088 1.74548483 0.0351671316 0.
      -0.471969724 -1.70358229 -2.75989914 0.140595511 0.00772385718
      0.126590326 0.571133673 0.799907684 -1.09041333 0.623235941
      0.369999886 0.741119206 0.628750205 0.364756763 -0.100997008
      -0.119291939 -1.0293535 0.269154936 -1.3446523 0.126590326 0. 0.
      0. -0.416520238 0. 0.179956466 0.154033601 0.202991664 0.
      0.222453773 0.770427823 0. 0.298988014 0.178569078 0.0453574695
      -0.0357375257 -3.88283157 0. 0.138749763 0.267185837 0.478979111
      0.140595511 0.610135496 0.140595511 0.556676388 0.162149251
      0.00772385718 0. 0. 0. -2.37210536 0.12906912 0.0744398907 0.
      0.472747535 0.697256625 0. -0.771320164 0.295345753 0.
      -0.0768179744 0.432444215 0.602377057 0.769131482 0.156001464
      0.156298161 0.13524507 -0.395125806 -2.63915515 0. -1.02172601
      -0.304590076 0. -0.642247438 0.569082081 0.540200174 1.77277112
      0.500037432 0.751368523 0.512101114 0.213182002 0.0282279402
      0.110863008 0.114468329 0.401001692 -1.00237 0. -0.759701848
      0.401572436 -0.768421292 0.266708732 -0.993035555 0.0821637437 0.
      0.577936411 -1.26823747 -0.950538039 0.716322601 0.325117826
      0.0349528901 0.700032532 0.12906912 0.852567255 0.618727028
      -0.668363392 0.334751755 -0.466465324 0.395704836 0.118866466
      0.293134212 -0.197146431 0. 0.140595511 -0.173460633 -3.71426535
      -0.418013215 -2.09777164 0.403386176 -0.162443265 0.355630904
      0.696067214 0.00772385718 0.26774624 -0.241342351 0.0893379152
      0.595226169 0.187145427 0.994628489 0.324428171 0.17554839
      0.388531089 0. 0.00772385718 0.0821637437 0.222210467 0.423698217
      0.43092069 0.134314179 0.523455441 -0.876814127 0.513059378
      0.00772385718 0.241711646 0.076391384 0.042890992 0.35470894
      0.24226442 -1.42073476 0.223319665 0.855420113 0.288821816
      0.118866466 -0.506751418 0. 0.669231594 0. 0.0426767468
      0.382859915 -2.12178278 0.643562913 0.557214797 -0.00251788041 0.
      -1.5430541 0.413747877 0.220535383 0.148319364 0.376273125
      0.347552985 1.02320576 0.0818582699 0. 0.042890992 0.653410733
      0.126590326 -0.236633435 0.730546057 0. 0.614994347 -1.10424781
      0.519306421 0. 0. 1.04236865 0.527102947 0. 0.865315497
      0.0546292365 0. 0.175762638 -0.569552064 -0.930500448 -0.193923771
      1.47612762 0.622892022 0.0744398907 0.340090126 -4.54178953
      -8.35070992 0.630795538 -0.485496461 0. -0.36539188 0.508475065
      0.0544580631 0.281191021 0. -0.0611686334 -1.0578562 -1.2786895
      -1.86895537 0.207183093 -4.53506613 0.40384385 0.0349528901
      0.659516811 -0.152719855 0.29121837 -1.22364879 -0.119291939
      0.296893656 -1.07784176 0.337866277 0.329538912 -0.213208526
      0.0109901289 -0.502660275 0.00772385718 1.268713 0.332060784
      0.0411688574 0.0821637437 0.298942238 0.390103012 -2.45168304 0.
      0.647429049 0.276400983 0. 0.658971488 0.418876946 0.745001435
      -0.945654809 -0.460493743 0.0919155926 -0.206848845 -3.28509188
      0.570176542 0.17554839 0.228076741 0. 0. 0.488866359 0.462123424
      0.144254431 0.310331762 -0.0196326822 0.329745859 0.419847518
      -0.0239125006 0.165017143 0. 0.781215489 0.324081987 0.
      0.609499991 -0.457810551 0.0744398907 -0.0199342072 0.0970880464
      0. 0.281191021 0.148319364 0. -0.79762882 0.443112135
      0.00772385718 -0.180486798 0.765670121 -0.77501601 -1.08869278
      0.0445343293 -1.21340036 0. 0.251339585 -2.91171837 0.146095499 0.
      0.159484208 0.244007513 0.16515483 0.451232731 0.125789747
      0.0741840675 0.11253576 0.129893094 0. 0. 0. 0.635455608
      -1.28047311 0.69568491 0.390583783 -1.14827669 0.382029206
      0.587712646 0.212764099 0.717825949 0.203337833 -0.66554594
      0.285501599 -0.848386407 -3.28204608 -0.185639501 0.441105038
      2.7309916 0.0351671316 0. 0.669679761 -0.867994606 -1.81607711
      -0.813431978 0.291264147 0.580549479 0.191770762 -3.06683445 0.
      -0.45502609 0.329812169 0.910622895 0.542456686 -0.3888551 0.
      0.752275109 -0.453385741 0.0898876041 -0.236239448 0.47757113
      0.00772385718 0.0882484615 -0.879261017 -0.135098815 0.450920522
      0.324081987 -3.19050908 -1.4682703 -1.15949225 0. 0. 0.719578683
      0.428812802 -0.0628212467 1.53619695 0. 0.500402689 0.0351671316
      0.598577797 0. -0.362059355 0.601881862 -0.590997756 0.859088361
      0. -0.662958324 0. -0.938224316 -0.0739344731 0.148319364 0.
      0.237553492 -1.17823327 0.133703008 -2.1263814 0.0803103596
      0.119603112 -1.28805232 0. 0. 0.259760708 0. 0.662709653
      -0.713573217 0.346988797 0.339784652 0. 0.979608953 0.405557483
      0.118866466 0.00772385718 1.14415359 0.567939162 0. 0. 0.641940951
      0.139976919 0.320437521 0.709202349 0. -0.642446697 1.69744849
      -0.607597768 -4.19627571 0.0703342631 0.719954193 0.308264136
      0.671207726 1.03999984 0.0970880464 1.06936574 0. 0.597926617
      0.413102746 1.67532325 0.81259948 0.12906912 0.867900193
      1.04385996 0.00772385718 -0.424658328 0.3918598 0. 0.400632918
      0.00772385718 0.350779712 0.0272290315 0.259461969 0.77444464
      -1.71357369 1.1658169 -1.87883508 0.79819876 0.140595511
      0.526814699 0.717941284 -0.519952774 0.316704303 0.67523104 0.
      0.554820061 0. -0.31995368 1.48428452 0.490994602 0. 0.00772385718
      0.431982487 0.995016158 -0.975144446 0.29846558 0.0350663327
      0.743102431 -0.879105806 0.668476462 0.203509018 0.167824537
      0.202991664 0.259461969 0.730756104 0.29504028 0. 0. 0.0434665754
      0.0897963718 -0.773776591 0. 0.207766086 0.39193508 -0.215876684
      -0.758691251 0. 0.408592314 0.439352691 0.217347667 0. -1.37189066
      0.483032227 0. 0. 0.0752638504 0.689541698 0.28360185 0.50371778
      0. 0.23768355 0.872208655 -0.365752459 0.223319665 0.798906744
      -1.08303738 -0.466758877 -1.60310662</_>
    <_>
      0.0716593936 0.354802161 0.236244529 0.261352807 -1.47931111
      1.40490401 0.387206346 0.781875014 0.482371986 0.0782710165
      0.763685703 1.42623043 0.187977493 -1.49358869 0.571185112
      1.77625227 -0.333723366 0.3997868 -1.08682692 0.0574216954
      1.08175576 0.916818857 0.0316649079 0. -1.0000478 0.0574216954
      0.402586281 -0.8877756 0.215333596 0.916354537 0. 0.477314085
      0.226269916 -0.230256051 0. 0. 0.34893328 -0.71688962 0.0811197907
      0.320622146 0.154823408 0.570860326 0. 0.234163076 0. 0.570318401
      0.230596244 0.672696173 -0.603249073 -0.494134724 0. 0.843133628
      2.07547736 0. -1.55698633 0.681667149 0. 0.574874163 0.
      -3.17582035 0.966893435 0.444213599 -0.620984435 0. 0.164408401
      0.0363669395 0.505028307 0. 0.146485522 0. -1.20460916 0.193673357
      0.737874508 0.599829316 -1.87986851 2.37658072 0.402414322
      1.9028219 -2.29507565 0.131032586 -0.375030428 -2.20672512
      -2.49038625 0. -0.625150681 -2.30330086 0.514361739 0.900353789
      0.398268789 0.546767294 0.305578411 0.320020139 1.7720387
      -0.436238199 0. -0.906900823 0. 1.70158291 0.0574216954 1.44050109
      -0.425892979 1.59048748 0.506338954 0.937248766 1.15903294
      0.493343651 0.869639695 0.0574216954 0.240274161 0.81602031
      0.539195418 0.0363669395 0.563530207 0.0577434711 0. 0.706554174
      -0.328634083 0. 0. 0.514630198 0.505471826 0.144774422 -3.69583702
      -1.57122493 0. 0. -1.13613617 0. 0.0811197907 0. -0.480658561
      -0.690638006 0.887362301 -1.74287248 1.14798331 0.642632127
      0.859299481 0.435822904 1.21594334 0.573828459 0.0890638307
      -0.773954749 0.256123543 0. -0.696048498 1.14390504 0.
      0.0890638307 1.44532716 1.34637213 1.12126529 -0.377438664
      -0.290357053 -1.23029649 0. 0.1998934 0.594545782 -3.18849683
      -0.0738251284 0. 0.448060244 -1.87308776 -2.69027972 0.0363669395
      0. 0.794776618 0.606925547 0.394989848 0.457208484 0.520023286
      0.0316649079 -0.210579187 -0.129523084 -1.3202939 -2.65974545
      1.06927264 0.475667745 0.440988213 0.43321085 0. 0.568077505
      0.1998934 0.0574216954 1.43460941 0.345533311 0. 0.260825574
      -0.578981519 1.39309084 0.549199402 0.895664334 0.424688101 0.
      -0.64051348 0.0574216954 -0.701144874 -1.9565239 -0.141854614
      -5.19903517 -1.55167258 0.0373761952 -0.548583746 0.0319897197
      -0.0805592537 0.620750368 -1.48043215 0. 0. 0. 0.344992638
      -1.32224369 -1.90828705 -1.3202939 0. 1.98641908 1.2015686 0.
      1.16054535 -1.23917413 0.22445862 0. 0.818864584 0.22445862
      -1.43566072 0.575058222 0. -0.045963645 0.0272539109 1.48576593
      0.812100291 0.0811197907 0.157768086 -4.45916843 0.963547468
      1.09275544 0.0574216954 0.680800378 0. 0.0639794394 1.27593839 0.
      1.3214922 0.781781733 -2.51719046 0.592918575 -3.70049238
      0.0319897197 -3.22670102 0.771895409 0.481773734 0. -0.539495587
      1.17846847 0.0568067133 0. 0.0811197907 0.0574216954 0.455651909
      -0.413464189 0.47838518 0. 0.323692024 -2.45369768 0.648264289
      3.32425094 -0.964216709 0.422738701 0.586591601 -2.11581635
      -1.15805435 -4.43844414 -1.02956295 0. 0.0495879799 0. 0.256448358
      -0.511635542 0. 0.114843391 0. -1.18488419 1.1708771 0.
      -1.09583533 -0.631754398 0.624115646 0.43438378 0. 1.66728783
      0.480582148 0. 0.146833107 0.413838208 0. 0.22445862 0.441571742
      -2.60599446 -4.58782244 0. 0.017923072 0.121053554 0. 0.0811197907
      0.301098257 0. -2.08444285 -3.35256219 0.755251825 0.0319897197
      0.762367189 0.759996653 0. 0.424950302 0.562684715 0. -1.25663936
      0.94160974 1.7795347 0.830548823 1.5234344 -1.31347501 0.1998934
      1.26663685 2.61531782 0.716652632 0. 0. 0.225452334 -1.80305231
      0.695401549 3.03766465 0.552619457 0.222210333 -0.440793365
      0.0316649079 0.809301198 -1.17202735 1.83970428 1.23895347
      1.98278272 -4.49500751 0.22445862 0.63668251 -1.77735519
      -2.14383149 0.241435751 -0.433708102 -1.761935 0.0753447711
      0.22445862 -1.12040055 0.414299756 0.654353738 0.577070475
      0.0316649079 0.874778211 -0.479616225 0.321416736 1.34286201
      0.0319897197 -0.638595164 0.175343558 0. 0.317016751 0.563345313
      0.356602907 0. -4.7314682 0.22445862 -3.96088195 3.01710606
      -0.799421847 0.549424946 0.22445862 -0.376551032 0. 0. 0.
      2.09905386 0. 0.588880897 0.711233139 0.938471913 -0.462579906
      -1.89778566 0.371291727 0. 0.431356788 0. 0.640855193 0.281471103
      0.0639794394 0.118457362 -0.680874586 1.14026833 0.280674517
      -1.2542671 -0.218201786 -1.18995035 0.432952195 -0.524344802
      -0.587001562 -1.21026981 -4.09186125 1.00192237 1.03168035
      0.321863383 0.861230195 0. -0.759741426 0.532273114 0. 2.62339544
      -2.55117655 0.756720066 0.402956635 0. -2.91403937 0.283293128
      -1.28862906 -3.73825836 0.268730909 0.538059831 0.724771857 0.
      1.06065679 0.0319897197 0. 0. -2.17138386 0.0894114152 0.174908429
      0.247708857 0.518140674 0. 0. -1.10311043 0.114843391 -0.29900986
      0.121401139 0.513763428 0.819872379 0.71390754 0.0894114152
      -1.28854418 0.0574216954 -0.556055069 -1.18175244 0.686574578
      0.345512182 0.252191573 1.32931614 0.257315099 0. 0.433212489 0.
      0.87326932 0.13854149 0.0727338791 -1.66026485 -0.311547965 0.
      0.363000125 0.487513155 0. 0.279284447 0. 0.0574216954 0.926194489
      0.909473121 0. 0.981501937 0.146485522 1.0704273 0.830033898
      0.432945848 0.017923072 1.05751252 0.56289351 0.0113651324
      0.0959691629 0.289304823 0.61729449 0.939627707 1.15543556
      1.43855882 0. 0.927468777 -1.25663936 0.877483368 0. 0.
      -0.734377563 0.22445862 0.278508335 0. -0.537777781 0.517294884
      0.0319897197 1.15815651 0.0319897197 -3.52938604 0.570837557
      0.0897509158 0.460961372 0.643132508 0. -1.2000407 0.513763428
      0.957650602 -1.25934088 0.146833107 0.145099238 0.22445862
      -0.318199039 0.666330278 -2.27444696 -1.16319823 0.256448358
      -0.820847869 0.797497869 0.503116131 0. 0.154453442 0.198606521
      0.130343542 1.00294387 0.0639794394 0.579249859 0. 2.05118036
      -1.2560761 0. 1.3882761 -0.112048566 -1.50118923 0.0574216954
      0.42435202 0.456016928 1.17970347 0.631758332 0.965959013
      -4.39799452 -0.579381049 -0.324189574 -0.327528089 -2.04400349
      0.69521445 0. 0.15304327 0.276829064 0.358204901 0.256123543
      0.0113651324 0. 0. 0.812894225 0. 0.278579414 -0.779145122
      0.227605328 0. -1.1453855 -1.60480845 0. 0.22445862 -0.414384097
      0.130343542 0.528750837 0. 0. -0.993580043 0.513438642
      -0.699951172 -1.26287222 1.80777633 0.0574216954 0.0259515662 0.
      -0.443662703 0. 0. 0. -1.39936543 -0.986017048 0.0319897197 0.
      -1.30688429 -0.628032446 -1.12040055 0.236355945 0.72522676 0.
      1.46869361 -4.79805136 0.559315681 1.10020864 1.24000561
      0.349369854 1.01103735 0.57442677 0. 0. 0.574463487 0.177008167 0.
      -1.12040055 0.879376352 -1.01306605 -3.1737783 0.790536165
      -3.32973385 -0.0263990834 -0.98538208 0.628849268 1.415959
      0.697952449 -0.0901577398 0.44891724 0. -1.19043076 0.0859549195
      0.77924794 1.17019248 -2.3278656 0.456341743 0.0113651324
      -0.376354128 -6.88702917 0.938440442 1.51177526 -1.13386452
      -1.00335038 -1.70377862 0.068356663 1.14216566 0.40328145
      0.0319897197 0.337243319 -0.706856489 1.676373 -1.28007507
      0.351649791 0.0319897197 0.0333998837 0.0574216954 -0.0278103594
      -3.96088195 0.508712173 0.0636546314 0.174908429 0.542705894
      -1.17346084 -1.65215743 0.22445862 0.0956443474 -0.775558949
      0.51658535 0.968738794 0.601192832 -0.688431799 -1.83834994
      0.363000125 0.15744327 -1.34513986 0.235823765 0.456341743
      -3.13527775 0.936749101 0.394989848 0.480582148 0.485267997
      -1.25622618 1.47207844 0.22445862 0.412223876 0.609732628
      0.513415873 0.275337398 -0.324708074 0.53914845 0.0959691629
      1.0798558 -0.740139365 -1.28862906 0.331981331 0. 2.3576138
      0.0113651324 0.72993046 0.227952912 0.1998934 0.438837528
      0.894256294 -0.74679029 0. -1.10275817 1.00903666 0.365301102
      0.481773734 1.40228713 1.65065706 0.291445255 0.11748673 0.
      0.313522458 -3.31053543 -1.06417036 -0.414717764 0.410949975 0.
      1.02014208 -0.685824513 -0.756831586 0. 0. 0.88099128 1.22121382
      -1.3202939 0.727234364 0.0363669395 0. -1.17380846 0.0753447711
      -3.33631873 0.737897277 -1.34477997 0.558725834 0.0319897197
      0.659382224 0.256123543 -1.23120737 1.16881466 0.017923072 0.
      0.22445862 1.179703 0.162239581 0.114843391 0. -0.783506453
      0.256123543 0.0811197907 -1.30237091 2.25618982 0.288438082
      0.478615046 -0.614928722 0.176503733 0.0316649079 -0.098358497
      0.544118702 0. 0.67661345 0.017923072 -0.144434839 -0.525396466
      -2.07247043 1.04502475 -1.10063267 0.42435202 -1.19523561
      0.965570688 0.98486042 -1.06384563 0.492708683 0.230271429
      0.456267953 -2.15513039 0.77122426 -1.98992312 0.1998934
      0.245875984 -0.587216794 0.680027246 0. 0.132794246 0.508193016
      -2.49872327 0.211463347 1.15919006 0.56289351 0.0292882025 0. 0.
      0.372473419 0.751052201 0.287670374 0.949082017 1.84917867
      -0.0477960631 -0.0396247171 1.00828052 0.530485809 0. 1.73170769
      0.628259242 0. 0.612527072 0.195750669 0.0319897197 1.4567678
      0.1998934 0. -1.20545053 0.281880319 0. 0.0574216954 0.34040612
      0.22445862 0.421051115 -0.815262437 -1.20750928 0.925456762
      0.338567972 0. 0. -0.233374417 0. -1.23235512 0. 0.170183629
      0.11748673 0.292676806 0.866375327 -1.25670362 -1.12288272
      -1.33960462 0.11748673 0. 0. 0. 0.543798208 -1.13915253
      -2.00625038 0.485811412 -4.0644455 0.700568259 -0.987239301
      2.0622282 -0.292735457 1.07611966 2.01846075 -1.00434172
      0.626548171 -2.51024437 -2.69812083 0.585210443 3.71440029
      0.309590489 0. -4.82163572 -1.00063384 -3.57536936 -2.32506657
      -1.12040055 -0.270529687 0.377501905 0.231883124 0. -0.21170108
      0.284506112 -1.06331456 1.21029866 -1.3202939 0. 0.46072033
      -0.219204068 0.680800378 0.793795288 0.068203792 0.22445862
      0.443866014 0.679188788 0.15385367 0.762158036 0.248413727
      -0.513715208 0.230596244 2.1734972 0. 0. 0.774604023 1.30250096
      0.146485522 0.00536649255 0. 0.507137954 -1.23123014 -1.0264622 0.
      0.798668206 1.54694831 -0.821224988 0.219914898 0. -1.61885285 0.
      0. 0.350870222 0.281880319 0.0333998837 3.7411952 0.0890638307
      0.770485222 1.36650681 0.635815382 -2.77519131 0.0890866071 0. 0.
      -1.98491418 0. 1.14282382 0.220526665 0.82243222 0.956736028 0.
      0.321220756 0.201871306 0.0316649079 -1.09583533 1.36967766
      0.760469198 0. 0. 1.30893552 0.222152069 0.298856407 0.568254948
      0. 0.518140674 2.42287731 0.691913903 0.236244529 0.178127661
      0.544451356 -0.454207152 -0.482079327 1.70131707 0. -1.83408427
      -3.96088195 -0.300286084 -0.47826764 -0.173595786 1.90901971
      0.068356663 0.698482454 -0.322283715 0.22445862 4.62220478
      0.185843393 0. -0.711597264 -0.920787871 0.288438082 0.0811197907
      0.0890866071 3.59383035 1.26227093 2.11948037 0.544096708
      2.26656461 0.257315099 1.91728938 -4.62704515 0.0430300385
      0.202520937 2.07766962 0. -2.04423666 0. 0.91388005 1.39854801
      1.39179051 0. 0.624245405 0.253064841 0.453611791 0.2935462
      -0.97454077 1.57619607 -1.60724533 0.491421819 0.436359197
      0.300239772 0.13854149 0.227605328 0.0890866071 1.35315704
      0.386371762 0. 0. 0.0636546314 -0.542690575 -0.979922593 0.
      0.203907222 1.14434123 -0.128650427 0.770477474 0. -0.988513112
      0.252086133 -1.59227109 0.424950302 0.0890638307 0.388616502 0.
      -1.3202939 0.480906606 -0.593318462 -2.48945093 0.588585436 0.
      0.0574216954 0.601621807 0.645966828 0.0959691629 0.630139589
      -0.871646881 0.920483768 0.0574216954</_>
    <_>
      -3.53601718 0.184881046 -0.369131327 -1.58794534 0.912453473
      3.5112474 -3.65162778 0.789732754 -1.90585923 0.581732094
      3.35071611 -1.93071139 0.913971305 0.802134216 -0.674104571
      -0.677363932 2.38860726 -0.144962996 2.41255927 -4.04041672
      1.55591846 0.812902927 -0.275339663 0. 0.990795434 -1.68209934
      -1.26806271 -3.00047255 3.34340763 0.292867154 -2.34714413
      2.07086849 -2.56972051 1.79186714 0. 0. 0.779673219 1.31683087
      -0.367233574 -3.25719261 0.720826328 1.11304593 -0.311481863
      -0.684547663 0. -1.60211742 -2.95973039 -1.11241734 1.42778826
      -0.0434240177 -0.373825282 0.62968564 -2.02835703 -0.311481863
      0.42796576 -1.31135476 -5.87999582 1.01228702 0. 1.15406632
      2.36467266 -0.0599904545 0.497627318 0. -0.231952459 -4.29972935
      1.35798848 0. -0.280185491 0. -1.68889332 -2.4615252 -0.978942752
      1.61125803 -1.02788949 5.37794876 0.479069471 -3.40992475
      -2.63991141 0.403083622 0.235465929 -4.19985199 -1.30137563 0.
      2.48912144 -1.29492354 0.363014966 -0.415626347 -2.64229012
      0.428779274 0.837174118 0.00364649948 1.51425195 -1.27411067
      -1.45292544 -0.278386712 0. 3.27096057 -3.00116062 1.68496764
      1.5913105 3.30412722 -1.93748033 0.574214339 2.43708491 0.10972289
      1.23757482 -3.85491991 -2.48485494 0.986304462 -0.354934365
      -1.60251033 -1.47112262 -0.88751775 -0.182876483 -2.28962445
      2.36812925 0. 0. -3.4360683 -1.1349479 -3.01661611 -2.64506149
      6.93423128 0. 0. 0.061954271 0. -1.07571793 -0.933819711
      -3.1414237 4.06316328 1.58586442 -0.167719185 1.22566569
      -0.911101043 1.8052597 1.03962588 -1.83469307 -0.213642567
      0.209010974 0.0157439914 -0.599808276 0. 0.359991014 2.25547743 0.
      0.209010974 4.3720026 2.0687108 2.27474117 0.92228812 2.02079916
      -0.202918053 0. -1.18938148 1.39805257 2.08811116 1.81041002
      -0.809500277 -0.189836413 0.714385867 -2.09251976 0.269415051
      -1.22958291 0.765010118 1.80501008 1.51910329 -0.56427747
      2.23645639 0.47560358 -1.62008882 -1.6790514 -4.24199009
      -0.586680472 1.37624264 -1.35653651 0.460866541 -1.10000885 0.
      -2.89081216 -2.53568077 -0.513584852 -2.71230912 -0.423060536
      -2.25282979 -1.10122466 -1.82802749 2.44995689 2.21811485
      0.156873688 0.799260557 0. -0.797618449 -4.51292753 3.63993359
      0.914887905 2.59990239 -1.0396502 0.129884392 1.21375775
      -1.79930091 -4.57543373 2.16304374 -0.554632068 -2.47717357
      -0.556701779 -0.519105732 -0.166201413 -0.908055067 2.75486612
      0.0460590683 0. 0. 3.58273625 0.191683069 0. 2.46883607
      0.322736412 0.106622338 -1.08681345 1.19201493 0.521870077
      -2.09498835 1.82758582 -1.9756912 -1.42029011 -0.513895214
      3.21941662 -0.454442531 0.322736412 -0.495087355 0.423362404
      -0.387795687 -0.314045697 0.427948207 0.989426076 0. -1.82702792
      4.73137379 -0.809689999 2.18116999 -0.511064231 -0.136721343
      1.99365544 0.373266846 -0.908528507 -0.531163335 -6.70559788
      0.960437477 0. 0.595311821 3.10146141 3.38329625 0.0877220556
      0.322736412 0.427948207 1.48643076 0.74032104 -0.553059399 0.
      -0.574297667 2.47514582 2.19029117 -4.32202864 1.27255464
      -0.7552315 1.17796206 0.525311291 -1.74555826 1.50703943
      4.05720043 0. -1.61627758 0. 0.76841867 0.359074831 0.
      -0.199513569 0. 0.679873526 0.589900255 0. 0.861509979
      -0.688793063 0.837574184 2.37786579 0. 2.75458837 -8.72037888 0.
      1.10244501 1.49278927 0. 0.210388184 -0.576984704 3.66435432 0. 0.
      0.251917839 0.455559611 -1.58483195 0.322736412 1.5376091 0.
      -2.66724324 -4.87748623 3.1135819 0.246548623 -0.50836122
      -0.444371283 0. -0.727860928 1.64724636 -4.23825026 -1.06224084
      1.06765091 2.2227726 3.6365881 2.86615348 -0.645568311
      -0.896395981 -0.181166291 4.60285139 -2.13636351 0. 0.
      -0.736063898 -0.467894793 1.13138711 2.69264102 -3.29155874
      -1.20805562 -0.7609635 -0.242914543 0.374636233 -1.01642644
      4.13562107 0.635216594 2.19037032 0.218393475 -0.533539891
      0.00833748002 1.1456567 -0.831342101 0.731386483 -0.233048782
      -1.2498312 0.0621952266 0.521870077 -2.26036859 4.7415719
      0.465345323 0.902600825 -0.611209929 2.49952006 3.40914369
      0.918786943 3.2072103 -1.30411458 1.12202787 -2.28004551
      -1.56044352 -0.0253620297 0.564195335 0.0839862376 0. -6.9280386
      -0.10125269 0. 5.07920551 1.67859983 0.569285035 0.521870077
      -1.03322005 0. 0. 0. 1.85363841 0. 0.533711851 -1.5961386
      -0.336384803 0.755127609 0.583021224 0.564238071 -1.54926825
      -1.5744226 0. 0.767217696 0.984689236 -1.93559337 1.20349336
      2.88493204 2.52357745 2.14273357 -1.12098217 -0.59918195
      -2.04165888 0.292604357 3.00241232 -1.11007631 -2.04528713
      -2.33136725 2.16814899 2.03353238 1.07401085 0.470633924
      -0.758616567 0.528852284 2.44936132 0. 1.36204982 0.67449683
      2.01173902 -1.59870291 0. -2.42513061 -0.51815784 -3.58077598
      -2.1938343 -0.0319037549 0.569285035 1.11624551 0. -1.02558506
      -0.896811187 -0.789324164 0. -6.8256712 -2.31155467 -0.564921916
      1.28925204 -1.67389679 -0.2237598 0. -2.0474546 0.134118155
      -0.313497365 -0.237963393 -1.50390315 0.46627149 -3.41835952
      -5.50765419 -5.41046953 -0.3815521 -0.959354043 0.0067565171
      2.60566115 0.0666922554 0.517996192 2.97815895 -1.30499363
      -1.56044352 -0.512594342 0. -0.833752215 0.750684619 -0.148779467
      -2.18327594 -1.60337281 -0.182876483 -0.565202057 2.78707194
      -0.750943244 0.579615533 0. 0.116466336 -1.03097177 -0.945568502
      0. 1.72424042 -3.20651245 -1.98921978 0.0443584733 -0.317911357
      -0.286103219 0.526187897 1.10005641 0. -0.0883508027 0.0619932972
      2.01729751 1.88457775 2.1897471 1.02763927 0. 1.69246697
      -0.0873480961 -1.65409684 -0.809689999 0.0877220556 -0.117931709
      0.773787916 -0.625277817 0. -0.037760295 1.34236348 -3.78697062
      4.21327019 -0.509704709 -1.76780605 1.16944838 2.6440084
      -0.460098445 -1.04292059 0. 0.815833688 -1.47082531 -0.910087943
      -0.1584526 0.479322284 0.63295716 -0.564943433 2.04945517
      -1.76833367 1.33661139 -2.09797335 -1.50697768 -2.62140107
      0.271191359 1.09054422 -0.311481863 -0.0646774471 -1.77015483
      0.328474581 0.0604891069 -0.691077113 3.04924059 -2.72591662
      -1.43215418 -1.03723454 -1.2163775 0.891871333 0.996312916
      0.748380542 0.51567024 -0.0285623576 -0.8052755 -0.187666297
      0.0761463791 0.609075189 -2.54637384 -3.29917359 0.722188711
      2.46836972 0.854382277 3.48931193 0. -1.04311776 -0.450973064
      0.584801376 -0.679370642 0. 0. 0. -0.439477324 -0.182876483
      -1.0663563 -4.03105164 0.150195301 -4.88389921 -0.564732254
      2.1114893 -5.78847504 -0.411949694 0.307892233 -0.605586112
      0.434644341 -0.207623854 -4.38511419 -2.62895131 -0.095237501
      -0.16498819 -0.501453876 2.58724499 -0.602051795 0.314344764
      -0.775331616 0.521870077 -2.68485308 -0.166201413 -0.809689999
      0.48945117 -2.75260806 -0.687271118 0. -1.12419486 0.475119531
      -1.05180585 -0.290015578 0.239006802 0. 3.15313768 0.991058886
      1.84089315 0.277392566 -1.04953694 0.127541065 1.64000177
      0.838700116 -2.36016345 0. 1.04726899 -2.21919489 -0.561051607
      -1.19681382 1.43289125 -1.77998221 5.98777866 0.887306333
      -2.05403852 -1.45069695 -2.02517343 1.48564088 1.19027555
      0.695199549 4.89175653 1.04374015 -1.12117183 0.195371166
      -1.68367195 1.07526875 1.25653732 0.908037663 -1.06462884 0.
      -0.285110205 1.51416838 1.72386348 -2.53699017 -0.10997609
      0.28790471 0.178520501 0.515963674 1.27415264 -0.959160209
      -2.29963589 0.428768098 0.282490134 2.36190677 -1.2794348
      1.40937221 -0.143951714 -0.311481863 0.0621952266 0.73003298
      -0.830746591 0.72800231 -1.58221948 -2.95511341 0.748726547
      0.296445787 2.09915948 0.521870077 -0.588482618 -1.21999431
      0.320197225 1.91746771 -1.41524565 0.538074255 -0.936661065
      0.400021195 1.41951549 0. -0.10125269 -0.0517087094 -0.619580984
      1.67091906 -1.18455243 0.585523963 0.617503405 1.86605597
      2.69270182 -1.02879322 -0.0135536063 -0.227154016 -0.00266882195
      1.31683266 0.997233272 2.61810827 -0.531534433 2.35106969
      -0.49691996 -1.38654149 -0.0567947626 -0.207623854 3.6248076
      -5.72815323 1.21089435 -0.935171783 -1.13274062 -1.78907371
      0.204014689 -0.492275536 0. 1.20114982 2.44386864 1.08728123
      0.337314725 2.39332151 2.32736254 2.32433438 0.592151463 0.
      -0.0200622212 2.09775829 -2.49042606 0.942947745 0.232751325 0.
      -3.27670979 -2.18261576 -0.268144578 -0.311481863 -1.61938
      3.97493625 0.125715643 -0.768675447 0.630350292 -0.39380613
      -0.775331616 0.636959195 -1.10333037 -0.25346157 -1.30117738
      2.6637876 -1.23120129 -2.83122587 -1.39289606 -0.302965879
      0.903551757 2.52277231 -1.01712418 -1.94865608 -0.848681867
      1.52391613 -4.54504251 -0.694766819 0. -1.081182 -0.313258678
      -1.75794423 -0.494358361 0.50741154 -1.87859941 -0.331731021
      -4.2293334 2.041255 -0.0854480416 -0.259367943 1.62772059
      -0.623122752 0.544870079 -0.721778214 -1.59659553 -1.90836108
      0.305501968 1.78592718 0.263920754 0.53248924 2.54454112
      1.48627853 2.0639534 0.76841867 0.491510212 -0.478173822 1.066257
      -0.573376834 -1.51511097 -2.45174718 0.0983412713 0.967223704
      0.870498538 1.36245716 -2.30461264 0.334602416 0.542785168
      0.597889662 0.651211023 3.10058618 -0.0208744686 -2.62653708 0.
      -0.311481863 -0.931301177 0.0886744186 -1.45355082 1.56570721
      2.32868695 -1.24448085 -3.24878526 2.58816576 -0.715244412 0.
      3.24503374 -4.8136034 -0.809500277 -0.32879293 1.38270187
      0.246548623 2.93550658 0.0106192101 -1.61919034 0.855896413
      0.949818254 -1.24554253 -2.55318546 -1.03966606 -2.77524519
      -2.06690121 3.29625392 -2.5300529 -1.15044892 0.79535377
      -0.775331616 -1.76806736 2.34174442 0. 0.047396753 -0.182876483
      -1.01891589 -0.0309712719 0.903497815 -0.45089981 2.26025271
      1.68102586 1.05435932 0.885136962 0. -2.59845495 0. 2.35683393
      -0.304886609 1.53091717 -0.388723671 -1.17813337 0.212324128
      2.10815787 -2.64185905 1.30765414 -0.414858311 -4.12418032
      -2.95363665 -0.112908959 -0.356832534 -1.0431149 0.823270738
      9.14964771 -1.24370873 -0.520237029 1.40425158 -3.20863008
      -2.3269577 0.585811496 -2.41807127 -0.945497811 0.746294975
      0.0742913485 -0.520237029 0.963906229 -4.90066481 5.12402534
      2.14812136 -0.721967936 0. 2.13144851 -1.61256826 -0.804872394
      1.78077197 0.275357902 0.521870077 1.05935562 -1.43912125
      -1.80454385 -2.9632802 1.13322508 -0.670128882 -1.19872701
      -2.11254621 0. 0. 2.27756357 -0.707313538 -0.690375626 2.32126474
      -5.44836521 0.237523332 -0.31122607 1.87099743 0. 1.34887481
      3.89035892 0.239293918 2.53449535 -0.809500277 -1.6203934 0. 0.
      -1.31413674 -0.693696976 0. 5.17065859 -0.891795039 0.861463189
      -5.25390577 0.560577512 -1.35264623 -6.8932848 0. -0.182876483
      1.60453498 -0.750943244 0.234874651 -0.933309138 1.22769439
      0.963148177 -7.02701759 0.566785753 -1.5407753 -0.299728036
      -2.35033512 4.43813992 1.75261843 0. 0. 0.381574333 -2.86255622
      1.77632952 1.65670633 -2.18014717 1.46674562 6.18231535
      -1.42991602 -0.343321383 -1.32572877 -1.35861588 2.1836915
      1.88005412 3.08358955 0. 1.00564039 -1.553859 1.17813241
      -1.41788435 5.18650913 2.45066261 -3.0899322 2.30742717
      0.941682637 -0.0391815677 -1.02700245 -2.66468954 0. 1.65036333
      -0.425718844 -0.728593707 -2.70800805 -1.12232602 4.39616823
      0.938737929 4.66528463 0.725920439 3.80818629 -0.370932877
      -2.52416706 4.85262489 0.47560358 0.246992871 2.43189263
      -0.166201413 1.27357173 0. -0.836829782 4.50600863 0.420073748
      -5.52938652 0.543108463 -3.5663209 3.7606101 1.75643957
      0.574403167 3.0183661 -0.393211305 -0.413642257 2.27415204
      -0.402121753 -0.619867265 -0.0294210706 0.903551757 2.69784117
      0.92036742 -3.51330376 0. 0.514528334 -1.08201754 -0.190380767 0.
      1.15262949 2.76969266 3.14639163 -0.238934174 0. -0.164598733
      0.504607618 -1.11522818 0. -0.600489318 0.670714259 0. 0.
      -0.355416477 -0.69440645 2.08608985 2.10121536 0. 0.427948207
      3.50300241 0.448484868 0.739645898 2.71208072 1.27669775
      1.44240403 -2.4374876</_>
    <_>
      -0.690382242 -2.81282163 -1.37788749 -0.725209355 -0.456115425
      2.68810439 -1.68833411 1.40419602 1.21240461 1.34059751 3.34216666
      1.28956509 -2.2206378 -3.86186552 -0.606124699 -0.439380407
      3.36159158 0.38056621 3.96266603 0.516017079 0.451078981
      0.0550415292 -2.26558566 -1.36419284 -2.47428656 -1.02608383
      -3.48575711 -2.64489174 2.99023318 1.29751277 -0.514379144
      1.8207562 1.65961778 -1.40776217 -0.579861164 -0.803667545
      0.167726919 3.38678575 -1.13051546 -0.0994509012 0.237255007
      -0.490474761 -1.31267488 0.548021615 0. 0.266231179 1.47851658
      -2.25881314 -2.42198181 0.855859637 -2.42231345 -1.27015126
      0.959690928 0.103960112 0.300407887 -0.285523891 -1.385759
      3.14054322 0. 0.895527184 0.797385752 0.583337784 -0.967361808
      -0.188127026 -1.58187592 -0.307284832 -0.121763706 -0.0855442956
      -2.01725173 0. -0.735025942 1.28211844 -1.9849726 -1.03645217
      -1.91800165 6.78602266 -2.17068839 0.659518957 -3.90354252
      -0.248402894 0.371998936 -2.76009059 -0.319806546 0. 2.80119634
      -3.50674868 1.06981516 -3.84284353 -1.58046138 2.00089002
      -1.22309566 -0.670312464 1.31886494 -1.03811562 -2.12140059
      0.724918306 -0.171088591 0.50698489 -0.0695904419 1.41570961
      2.02213383 5.18314648 -0.0784731656 1.85776293 3.70458174
      2.17626047 -1.49929559 0.327890038 -0.298888475 1.6426146
      0.845805168 -1.36070442 1.00776362 0.412231207 0. -0.0834089369
      1.88305008 0. -0.525754631 -1.20835006 0.00969862845 0.900160015
      -10.9795513 3.8589251 0. 0. 0.748023689 -0.857943892 0.417721629
      -1.27104115 1.38610208 5.97986221 -2.4563725 0.10831029
      -1.63077092 -1.70943725 0.837383747 1.21148455 -1.83737254
      0.408443183 0.284461617 -0.1627924 -4.53046131 0. 0.0829681978
      -0.722804487 0. -0.20383589 3.91399288 4.27308989 3.17449284
      1.6875937 1.74169922 -2.55643749 0. -2.46329069 0.766185224
      0.85244441 4.95072079 -0.551407456 -2.14802575 -2.66938639
      -5.0835309 0.468839318 -9.07406807 1.33159685 -1.00608861
      1.56382823 -0.758226514 1.52955461 0.30865261 -1.53294647
      -0.988091171 -0.230907321 -0.130024478 1.81504154 -3.51811123
      1.09682333 -2.13195848 0. -2.41234589 -1.34769452 -1.44191384
      0.229808062 -0.939358592 -1.35359573 -2.51455855 2.10116005
      3.21501875 3.29844928 -0.99508667 -1.4827615 0. -1.31757414
      0.516017079 -2.31600428 0.778527915 1.27700579 0.259980619
      0.579231977 -1.39249361 0.728243589 -1.12490726 0.279879838
      -1.17854798 -3.30063248 -0.956737578 -1.62019968 -0.703161716
      -0.883407652 0.0216746982 -0.133949846 0. 0. 4.14198828 -2.0505743
      -0.514379144 3.912637 0.363445252 -2.28440952 0. 4.22892427
      -0.220519111 -0.408109307 -3.49981046 0. -3.02422857 3.48438168
      1.72713506 -4.93177414 -0.35840252 0.126415297 -4.91760206
      1.2331723 -1.17070103 0.516017079 0.160418496 0. 0.320393056
      6.16174793 0. 2.78767276 3.1925509 0.259067148 2.27343798
      3.65109491 -4.30650759 -0.368185252 0.732478559 0.741659999
      0.103960112 2.36374831 4.27934694 1.28647268 0.316375166
      -0.207937226 0.516017079 -2.84256291 -2.64608002 -3.25345302
      -0.579861164 0.602604091 1.89278913 0.254503936 1.04146636
      1.51808894 1.6715951 0.44578886 -1.47402775 0.47064513 1.76259375
      4.40429783 0. -0.829932213 0. 0.526129425 2.16699934 0.
      -0.0114290342 0. -0.268191874 2.63351536 0. -0.828205109
      -0.78310442 -2.55600023 2.02724767 0. 3.36180878 0.825212896 0.
      0.974912584 -0.692409396 -1.385759 -1.84323299 1.9800806
      3.93784285 0. 0. -2.36928248 -0.950013936 0. 0.417721629
      0.914759278 0. -2.68346548 -0.974807143 3.623034 -0.409250438
      -0.240907088 -0.318755805 0. 0.380012363 0.195552289 -1.03081512
      -4.0740242 0.525068581 4.30518579 4.18457651 4.8111639
      -0.274383605 -2.33744454 -4.42015982 4.55733967 1.96533358 0.
      -0.551407456 -3.85647511 1.59273541 2.2873354 0.324099839
      1.69436133 0.418372601 -3.40678763 0.260229617 2.02613735
      0.994434118 2.88498425 -0.469267428 3.92065859 -4.79374838
      -1.79935694 -3.61034632 -0.70810163 0.97401154 2.79608226
      -1.45927298 -0.144791365 -1.6701473 -1.81357801 -1.93753684
      7.09716415 0.583774805 0.549751818 -1.1933018 2.96648002
      -0.0240693353 -2.20522356 4.26114655 -0.302285165 -1.88891232
      -0.235918075 -0.0400513448 -1.50746071 -1.4871639 -1.1000669
      -1.19491088 -2.32278728 0.352343649 -0.230907321 8.58577347
      0.413255751 1.07547987 0.352343649 -2.48314476 -0.599923432 0.
      -2.0193634 2.95656633 0. 1.20434999 3.54463696 1.36157942
      2.70460033 -1.37116992 0.363005072 -0.514379144 1.74058044 0.
      -0.173677519 1.1676054 -3.63047361 -0.591205418 3.32812619
      2.52900815 0.00176431832 -3.81181574 -3.36504531 -0.52478826
      -1.47746229 1.98601103 -1.96113944 1.69808626 1.21357834
      2.76977587 0.149450526 -0.64332962 1.84766877 0.401843011
      2.18031502 1.32705069 0. 4.61499739 -1.41979897 3.13995719
      -3.10976076 0.0184158124 -2.2088449 -3.02666402 -0.417177618
      0.222253114 -1.8416909 1.02120352 0.48674953 -0.188127026
      0.960906446 -0.280945212 -0.188127026 0. -1.5176301 0.447399437
      0.629611015 0.0958583429 -1.35608053 -1.64319134 0. 0.782905519
      0.882430851 -2.73615575 -0.72806412 0.862111688 -1.45967567
      0.259690523 -2.42967629 -1.74327123 -0.998690903 0.0510828085
      -5.50463533 -0.975577414 -0.38168624 0.30865261 4.32419348
      0.914901137 -1.09465444 -3.01947594 0. 1.13393736 0.102907933
      0.290050268 -4.12057304 -2.62065959 -4.89168644 -4.13041973
      3.95943069 -0.0542763695 -0.159979612 0. 0.516017079 0.879046738
      -4.46910763 0. 2.18461108 0.177546799 0.760024726 0.728234351
      -0.881116986 -2.31067109 1.95658743 1.84320295 0. 0.521357298
      0.381973475 1.36961746 2.83918738 -1.48872864 -1.36587822 0.
      2.63777161 -0.997893751 -1.06012809 -0.445477456 0.316375166
      -0.482999355 0.352343649 -3.77384067 0. 0.150263548 1.83632421
      0.173785761 3.44739985 -4.84529161 -1.38098443 0.59895134
      3.94443464 1.04665422 -1.35806251 -0.659928799 0.765293181
      -0.15164119 2.99875093 -1.19613159 -2.08601189 0.765293181
      0.352343649 1.96819985 2.73531485 -1.02391148 0.275077522
      -3.1926589 1.48260391 2.61919188 -0.100573033 0. 0.215843976
      0.34073478 -0.462160438 0.215896025 0.347571522 0.473448068
      -1.33426201 2.56539512 -1.65933776 -4.71251965 -5.15477705
      -3.89478397 -3.27655244 0.832392216 0.805504084 0.145046592
      -0.142729402 -0.896515489 0.619722068 0.0204634424 -2.76578403
      -0.980378211 2.7530663 -3.12984276 -1.7295655 -1.10561585
      0.00544476649 -1.82037318 -0.984504282 -1.26445258 -2.56935692
      -0.454730958 0. 0.999056101 -0.90959388 1.39359295 -3.43622828
      -3.40795279 0. -0.378417522 1.90601134 0. -2.94952035 -1.34519148
      0.890178204 1.02804685 -1.35149121 -1.19491088 0.986165404
      1.56006539 -0.824293673 -1.64718485 1.04130614 0.832392216
      3.18962908 -0.492055714 0.121436343 -3.61654043 0. 0. 2.58359933
      -4.31299543 -0.395214707 0. -2.27768588 -3.37753105 0.453160435
      -0.000658703037 2.80320668 -2.05920339 4.53173113 1.9850837
      -1.02600765 1.14011633 -0.230299056 1.93516767 2.67497206
      1.72599089 -0.525754631 0. -2.59617949 0.291493237 0. -0.472361237
      -0.309158355 0.190648481 6.52117157 1.87913382 -1.74042344
      2.46880484 -2.06367445 2.27907395 2.3996911 0.208859265 3.5281477
      0.704687297 0. -0.284679025 -2.80600452 -1.40040183 0.468675464
      -1.91404891 0.0129451863 -1.08724189 -0.528527677 -2.93254232
      0.817377448 1.21818054 -2.22387433 -1.0585072 1.80660987
      0.202426732 3.27550054 -1.47830212 -0.992800295 -0.815616846
      0.208931193 0.27205202 -1.59364009 1.93631566 -0.248008788
      -1.67148018 -1.89201224 -2.28773761 0. 0.768631816 -0.285549849
      -2.04670954 0.152677402 0.632957101 1.08624363 0.352343649
      0.154490992 -0.701289952 2.04129934 2.40951467 -0.166607231
      -0.276382089 -1.82657158 -0.137758717 1.46729469 -1.17121506
      -1.1819073 -0.724999428 1.18295515 2.23572874 -1.93892479
      -0.134886384 0.827701688 0.353308707 -2.27726531 -0.102387309
      -3.65044475 -0.481408536 0.286298186 0.874583304 1.65297902
      2.4820385 -0.796689391 3.18663549 -2.85923529 -2.70914745
      -0.913135946 -0.583036184 6.16517735 0. -0.935523689 -0.837981582
      -1.71084499 -2.52368307 0.760161936 -0.211625546 0. -2.34158134
      0.786724567 1.00412011 0.741659999 3.4184289 4.43663931 5.39035225
      -0.170737028 0. -1.51219189 2.23366976 -1.58945549 0.540818334
      -0.0203182735 -2.17813635 1.0406971 0.541778207 0.0988022685
      -0.583036184 -3.64301753 2.94350338 0.651536584 -0.77612412
      3.79454374 -0.0456162877 0. 0.0862735137 -4.82439995 -0.0747658163
      0.785095572 3.47619772 -2.62528157 -3.1079464 1.27287638
      0.0811350867 0.244808495 2.12173867 0.232006609 0. -1.86974704
      2.32647538 -1.43351912 -0.584632218 0. 0.763948917 -1.65072548
      0.417721629 -2.07361531 3.98981142 -0.452808768 -3.47711492
      -2.91389513 2.00718451 -0.359927893 -0.177638307 -0.840883315
      -0.576214492 1.50840974 -0.034654431 -2.51476526 -1.69981408
      -2.40156913 -0.0234428961 1.35146034 0.805504084 1.58114147
      2.79795837 -1.62656832 -0.0569067821 -0.637951434 -2.18197012
      -1.77623415 -1.74478078 0.408162236 -1.05706072 0.769535601
      -0.494462043 1.47742248 2.54795504 0. -0.579452395 0.507852793
      -0.573352158 -1.40804124 4.32174826 -2.38323164 -1.23342407 0.
      -0.583036184 1.77401829 -0.777759433 -1.30562949 2.13743329
      2.75793576 -0.974647522 -1.5715344 0.349528998 -0.720155597 0.
      5.51845598 1.3875407 0. -1.79647923 3.71959162 -0.1769851
      2.98892069 -1.87000346 -1.5176518 -1.74468493 0.868360758
      -1.00703144 -4.2173357 -0.762891948 0.352343649 -2.53900218
      -0.765007317 -3.68887711 -1.25707042 -3.52292204 -1.53278613 0.
      3.1946435 -0.318530262 0.339890748 -2.13775373 -1.8591181
      0.049995061 1.37792766 -1.38532197 0.149414107 -3.02533197
      -2.15907574 0.83228457 0. 0. 0. 3.14910769 -1.33707893 5.71049166
      -1.47162533 -3.46744967 -0.557556629 1.48734593 -4.49932528
      0.124996722 -0.393647015 -1.69210434 -4.23746586 0.986945331
      -1.55882192 0.869166076 -2.14413071 8.10566044 -0.878435791 0.
      -2.94516683 0.452672929 -0.1618862 1.50832665 -2.89803767
      0.903939784 -0.748462677 -0.328535795 -0.569000483 1.3452332
      -1.92952847 5.34172058 4.63993025 -2.12643003 0. 0.40297401
      -6.62876511 -3.22468185 -3.79360652 -2.06196141 0.352343649
      1.16218531 -0.0901335403 -0.465704769 0.334695578 -3.0325129
      -0.0413119979 1.47806835 0.800153971 -1.54961109 0. 3.75676751
      -1.54689538 -1.92388475 -0.894716024 -1.74012768 0.719320178
      -0.683914244 -1.64177215 -0.583036184 -1.95958769 2.20991492
      -0.779869974 3.35654354 -0.659928799 -0.390152901 -1.26331925 0.
      0.702051163 0.868360758 0. 7.44817829 -2.01180077 -0.093995057
      -0.583451569 1.8824966 1.34364963 0.824669659 -0.525754631
      -1.02373147 -1.23554957 0. -2.08996916 -3.01133966 1.79488158
      3.01351666 -0.659928799 -1.09871566 -0.905404329 -0.0421182588
      -0.137275189 2.01289845 3.59591651 -0.964003503 0. 2.26035452
      -5.66204405 -0.552162826 2.53302407 0. -0.840867639 7.93847704
      -1.12170112 -0.905221701 -1.96384621 -0.197185069 -0.672045052
      1.29442298 5.21348953 -0.214570135 1.10519624 0. 1.15202904
      2.51195502 4.20632553 2.47497082 -1.61599123 -1.28607547
      -1.6323998 0.352343649 1.86608696 -0.0386829972 0. 3.26254201
      -1.8232162 -3.10463881 0.417721629 -0.320717603 5.09441996
      -0.179386124 4.33227682 2.8743999 6.52356577 0.364256591
      -1.25158179 3.48000956 -1.8532306 0.767379284 3.31266856
      -0.659928799 -2.05738497 0. -2.352355 5.9658432 1.44936335 0.
      1.25866449 0.0343568325 1.65400338 3.50999212 -1.37475812
      2.33399081 1.09224224 2.61562657 -0.614515662 -0.811118364
      -1.5929426 -1.1199919 0.824669659 3.77649999 0.153593153 0. 0.
      -1.13589203 0.180438146 -1.09994817 -0.583036184 -0.195521921
      1.79416716 -1.12358236 1.5154587 0. 0.122764863 -0.105044924
      0.900013983 0.380012363 -1.29543257 0.18650116 0. 0. -2.28716946
      2.46057487 0.428523451 -0.0270921737 -0.659928799 -0.431532145
      4.36941338 2.69877052 -0.00439736899 3.06266594 -0.279475003
      -1.0557301 -5.38676214</_>
    <_>
      -1.38088739 -0.458029628 0.287124634 -1.80699801 1.83890653
      1.57507086 -0.0387068503 1.00366402 -0.0380800478 2.29610109
      1.80392075 1.6909703 0.637898028 3.10567522 1.39718437
      0.0327007361 1.90102041 0. 0.160099313 0.309461832 0.403857797
      1.02398121 -0.365500778 -1.32011068 0.350701481 0.214986563
      -0.226771742 -1.9160043 0.520077765 0.657068968 -0.388909012
      1.4366194 0.31683144 0.11205294 0. 0. 0.177187666 2.00553966
      -2.3316555 -0.563966334 1.38741469 -2.90988684 0. 0.511683404 0.
      -0.713329613 0.690042973 -0.663285673 0.47847423 1.03128994
      -2.49241877 1.21724188 0.799812317 -3.15686464 0.00434960658
      0.204102173 -0.756943822 1.68099403 -1.9631319 0.761073411
      0.440553814 -0.832223892 -0.102811538 0. 0.107037582 0.
      0.0815806538 0. -0.98796314 0. -0.860814571 -0.370247692
      -0.431836843 1.38753164 -1.52858806 4.28569746 -0.558694959
      0.609124362 -0.996825099 0.0528504923 1.7372756 -0.328981936 0. 0.
      1.43128705 -2.25360012 0.591018975 0.569000542 -2.65319514
      -0.177435219 0.452901572 0.608739376 0.935315609 -1.27227902 0.
      -1.3861692 -3.55042005 2.52757215 0.219930664 1.43516397
      0.642109096 2.49898076 1.03574812 0.407471299 3.55380702
      -1.54847085 1.43423414 -5.40529823 0.295015633 0.809875369
      -1.88537109 -0.756943822 -0.620870888 -0.589506626 0. 0.429126352
      2.05667305 0. 0. -0.564908683 -0.0836300999 -5.35697126
      -0.304160029 3.43870854 0. 0. -0.216942683 0. 0.310170591
      -0.094475247 1.08157241 2.89222383 0.586146414 -4.61896801
      -3.14392829 1.67210984 0.679734468 0.908190668 -0.374497861
      0.648540318 0.0621091686 -1.09743845 0.170350224 0. 0.0207820367
      1.06293142 0. -3.3357358 2.94627142 2.02382421 1.65073502
      1.36193919 1.51642334 -0.533147573 0. -0.386017174 0.768594503
      2.18421531 2.00398731 0. 0.440043747 1.10582888 -0.40212357 0.
      -4.03565645 1.05247736 2.29770374 1.05247736 0.214986563
      1.86825562 0.386402309 0.162301242 -2.03485274 0.0430202372
      1.35975289 0.592307925 -0.593738556 -2.61449409 -0.641636074
      -2.93063426 -1.32005954 -1.07313991 0.309461832 2.28531265
      -0.693116963 -0.171180561 0.363143146 0.142201632 1.69123185
      1.4478848 0.633207262 -1.08252847 -0.751903117 -0.485527158
      -0.874370515 -2.4037478 0.0545132607 3.10662603 -0.196642756
      0.694940746 1.81381714 0.891876042 -5.59629822 -3.42872214
      0.978651106 -2.01456332 -0.458801121 -1.93350613 -0.171180561
      -0.211770728 0.278619796 -0.0670887008 0. -0.756943822 2.63370085
      -0.37345013 0. 1.92081821 -1.21406209 -0.0879385248 0. 2.55446672
      0.363143146 -0.120829493 0.750922501 -2.78034258 -1.37605405
      -1.00564575 2.82568073 -1.83989406 0.310170591 -1.31483901
      -4.6441412 -0.212483779 0.699316382 0.309461832 -0.386725396 0.
      0.0438156165 3.01561689 -1.40913248 1.65589702 2.05260253
      -0.889923275 1.35670209 0.265544116 -0.119248666 0.905612051
      -0.0749898925 -1.49385285 0. 0.337112427 2.13654637 -0.460107952
      0.172707856 0.310170591 -0.265369624 0.678092182 -1.8201791
      -6.97904778 0. -0.760724843 1.47571015 1.01508892 2.42749357
      0.982775569 -2.81990218 -0.0784696415 0.176816836 -3.51306725
      0.178608686 2.61260772 0. -0.603468895 0. 0.432844996 1.22834325
      0. -2.00770044 0. -0.59398222 0.948729455 0. 0.0669993907 0.
      0.966991723 2.27895379 0. 2.85224366 -7.10159159 0. 0.688625455
      1.55748582 0. 0.278789759 0.250727475 -0.245741129 0. 0.
      -0.279901117 -0.950403452 -1.5071466 0.310170591 3.17157602 0.
      -0.475386679 -1.52780926 1.82097614 0.0697018281 -1.50776803
      -0.470346481 0. 0.211855322 0.0779976472 -1.61504006 0.0309168957
      1.78412318 1.84546459 1.89441431 2.21549177 0.386402309
      -0.602380633 -0.578035355 4.13131046 -0.293382794 0. -0.171180561
      -0.0615518056 -0.467134625 1.09291434 1.91586006 -0.0627635568
      -1.63497794 0.819258392 -0.850126207 -3.14691353 -2.93191504
      2.40504766 -1.1435082 0.577092111 -5.56365204 0.363143146
      -0.827388883 -1.67844737 1.31174684 1.22069049 -0.250109553
      -0.944957197 0.309461832 0.363143146 -1.03532887 4.00176954
      1.40519369 0.124412619 0.386402309 1.77217329 0.545911252
      -0.345924914 2.49898076 -1.00922322 0.0911071375 -0.584119916 0.
      0.966429949 0.944528401 -0.310988992 -0.756943822 -0.57771045
      -1.38343382 -3.92738581 3.52219319 1.38803995 0.591727734
      -1.38343382 -0.799221635 0. 0. -1.3981545 2.05689669 0.
      0.745600462 0.160729468 1.18215513 1.35593653 1.08697486
      -4.31146955 -3.86952543 1.05247736 0. 0.40314576 0.45610413
      0.139403656 -1.87634397 0.704440534 2.34087873 2.18495584
      -1.39730394 0.289093196 0.35155195 0.801328242 1.8218925
      -0.534647703 0.195552692 1.4003464 2.42165518 2.2645812
      0.263771594 2.16004157 0.345415711 -1.70828044 -0.0767867118 0.
      0.898012996 0.113507837 1.12314045 -0.251302004 0. -2.50671411
      0.752152145 -1.60538924 -2.13634849 -0.786943436 0.591727734
      1.04130697 0. -0.559440732 0.0697018281 0. 0. -5.84449768
      -1.25003767 -0.404996634 0.432385296 0.199911937 -0.675186634 0.
      1.25568306 0.620450914 0.012083333 -0.619885147 0.120982833
      1.18070567 -0.15749529 0.379163653 2.62879443 -0.331748843
      0.019860493 -1.53965616 0.794697583 -3.6415267 0.605258703
      2.42927885 0.309461832 -0.917602241 -0.348250359 0. -2.62336254
      0.619632423 0.172707856 1.78960752 -1.46629882 -0.094475247
      0.982775569 0.270486325 -2.45635653 -1.33981442 0. 0.309461832
      0.733817756 -1.28020513 0. 1.56855738 -0.160240218 0.642567039
      2.07232738 0.253262043 0.00152729847 1.27496731 0.982775569 0.
      -0.831103206 -1.73092544 1.52522206 -0.218012378 1.62008047
      -2.213938 0. 1.34970105 -0.16615811 -2.21014452 -0.214836612
      -0.472693026 0.915337443 0.363143146 -1.29466665 -1.21122885
      -0.30380711 0.991955161 -0.505129635 1.37001371 -8.11058712
      -2.53324914 -2.47744417 2.15634108 -3.3790307 0.95141232 0.
      -0.595627785 -0.446566284 -0.517845392 -2.60626221 -0.394603461
      -1.17341542 -2.8330574 1.05942774 0.15766041 -0.125197217
      -1.53996658 -0.14635025 -1.30241406 0.946563482 -0.746416092 0.
      0.0373357497 0.620341182 0.35155195 -0.818772316 -0.524958909
      1.78814483 -1.11031044 -1.29132104 0.0621091686 -0.661643565
      1.93989921 -1.62244868 -2.96470118 -1.38751054 0.363143146
      0.749545455 1.80950963 -1.07531357 0.983992517 -2.4369154
      0.317438096 0.867866755 0.952674389 0.126809016 0.589708388
      -0.43192926 -0.555431008 0.766143203 -0.777204692 -1.16198635 0.
      0. 0. -1.68999493 -1.59828138 0.730551302 -1.31160092 -0.507131517
      -1.74657702 -0.137311444 0.889400542 -1.15459657 0.272192538
      0.830678821 0.35155195 0.922253311 -1.41969132 -1.838714
      0.746124148 1.23171508 -2.80878782 -0.364208668 1.65758979
      0.482169688 0.0526947826 -0.789515972 0.363143146 -2.73252892 0.
      0. 1.78330076 -3.5382092 -1.21992612 0. -0.399361134 -0.0177974012
      0. -0.355910957 -1.05232704 -0.377900988 1.47140801 2.39026046
      -0.398081928 0.809347868 -0.572225213 0.552580297 1.14754009
      0.591727734 -1.2242794 0. 1.17333233 -1.57992828 -0.733758152
      -0.595534503 1.1643858 0.119942255 6.02732325 1.11323476
      0.787083864 -2.33550477 -1.00742781 2.44785595 0.540691376
      0.479857802 3.12884498 -0.173922107 0. -0.0979374051 -1.79715443
      0.771222711 1.60761774 -1.08202744 -2.72992253 -2.09804964
      1.02897835 1.07123983 0.327579409 2.81297517 0.662652671
      0.214512616 1.85015869 0.0697018281 1.11878705 -2.43354011
      0.0697018281 1.05971611 -2.06649113 -1.40583873 -0.55060333
      -0.575450003 0.0697018281 0. -1.1943444 0.414451927 0. 0.1516141
      -3.54916525 -0.78271234 0.576947033 0.594150245 1.53119671
      0.363143146 -0.871498048 0.101146244 0.620661855 1.32808864
      -0.331058264 -0.996085346 0.389443636 -0.100453354 0.765565932 0.
      -0.388759941 -0.2125559 0.943330824 1.25838685 0.300574303
      1.11268866 0.556354821 1.67436254 -0.348528147 0.363143146
      -2.39654207 0.306011409 0.276946992 0.102546334 1.11304486
      0.748030484 0.209105492 1.89342785 0.383493155 -0.407303929
      0.107366994 0. 1.81562161 0. 1.03645694 0.096496217 -0.618675888
      -0.97285372 -0.518853307 1.2324239 0. -0.374670029 1.13686669
      0.985131145 0.672604978 2.01558495 2.08306575 1.71903849
      0.310170591 0. -0.763151288 2.08438945 0.922253311 1.05787694
      -0.29394871 -0.756943822 0.340248287 -1.49062753 1.73510754
      -6.2566185 -1.19088042 1.52008998 0.143198729 -0.43192926
      0.0921977684 -0.472693026 0. 0.371570975 -1.81710136 -1.15363133
      -0.652524412 1.06278622 -3.01568961 -0.897037864 -1.68308592
      -0.00739837857 0.695864141 1.89261305 -2.07981396 -0.751903117
      0.363143146 1.32369208 0.620341182 -2.18653727 0. -0.806607544
      0.827778101 -0.455020398 0. 2.38662004 -1.77229941 1.58149481
      0.673313737 2.5015254 0.386402309 -2.07950521 1.15831554 0.
      1.07389736 -0.83412379 0.263941199 -1.28004634 0.641683102
      -1.00289583 -1.03836966 0.363143146 0.892693579 0.963298738
      1.18022287 -3.28686953 -0.495279402 0.160365134 -0.53515619
      -0.841297269 -1.04755926 -1.66190696 -1.72519088 -0.553391397
      0.709654391 0.832837105 -0.274957031 1.40224397 0.630881786
      -0.494923025 0.513417244 1.83157325 0.407944113 0. -0.641210675
      -0.664362609 -0.959551573 -0.963902593 0.682450354 1.25909567
      1.2237395 0.951379895 -0.0807449073 2.55030298 0.217212901 0.
      2.5115397 -3.60236526 0. 0.595625341 1.2070086 -1.89343011
      2.58574343 -0.565827906 -1.32277179 -4.03213644 0.672604978
      -0.751903117 -0.542459369 0.312615573 -0.29818359 -0.713975489
      0.809109926 0.6965729 0.855328619 -6.61752033 0. 0. 1.48496842
      -0.171180561 0.6965729 -0.751903117 0.372279763 -0.773058355
      -0.683283091 -0.66356945 1.17552102 0.0452655479 0.577980995
      0.268837422 0. -1.32673454 0. 1.47030878 0.125064045 -0.541813135
      0.610036135 0.0838806108 1.55461061 -0.464145452 -2.99396539
      2.05072713 0.751995683 2.23417187 0.518919349 0.864048243
      -1.19452846 0.729212403 0.610744894 4.8911643 -1.03676546
      -2.40210915 -3.16727567 0.49293077 -2.36341047 0.178731591
      -0.917328775 1.12511575 0.564656019 -0.510063291 -3.41510415
      0.410434097 -1.027017 3.60193968 1.5421865 0.172707856 0.
      1.62457335 -1.62996566 0.47650227 1.25057089 1.55706525
      0.363143146 0.776804268 0.24062331 -1.19867635 0.615049481
      -2.78489208 -1.83950865 0.124215096 0.748499274 0. 0. 1.11458659
      -0.387260765 -2.2325561 2.20337391 -1.87188244 -1.72531104
      -0.0323660821 0.48179394 0. 0.955324411 0.928866863 0.844022334
      2.43962073 0. 0.788395464 0. -2.53119612 0.00458046328 -2.7221806
      0. 3.06676936 0.0621091686 0.868188202 -0.210360974 1.02486575
      0.560964942 -2.25013041 0. 0. -1.30937457 -2.78515363 0.514822066
      -0.346971482 0.985194147 1.4991498 0. 1.38649046 0.394679844
      0.386402309 -2.57844353 0.320813328 1.37199342 -3.32110906 0.
      2.03159833 0.0676520467 -0.896137178 0.552808702 -1.6158216
      0.610340118 4.4542942 0.816495776 1.05154645 -0.202803597
      1.67438376 0.25883016 -0.19069767 2.56655908 0. -0.638510048 0.
      1.10202754 0.838641763 2.54454064 1.27263224 -0.682201266
      3.71734929 1.65796626 0.363143146 -0.0387519971 -0.64089644 0.
      -10.6205454 0.363143146 0.408071578 -0.331040084 -1.34246123
      0.0721030235 -1.44446516 4.46014214 1.4011327 3.12927413
      0.309461832 1.76295757 0.329070657 0.302048892 -1.31059802
      2.74274898 0. 0.309917867 -1.8484199 0.141617119 2.99028683
      -0.0680354536 -0.458801121 0.363143146 -0.457428068 -2.53309894
      0.437751114 -0.124010704 0.0602639616 0.923913717 1.22589397
      1.67346048 -0.612499416 0.619632423 -1.71783578 0.695864141
      2.08531952 1.19182384 0. -3.91948891 0.45610413 -0.689793944
      -2.38884377 0. 0.467723489 1.79443014 -0.797783911 -0.0359570235
      -2.08013368 -1.29984128 0.511683404 0.274692148 0.0406747572
      -0.369350612 -3.00951886 0. 0. -2.30126691 0.204320893 -2.24635005
      0.2126441 -2.72007585 0.309461832 2.71945 1.28089523 0.209105492
      1.61216474 -0.740705788 -1.52292001 0.309461832</_>
    <_>
      -6.05032873 -2.8587923 -1.173002 -0.665759146 -5.75756741
      3.92613053 1.5903331 -0.969005108 1.10004151 1.92101574 1.89331055
      2.2121098 0.0636608675 -1.22238779 -0.86116147 0.438350648
      3.25182438 0.321042329 -1.79330635 -0.172390461 2.2216258
      1.11236322 -0.685376287 -4.88255501 -1.40648735 -1.47319531
      -0.908113897 -2.02071357 1.21294272 1.61471677 0.617351055
      1.70491564 0.756475687 2.50235081 0. 0. 0.920207143 1.68394601
      0.457749963 -1.36493778 1.73881459 0.339293391 0. -0.480517745 0.
      0.529984295 0.306433618 -2.09782815 -0.257449478 0.51481384
      -1.17789018 -1.21151316 1.74230731 -1.36619294 -2.14720702
      -3.60987234 -1.22312605 -0.780791461 0. 4.53554869 3.95593667
