<?xml version="1.0"?>
<opencv_storage>
<opencv_ml_svm>
  <format>3</format>
  <svmType>C_SVC</svmType>
  <kernel>
    <type>LINEAR</type></kernel>
  <C>312.5</C>
  <term_criteria><epsilon>9.9999999999999995e-07</epsilon>
    <iterations>40</iterations></term_criteria>
  <var_count>200</var_count>
  <class_count>16</class_count>
  <class_labels type_id="opencv-matrix">
    <rows>16</rows>
    <cols>1</cols>
    <dt>i</dt>
    <data>
      0 1 2 3 4 5 6 7 8 9 10 11 12 13 14 15</data></class_labels>
  <sv_total>120</sv_total>
  <support_vectors>
    <_>
      -1.48948038 -1.95886731 0. 0.183217168 0.944740117 0.47295472
      -0.85966599 0.856665134 -0.366369545 1.88783908 1.44091308
      2.62119317 2.70411134 -0.884559989 0.361875623 -8.56067848
      1.31691158 0.363327265 -0.304982543 -0.873143852 3.11967897
      2.00508666 -1.57834589 3.21642971 0.460226327 0.234577149
      -0.525987208 0.188347742 2.15191054 -2.45424676 -2.02971864
      -5.21131325 -3.3820107 0.13897939 0.0663051307 3.96517253
      -0.342881411 0.730049133 -2.95229077 -2.65509915 0.687775373
      0.247361779 -3.63962197 -3.37687993 -0.382843584 -1.02376127
      -0.928062975 -0.261052132 2.75392866 -3.42146802 0.470018238
      2.19509149 0.653316438 -1.73577797 2.90714979 -0.503191471
      -0.23279503 0.472601265 3.18191838 1.35169613 1.1162976 1.08540118
      0.184342191 0.0594475493 -1.4478122 0.277000666 -1.63964665
      1.15256882 2.81047463 4.26985645 2.46657133 0. 0.62731719
      0.367534876 0.37940982 0.14353475 -0.369028658 0.657481551
      -0.173967436 -1.48659086 0.738040626 0.441043943 0.277392358
      -5.77597427 2.72356129 0.553168535 0.654857993 1.2341466 2.770437
      1.61087739 0.869069993 -0.219013289 -0.129098773 0.944242179
      0.240349963 1.05852818 -4.11110687 -0.988958061 0.461744249
      -4.01632977 -0.4727723 2.77356696 1.76558387 -1.35613704
      -4.77802086 0.326368123 0.753259599 -2.00591993 0.361875623
      -2.31773901 0.892875135 0.629888535 -0.766750038 -0.270182341
      -0.491915822 0.382197112 -2.27155209 -0.565901995 0.575841904
      -5.02438927 -0.493384808 0.361228019 1.2136085 2.88506031
      0.0698465481 1.88883233 1.06781721 -1.13013887 2.00406551
      1.12194526 -1.17052937 -1.70471787 3.51947522 0.140739277
      2.24029374 0.753549278 -0.746328592 0.352765709 1.05370224
      1.51333129 -1.67797434 0.131592885 0.126202345 -3.11867952
      -0.758476257 0.747699499 1.95922267 -0.171244144 -0.617575407
      0.105769165 3.71926069 -1.55134976 2.38640404 -5.66406107
      -4.29007959 0.499779254 -1.39357042 -0.493302435 0.863501489 0.
      -0.0818945095 0.831353068 -3.12052035 0.201928273 -1.38293791
      -0.0171307009 0.481434911 1.54733586 -1.58176661 -1.11563182
      -2.93873096 2.46097183 0.855204046 -2.37180972 0.637612402
      3.03772998 2.59537935 -0.284884661 0. 0.861904323 -0.428119361
      0.523532331 -0.0905751884 0.410541713 -0.607390404 -0.386805207
      1.20773506 1.2426281 3.0907681 -5.13070345 -1.05776954 2.3114078
      -1.56689382 -1.90597188 2.49338055 -1.59527624 2.52237773
      -1.70051372 2.9253788 1.00880086</_>
    <_>
      3.68580484 0.953002155 -0.249589518 3.73598528 -1.49579573
      1.45357144 -0.0390608422 1.78542447 -6.68315458 2.06593609
      2.82834888 6.6728158 0.00589004206 -0.567986906 1.17419958
      -0.223428011 0.883781552 -2.32847333 3.38700366 -0.286960483
      3.42316961 2.44985938 -1.62864923 3.68440914 -3.52779531
      0.832119107 -1.74910212 -1.51409316 1.25254488 0.186399639
      1.14616334 0.269491374 -3.59209967 -6.09502125 -2.56512737
      6.58362198 -0.132610753 1.16678822 -5.78445625 -2.7539649
      0.656005621 0.544500589 -0.917244673 -3.15049005 1.20630634
      -1.15419793 -0.788384914 -1.09074163 1.12346554 -0.0871658176
      -3.51872802 0.867121816 -2.04370093 -2.7769084 0.751090169
      2.92554712 2.14392972 -4.35541677 7.42842627 0.928761959
      7.74478054 4.79497385 2.6813972 0.569945931 -1.23003328 -2.3719151
      -1.34721625 -0.0868542343 2.86023116 9.04769135 5.10523462
      -0.242429495 0.200257376 -0.538696706 3.64839721 -2.16951108
      0.0827802122 -3.75340581 -1.16852236 -0.0170047227 -8.12054539
      -1.12095666 3.98403549 2.50255775 -0.348652244 -0.134303078
      -3.72947812 1.01378644 -1.40028012 1.57754755 -0.882635057
      -1.32002592 -1.7721647 3.20433664 1.27167177 -1.48069251
      0.657332301 -1.20033491 -0.469106317 -0.333036691 -2.6808579
      4.04542494 3.12105823 0.920451164 -2.24307036 -0.313710958
      7.07756948 4.02723455 0.394919097 -1.62334371 -1.82067466
      -0.323069096 -0.736609757 -1.83344293 -5.83041573 0.00302233989
      -6.1643281 -3.46203852 4.60732317 2.0451107 2.16675568 -5.43035221
      1.77101719 3.49154735 2.38871884 4.08042192 4.47322559
      -0.441248953 2.53094435 -0.26146999 -0.341944605 -3.50684714
      1.43217003 -1.66920638 6.48863602 1.22773981 -0.354362041
      0.0646066815 1.59018219 3.46900582 -0.5086357 -2.4681263
      0.491558313 -1.65268624 0.164147303 0.140476346 0.961838365
      0.267498404 -1.85989046 -0.953002095 -7.35806894 3.06474566
      -0.197136208 0.237648934 -0.0813293755 0.153518349 -2.17392802
      -2.76200938 -4.69310808 0.066690214 2.1533227 -0.469368905
      -2.78027081 -4.54962397 2.24789667 -1.52544522 0.86939913
      -6.07806444 -3.46827769 5.10840321 -1.76857316 0.216116831
      -0.476002872 -0.932555854 -0.847370088 1.66910338 2.36220908
      1.75024307 0. -1.55617309 0.5766716 -4.00036812 -5.12617445
      -1.92579055 -0.306711853 -0.896529377 -1.5222069 -2.69043231
      6.23841572 -2.47848701 -5.91643476 -0.730368793 -0.484508663
      -0.0696194991 2.00299644 0.335017115 2.82004762 -2.73379993
      7.39397669 -8.44123745</_>
    <_>
      -0.566127419 0.164715096 -0.769642532 -1.75814021 -0.372445315
      0.970794618 -1.66609883 -0.194113791 -1.51183259 4.05516958
      4.73855162 2.37255144 3.15401053 -0.165485084 1.73093843
      6.11685848 0.638944209 -2.20445371 5.17851591 0.279653013
      5.19157267 1.49597073 -4.48451042 4.72712803 2.8076086 0.927344441
      -0.268836141 -1.37518024 -1.00089836 0.899502158 2.60773921
      0.239516109 -5.03980112 -5.74736404 -0.712664843 5.63837528
      -0.646833718 -4.72515821 0.0261684917 -3.35749459 1.26774192
      -4.26050806 1.01426542 -5.93345022 1.14285469 -2.82073498
      -0.552157462 -1.95287812 -2.83194304 -1.11822081 -4.37820005
      1.03145182 0.491019636 -5.01882935 4.40871286 1.08805251
      -2.86053848 -1.70607138 4.20784855 -0.856028974 3.91265798
      4.85786486 2.85352564 1.83259153 -0.511144817 -2.24559283
      0.455504566 0.127383709 4.5238018 7.83171082 -0.13943018
      0.103579447 -0.415212303 1.36620712 3.36542201 -2.72051787
      1.36730266 0.100325145 0.335573375 -3.84640002 -3.07615423
      -0.737548888 1.51443064 -2.56030869 2.72580194 -2.85746455
      -7.71029663 -1.11220706 3.46496677 -0.206091568 -3.49229026
      -0.713238239 0.0502643287 4.11315012 0.866363823 2.32472014
      -3.12645483 -6.31050062 0.0102605121 -3.87069178 0.706695497
      3.66675425 2.91775346 -0.0287053324 -0.537134826 -2.95429206
      4.35828018 0.474996954 2.16420341 -2.52102828 -1.31337249
      0.525603533 2.01516986 -0.148004562 -3.24000239 0.67162317
      -2.71320987 -0.724779487 3.79613948 0.457844645 0.64718771
      -3.23083472 0.211538583 3.29727411 2.06975031 0.447716534
      1.6700021 -3.14084482 2.05956054 0.27662608 -4.27027035
      -3.42687392 1.18443263 0.863738835 6.41547775 1.40987945
      -0.34639591 -1.23825741 0.328630626 -0.207073241 0.615858138
      -0.89307946 -0.222330108 1.86610103 -4.01824331 -0.342520535
      0.19804585 -1.86850214 0.678445399 0.494738191 -2.94523931
      4.28114367 3.11945128 -2.22092605 0. -4.33490992 -5.11257315
      -1.81694472 -0.541031241 0.182986632 -0.476782531 -1.1716485
      -2.95316029 -0.641182601 1.09582996 1.17853749 -0.510374904
      0.39443025 -4.36703062 4.60168695 -4.30097246 -2.52751017
      2.52699852 -0.246358782 0.360838801 2.58528304 0.812684655
      -0.0355735719 0. -7.26166248 1.194664 -2.25455546 -0.169415474
      1.9606514 -0.605101407 -0.685463428 -0.776385486 -6.53225946
      5.17702103 0.6779356 -0.342180789 -1.33570409 0.495649785
      0.590235591 1.19165683 2.60452151 3.0060451 1.66139841 3.35196376
      1.80023015</_>
    <_>
      6.42458963 -0.0953539312 0. 0.6646173 -11.0092945 1.98361588
      -0.037113931 -0.70936209 -2.94483852 5.42250967 7.106071
      9.72126579 -2.60736656 1.3018043 -1.36344635 4.2620225 6.405653
      -1.64948392 5.77503252 -0.250358492 7.49820805 0.323008478
      0.168262556 2.65498209 -5.56151676 1.61838627 -4.63562822
      0.631660879 2.1352191 -3.15245223 2.76565671 -1.68183541
      -0.67403698 -10.4529409 -2.10898519 8.33740711 -1.14165533
      -1.62535417 -1.2851212 0.0552931428 -2.05829716 -5.29461956
      -1.18548131 -0.767657638 1.41602325 0.628861308 0.428160638
      0.903338075 -1.69570112 -1.53483009 -0.965475857 -8.44420433
      -2.14111137 -0.470795721 -2.10928226 -4.60827684 -4.33475494
      2.93736362 4.73269033 -4.24316835 1.58189368 7.75526237 6.61267328
      -1.66694605 1.58099723 -3.91643167 -0.106318749 -2.42885804
      3.95831728 12.7094221 4.88634109 -0.157448605 -3.04970193
      -1.0190841 1.0750891 -4.97156858 -0.894860804 0.0759305656
      -3.05249882 -0.914752245 -2.91360378 -2.73337889 -0.205643415
      -2.92019629 2.74433041 1.82852125 -0.00118150772 -0.0218533482
      -3.1458447 -2.65931106 -1.4628818 -2.57822585 -3.83393669
      4.74805546 0.616071641 -2.99579263 -4.6099 -0.0974049196
      0.443068147 -0.371422201 -0.265099883 2.14110756 0.999342859
      -2.25767088 1.47805107 3.14968705 3.22727966 2.01476741
      -3.07725549 5.65866613 -6.01925468 0.938128769 2.74391079
      -3.49757075 -4.72570801 -0.425029248 -0.375108331 0.474764556
      8.86079979 7.27386522 0.0175604932 0.0238009281 8.24518967
      -6.85148191 0.675235093 -12.2770987 3.57961106 -1.48746824
      6.66727924 2.01817966 -4.30624771 -3.10397363 5.49092627
      -0.59730202 11.4748573 -1.94191945 2.67759562 -14.3040819
      2.65216851 1.268484 -4.92323208 -1.92359424 0.466110349 10.2779531
      -0.300669849 -6.92594957 6.49899912 0.855936825 -2.38497472
      -2.38022971 6.43410826 3.25097179 2.5755446 2.42522001
      -0.236504599 0.291452229 -5.66778278 -0.572020948 -2.94658756
      0.588211119 1.191962 0.806766093 -2.37326097 -1.03397071
      2.98980761 0.929759681 1.44412291 -4.25333595 -3.37050009
      3.68947601 -1.1331861 -3.09774947 -1.79252851 -4.67950583
      7.62167501 -0.00167574908 6.51485109 -0.26761052 0. -0.7786327
      0.386274487 -4.44889402 -0.82653892 3.74479318 1.74840784
      -5.28211784 -3.91015673 -4.13729286 1.01404715 -2.00808525
      -3.49748516 -3.74293828 -4.37971115 0.608498394 7.22854471
      4.20916367 1.35277486 -4.46869802 4.41952419 -5.40737581</_>
    <_>
      1.98793876 -1.08831131 0. 0.492000252 0.644507885 -0.861254513
      -5.19427633 1.01451659 0.568521917 1.94976318 3.04358983
      -3.16303253 0.398232609 1.67942894 0.644087017 2.00182748
      1.77548039 0.503876865 1.23637271 0.134083584 2.1301899
      0.959677935 0.526769161 -4.51035357 0.612820327 0.702154458
      0.839619815 0.820665419 1.32706594 1.14981699 -0.47952643
      -1.51062131 -3.12933421 -1.28211701 -1.74743879 4.35395288
      0.634697795 -0.413184762 -0.199081436 0.0612523444 0.271479785
      0.970660746 -3.08861256 -6.17046404 0.53190428 -0.0593333989
      -1.09893274 0.691068053 -1.10600758 -2.75397563 -0.198240921
      0.422064275 0.0505893528 -1.63094032 -0.386072457 0.121475138
      0.159362495 0.179183796 2.07834935 1.56542456 0.707763374
      2.70104051 1.34538877 -1.10476029 -0.372785926 0.0684326217
      -0.714312792 1.34847319 3.57859635 1.89486814 1.36707044
      0.0328570902 1.7106688 0.826147377 -0.691814184 -4.39392662
      0.514579833 0.440369219 1.75170791 0.300930291 1.5990051
      1.00479877 2.50416541 -1.6317395 0.233810797 0.800376475
      -1.03961873 -0.0458786041 -0.396266073 0.22939086 -1.04586947
      0.397403359 -0.980961859 1.970258 0.737803876 0.101832107
      -0.526278496 0.149475649 -2.37776256 0. 0.352230877 0.884884417
      0.843771577 1.47172177 -0.283282638 0.604295909 2.0183804
      0.709177852 -0.199590653 0.845766544 -1.58521986 -0.432704628
      0.292054743 -2.36962032 -1.57484043 0.275063425 -2.88084173
      -0.716097653 1.52065361 1.33247983 -0.975595057 -3.5238905
      2.46807551 0.596161187 0.921403766 -0.89068836 0.198814481
      -0.274815768 1.85393143 1.86455214 -3.96956182 0.352366894
      0.526976168 0.279808462 1.63141406 0.837366164 0.891033769
      0.98910439 0.812529147 1.13132107 0.325576514 -2.73758364
      1.95142007 2.93828678 -1.07992923 -0.674351454 1.80888569
      -5.22707367 -0.201809064 0.126230761 0.3761383 -0.0938306078
      0.346060663 -1.33921063 -2.2691462 0.201350927 -1.72513318
      -6.23334742 -5.64414692 0. 0.4671987 -1.41151369 -1.18454146
      -1.43529725 -2.0507102 1.05420482 0.0757343322 0.0660993084
      0.293400586 2.43207502 -2.07938957 -1.90808249 0.881950438
      -0.285450011 1.10996044 2.2906878 2.14170289 0.826890886 0.
      -5.51181173 1.04575074 -1.73079121 2.58261704 1.69658053
      1.11337245 1.39076936 -2.95150375 -2.24424195 2.17826724
      -0.645930469 0.59561491 -0.948230624 0.360461771 -4.29483938
      0.60005945 1.44953179 0.842803776 2.46883202 3.06238794
      -2.18019605</_>
    <_>
      4.26455641 -1.40568757 0. -2.50523901 -0.857425332 3.2289362
      1.11066389 -0.895366073 -3.1368382 0.923123777 1.68910992
      2.25145316 -5.07676172 0.413089186 -4.65231371 2.23601127
      -0.625816643 -1.94877982 2.61869955 -6.32573032 0.363048613
      2.12082314 -0.53101331 1.5565027 -0.491520375 -2.00291061
      -2.35832524 0.893590093 -1.30847013 0.688686669 2.13886642
      1.44835889 2.59297872 -4.23321819 -0.0847406238 2.833184
      0.270138204 0.523929358 -3.46282721 0.194455102 -4.18256044
      -1.27750444 0.574471176 2.74507403 0.363896191 -0.213848844
      0.218548566 0.743941367 -3.5695107 -0.999434054 -0.596195519
      -1.87512362 0.457288712 0.764548123 1.53861499 -1.22964585
      -0.939813375 1.09586227 4.69573545 3.4465425 -0.53860724
      2.84982109 1.74355626 -0.536884069 -2.4917109 -3.56024408 0.
      -1.19386566 3.91351914 4.72016096 2.80406523 0.185590103
      2.07884836 -2.41053796 2.6031723 0.799558282 1.71507454
      0.699241221 -2.57952046 0.0477806218 -2.7643404 -3.95561099
      1.61709487 -0.642219067 -5.28793573 0.177519754 -0.358462662
      -3.40564895 0.208833277 1.54484808 -1.6991123 -6.34350109
      -0.941525102 -1.18603814 -0.299326211 -0.321076989 -0.648578644
      -4.08805752 -0.512127578 0. 0.464466274 2.59356117 1.518309
      1.64589369 2.07613254 1.3619082 3.08384657 -0.191029012 1.43890643
      3.97558856 -3.05970001 0.258864641 -0.305875063 -2.26973414
      -3.1777904 0.451143563 0.347254664 -0.546355426 -0.185580462
      4.08809328 1.37487757 -0.211649299 1.38448036 1.19451725
      1.80115974 5.51722431 -2.98874617 0. 2.1379509 -1.33153617
      -1.38701606 0.356612146 -0.806968033 0.370291859 5.0623312
      -0.222185314 1.3303504 -2.21397066 1.24868238 1.75636899
      1.49363565 -0.74324882 2.01085496 -2.31864882 1.04743266
      0.364874065 0.522367895 1.21742952 0.592555106 2.00359988
      -5.61512423 3.36449504 -1.1897558 0.844733119 0. 0.605877817
      -1.42319059 -2.03524089 -0.0299155638 0.0474973917 2.36681843
      0.531431496 -2.89507842 -0.216224596 -0.91544348 -0.265986532
      1.01416111 -5.61939478 -1.6229589 1.71657717 0.466153711
      0.888794482 0.967120171 -1.45303845 -2.26353788 2.25109363
      -1.61759233 1.32600009 0. 0.293395668 -0.63873297 -0.257371366
      0.590293169 0.18450582 0.710487306 1.89808261 -0.202233657
      -2.24920249 1.62966156 -1.10414267 -1.12822497 -0.0297557227
      -2.98775816 0.090566203 -0.000839767104 1.46743631 -0.034661103
      0.938411772 3.46764207 -2.15921807</_>
    <_>
      -1.273193 -2.81966352 -3.23486924 -6.54170942 1.87063575
      4.21606016 -0.592670977 -1.83180916 -5.37642384 2.31970358
      -1.9023571 6.79300499 0.377541125 -6.01951313 -0.692977846
      5.41815376 2.0842483 -5.52346754 3.49378133 -1.44786394 5.34287882
      2.07070303 -0.941672504 -0.806667149 0.392016381 1.29942882
      -2.98067832 3.27318454 1.9270463 -1.23143935 3.4504528 -9.04784393
      -0.812306345 0.0330760814 0.395507544 8.25634861 0.760714591
      -2.27988887 -4.35625935 -1.39193439 0.596573114 2.95982599
      0.802900195 -5.87195492 1.53519058 -4.35891724 -1.05246556
      0.247835249 1.72276819 -0.354368895 -0.946040094 -0.892951369
      -0.912260115 -4.83502769 -4.55509329 1.32443488 0.907771409
      -2.97180104 7.29573345 -2.19214797 9.50834656 6.73990107
      3.12171888 0.325508773 -0.0188850127 -0.231860712 -1.34862089
      -1.74554372 0.97726059 10.4114323 6.53343725 0.28933996
      -8.82091808 2.88817453 5.27990627 -3.14421868 0.569086492
      -7.57970572 0.826205134 -0.349393904 -0.102952935 1.00359869
      -1.07133865 -2.33975554 2.97510409 0.215511516 -2.66719127
      1.33150959 -0.260498285 3.30830312 -1.92494845 -5.01295471
      1.5233556 -3.88749003 1.64480495 -10.2732325 0.348573625
      -0.0723815709 -3.17568207 -0.81037271 0.582435071 4.22637892
      1.93388367 0.661469281 -7.19682455 -2.45165968 7.73282242
      3.89905286 1.40836811 3.33491397 -0.967631757 -1.71810353
      0.899146736 -2.59290671 -4.69402504 0.0664912313 -1.46386313
      -1.11239874 5.12757397 5.226964 -2.66685247 1.59074485 3.65888214
      6.58567715 0.27950266 -2.05527115 5.01900864 -2.22915387
      4.18988276 3.46704674 -5.05857515 -6.0978303 0.606417656
      -0.479600906 8.24486828 -0.253487617 -0.894788325 -0.465778738
      1.17522871 -0.693751454 -0.38841033 -1.85344434 -9.79061604
      3.20804214 -1.46133983 -0.110150225 1.14505351 1.63759077
      -5.60152149 -2.44756961 1.01813722 -0.796137393 2.00323415
      -1.77540171 0. -4.49578762 -0.413654834 -2.10609102 -0.461033523
      0.112911992 2.39769578 2.82700419 -4.77535629 -1.06664443
      7.62574673 1.76745212 0.189726323 -0.629562616 -1.98844326
      5.6679368 -4.30599308 1.86557269 3.38452125 -9.04788399
      -0.849115908 3.36431217 6.48627186 -6.01786566 -0.762364924
      -2.50223279 0.490852118 1.33028281 -1.31701422 -2.28727961
      -0.965770066 -2.64681792 0.0773027688 -3.43658972 2.13262653
      -2.51952434 0.317231148 0.325069547 0.839980066 -0.476544261
      4.57810783 0.930719554 -1.65710044 1.82689428 4.90429258
      3.57200217</_>
    <_>
      5.01099396 -1.66730905 0. -0.0525277629 1.29498696 0.597694099
      -0.544818103 0.672838569 -3.48447251 0.672078669 2.31248713
      8.61823654 -1.50262761 -2.5074234 -0.912673533 -1.42318523
      1.4391315 -2.1867249 3.69147229 -0.378580809 1.33796203 2.85873485
      -0.642187655 3.67482162 0.00679263566 -2.29314899 -9.32772923
      -1.65041196 -4.41383791 -1.89256358 1.31727028 0.0488067642
      3.21433067 0.145731464 -4.34400272 9.48221684 -4.85748291
      -5.67462587 -2.01812196 -1.37094533 -2.27252889 3.01167774
      -3.81660342 -2.66912818 1.50011492 -0.681029558 0.191467062
      -0.768207371 -5.35252523 -5.4673686 -5.99991083 -3.0031023
      -4.11248302 2.29498363 -1.92891669 0.490758479 -4.13802814
      1.08232474 6.89723015 -2.27709603 5.29855967 8.06795025 5.55855322
      1.11104727 -1.76607788 -8.66332054 -1.91307652 -3.84803891
      4.59569025 11.3032398 5.63190603 0.291435212 2.93158269
      -2.58483338 -1.03014338 -2.14173412 0.465833634 3.17263031
      -0.931331098 -1.55098033 -4.37943888 0.151566148 -0.991249442
      -4.69647646 5.77063799 2.96290469 -1.17654324 -1.62156069
      2.55216575 1.02047515 1.11977029 -1.56068087 -3.7102735
      -0.773067117 -1.35752869 -4.20089149 -3.91935849 -2.81375504
      0.624136448 0.136176839 0.137655899 6.34679174 -1.61020839
      2.16927338 -2.40410566 -0.46657294 9.71056175 2.11138201
      3.77608418 6.1625123 -0.897998333 -1.2613498 3.38706851 1.60869622
      -3.41196299 -1.492805 -5.30124712 1.30717862 7.8798852 12.7043314
      2.32365894 -10.6491346 4.618783 -3.62597132 1.52370751 -1.14257717
      -3.94038129 0. 4.40911913 7.90756416 -4.9832325 -4.58115816
      4.02531815 -1.44836497 7.56629515 0.8814044 -4.54745007
      -2.57766104 3.01214194 -1.44697428 -5.54915905 -3.04507303
      2.80612397 7.92052078 -1.76117849 -5.45767307 4.76928473
      0.302706003 1.30627966 -5.41555214 -7.051373 2.40047073
      -0.695047855 -0.541160524 0. -1.4893167 -1.63253689 -2.74445248
      -1.61933482 0.224410146 -4.0781455 2.0756464 -0.482859492
      -0.711012781 7.17707491 0.370899022 -0.41192174 0.790027499
      -1.21678126 5.73568058 -0.796582818 -0.655472457 1.68453014
      -2.18359184 -5.75009012 10.262845 7.95491505 -2.13738275 0.
      1.63269043 -2.06289935 2.72181916 0.186732471 -4.08408022
      -3.11105871 -4.13203859 -1.71666729 -0.881273627 -0.388690323
      -4.37059927 -1.56782067 -1.81551313 -2.08123779 0.981001496
      0.200398639 4.0188055 5.24165678 0.315182894 5.84346724
      -6.43456554</_>
    <_>
      5.28562784 1.07697356 -0.669850945 1.39286768 0.740333736
      0.0935103744 0.52927506 -0.894124031 -2.9493053 2.8684628
      -1.63179922 4.41524792 -2.85405421 -2.93494034 -0.761588037
      2.4258604 1.67136908 -5.50513506 2.12472486 0.298033386
      0.693851769 3.14068747 -0.483905882 3.24124646 0.482457817
      -4.91611767 0.812355876 -0.255694628 3.13891625 1.77531326
      0.731697857 -4.75184155 -0.0792476535 0.536157727 0.518705785
      6.54580355 -0.779655039 -0.60347259 -3.77445364 0.849146068
      1.18787181 1.98170471 -3.47197628 -0.90135777 1.01392925
      0.694363356 -0.704710245 0.835873127 3.06806946 -4.49183989
      -0.205883265 1.16822433 -0.356262594 -1.64246273 -0.0890854672
      2.11705565 -0.421554148 -9.42530346 6.3065691 2.99340463
      4.56603432 2.16949153 0.890675485 -0.753351867 -1.73854625
      -4.01085138 -0.0764952004 -3.30201483 3.2117517 9.64235115
      3.60222363 -3.97154117 -0.583252966 -0.080284521 1.4719317
      -0.862732649 0.783624232 -2.68221474 0.999059498 -1.88916647
      -6.08925438 2.27198267 1.51148987 -6.29651546 3.55767441 1.0923785
      -3.76838923 1.63311434 1.049173 1.1507231 -0.636576891 -1.82523632
      0.0607567206 2.83859921 1.80873501 -3.21965742 -5.33703804
      0.911423385 -0.0852479041 -2.29519629 1.68171239 4.88040018
      2.14544034 -3.50345302 0.490174919 0.565980554 -1.71757531
      0.682549238 2.74577618 1.5005132 -2.6254952 1.14059699 1.14810181
      -0.362089723 -7.53344011 0.836600542 -1.33165765 -0.328492045
      2.2902422 4.67393064 1.72319305 -3.95621872 5.32974434 4.05211258
      -0.589125991 -1.10083222 0.872918129 0. 1.1375488 4.40226126
      -0.743331611 -6.35981083 3.45078278 1.24666786 6.06954098
      0.783390045 -4.44317245 0.636084557 2.12112713 -2.10163379
      0.77006799 -4.87551737 -2.22767329 -1.46575463 0.664734721
      0.658302665 0.475965559 -1.45294499 -0.424300194 2.20535111
      -3.52077317 0.0568463169 -2.44577265 -0.876524985 0. -0.857327044
      -0.295479238 -3.74050403 1.69111967 0. 1.22143233 0.142560109
      -6.15321159 0.86188966 -2.31680465 -2.29169869 0.271759391
      -4.69107819 -0.583976626 4.94815874 -1.10330868 1.86372602
      -0.108403362 -1.93981552 0.389506012 2.53524494 -3.85827589
      -4.34216452 0. -5.05261517 1.5420953 0.831106544 2.82577419
      1.50223851 -2.41643238 -6.0847044 0.802984536 -0.808319449
      6.52620554 1.40370369 -3.01502442 -0.468086571 2.17252374
      0.599024951 -4.11650896 1.53874457 2.41090369 2.0527904
      0.540963471 1.196522</_>
    <_>
      3.70510125 -5.50609779 0. -1.55633891 -0.680791736 4.34784222
      -1.74369979 -3.71047926 -0.51256603 0.938626766 0.00423370069
      12.2011976 -5.58943558 -5.09548903 0.282611132 4.53127384
      6.10966015 -3.06494617 3.46648502 -2.04680729 5.73154068
      6.16926146 0.0890736356 3.31865096 0.714008331 -5.38202095
      -2.98660922 -3.11023068 -3.30271482 0.947781503 -0.1804775
      2.21150041 0.367150098 -1.07185602 -2.6527431 5.033288 -1.52448547
      -2.16580796 -4.71926165 -0.883787513 -1.4884913 2.22086477
      -3.23538685 -0.337623119 1.93079901 -5.0867219 -1.91880178
      -0.407076389 -4.30552959 -2.25433278 -2.25463557 0.437398165
      -2.29323649 -0.600337207 -1.40073776 3.01148582 -2.33784103
      1.22585702 6.08734703 -0.142514259 5.73134565 3.26370978
      0.867719054 0.140094295 -4.97319555 -0.599733651 -2.60275865
      -8.40561581 1.45364475 11.1414862 0.74217695 -1.416587 4.7581296
      -1.2511915 -0.265707135 0.0406393707 1.37672353 -1.15256083
      0.115949281 -3.2612474 -1.53101087 0.185406357 2.36173272
      -1.97308517 0.782555878 5.03501606 -3.14532757 0.376511186
      -1.30708885 0.438641757 0.2377747 0.33264932 -0.317090422
      -0.467230529 -0.108352706 -5.495152 2.91600895 -0.162062168
      2.4114697 0.110442899 0.625725448 5.57342291 5.96477175 2.33074212
      -1.98645771 -2.35360932 1.20966065 -1.79697144 1.79766166
      4.87262726 2.56999564 -0.702536941 -2.10394502 -3.95857263
      -4.74584436 -2.49112701 -2.00075984 3.051301 8.50165939 5.80857229
      2.98611307 -3.1235857 6.63178015 -4.32464123 -0.649649501
      -2.08403373 -0.412739128 -0.0273240004 4.38862896 2.78700638
      -0.936559558 -3.02700496 3.57749915 1.2790283 9.42818737
      1.05626667 1.10126042 -1.58206642 2.15005112 0.539115787
      2.04416537 0.22293666 -0.0107959788 -4.19902563 -3.94174504
      -2.82362843 2.00510836 1.87978983 0.344824523 -0.236374229
      -2.58680224 1.84485209 -3.01584983 0.204522833 0. 1.76234508
      -2.80868936 1.54692805 -1.64164484 -0.681572497 -0.00918937568
      2.11535096 -3.99807692 0.895838499 3.61146188 -1.20842147
      1.11244905 -1.67114401 -4.27860928 -1.81533062 -2.70550513
      3.518888 -1.61355877 -4.65200043 -0.538071275 2.91706371
      -2.33829427 -0.867525518 0. 1.47071135 0.624913454 -1.86375523
      1.43369508 2.11301827 1.14258373 -6.22502661 -2.95160437
      -2.35658741 2.52350855 -1.21681643 -2.31673217 -3.25189042
      -0.822718084 0.228349417 -3.76028323 2.89146686 2.16826653
      1.91029227 -3.5810883 -2.3865788</_>
    <_>
      -2.89378047 -2.31559753 -0.596946776 1.53710485 -1.08132887
      2.69776607 -0.757902741 0.95640099 -0.269974023 2.60620618
      4.72507429 -0.397888184 -4.57327032 -4.79657793 1.02906621
      0.643565178 4.4106307 -2.9477334 2.98783445 -8.39023399 4.58321142
      2.76610303 -4.90897369 4.71703959 -2.1306994 -1.24553192
      2.16234684 -1.43383944 3.11833358 -2.58262396 2.95144749
      -0.282428503 -1.05001891 0.107032306 -3.9654386 6.36932468
      -1.1409384 1.04278958 -1.07331955 0.380652428 1.09228504
      1.21953595 -2.2704916 0.811370373 1.17342842 0.24145557
      -0.68375653 -0.186645269 -5.89814568 -2.29934549 1.555884
      -1.11811495 -1.94916928 -0.764795363 6.11686468 1.47380471
      -0.575770617 -3.12034702 6.97189426 -1.95271409 5.29240274
      4.53882122 3.14200616 0.305484354 -3.02520752 0.202957392
      -0.516639352 -4.08324242 4.53528404 14.1129332 2.35990644
      0.0857284069 2.09391832 -0.390295684 -0.440418005 0.793362856
      1.68765843 -12.2011433 0.552396059 -0.291454822 -5.26134777
      -5.91161919 -3.01025939 -1.8513217 6.60549402 1.16447449 1.1994524
      -0.562383294 2.59937572 3.98688436 -8.0054121 2.70980573
      -0.458724201 6.30802441 3.36382675 -0.745960474 -10.2684717
      0.124007255 4.14210272 -0.908439517 -2.26722932 8.78002357
      2.00018454 -1.71825111 -3.03204465 -7.4574604 5.88490582
      -1.82325721 1.78438914 0.349618375 0.751230299 1.23653865
      -1.22422969 -2.82318687 -2.14387155 -3.83719492 0.66866982
      -0.438458025 4.99016142 7.96592665 -0.269737095 -2.51713443
      3.47610617 2.34738207 -0.639212966 0.631617427 3.00440717
      -0.805103302 4.9877162 2.34611845 -0.97693485 -4.75645876
      1.73150766 -1.00421119 8.16969585 -2.11638427 -8.76259422
      -2.48711514 -3.75069332 2.2023747 2.93137765 -0.552347124
      1.94283891 -6.07329559 -1.88287985 -0.555382669 5.92798042
      -2.46320748 0.208264738 -0.147531182 0.425568938 0.10167399
      1.5501796 -1.99555159 -0.148137614 -0.213266447 -5.6892395
      0.447708458 0.827008307 0.175464064 0.233716026 1.4583602
      -4.8780632 -1.24375486 3.75464559 1.11447191 -0.257062346
      0.699922025 -4.01339388 2.95980549 1.02973413 3.81972289
      -2.22104573 -3.51400423 1.57256448 6.63313961 0.661371231
      -0.842811823 -0.596946776 2.9255898 1.44927573 0.918799043
      -0.483648807 -1.63820076 -0.142686963 -4.72577095 -1.67257619
      1.82318664 2.11672616 -3.40513682 -6.2778182 -3.48422766
      -1.66359806 0.492486328 1.30020666 -6.51682138 2.27201891
      0.885594845 -7.90833855 -0.678522766</_>
    <_>
      9.07866096 -1.21752894 0.0184305385 0.407616377 0.427377015
      3.42751622 1.70892787 -0.350832373 -0.172148719 6.57078934
      4.66762257 5.51392555 3.78661084 -1.23006892 0.975666702
      1.29316401 0.201208845 -1.85731161 0.968123674 -13.9421539
      4.55281401 3.15767908 -4.01185942 -0.0251145381 1.16857231
      -1.81618357 -0.405016482 0.880418241 -1.88865256 -5.81218576
      2.74300432 1.95339453 -4.22647333 -3.05905151 -0.656570554
      6.82117033 -0.0204121005 0.437590569 -1.56355822 -0.959849596
      -4.64891291 -1.31686723 -3.27910352 -4.13151503 0.339784682
      -1.18177879 -4.15986013 0.396732062 -0.175407037 0.350708127
      5.14467859 -0.28504619 0.385726452 -2.19745374 -3.88122225
      3.17248893 -2.6598897 -7.85852718 8.28629398 -0.586881816
      3.17999816 4.98557138 4.55370045 -0.762995601 -6.54742193
      -0.915891945 0.0502000675 1.34388864 3.22653866 10.7809544
      0.619505882 -11.3852282 3.00032282 -4.37733698 -0.592680752
      -1.7476095 1.63323092 -2.6807375 1.71617508 -0.489699036
      -4.4071207 -1.29789865 3.03425074 -3.19949555 8.46192265
      -2.92589474 -2.73539829 0.752346158 -3.29505873 -0.169120222
      -0.434343249 -3.65975308 -0.821661711 3.34575081 2.29756904
      -1.42326689 -8.20045567 -0.16117537 3.33265638 -0.388711601
      -3.41351914 4.87324142 2.27757835 -0.83298099 0.922570169
      -8.33966541 2.84039855 2.44507718 -1.31426346 4.12626743
      1.87866187 -1.19502139 -3.18873501 0.789592505 -7.18215036
      0.140315816 -1.11278188 -0.262291402 5.05254126 9.25878811
      -1.03899848 -0.808338702 6.02209282 -1.4916805 0.880194247
      -7.14856577 3.97901511 -0.0613239296 2.80063486 -1.00103498
      -3.88182282 -1.26176822 2.30242777 -0.915266752 9.73859406
      -0.452383757 -0.11230091 -3.94954467 -0.41229257 -0.650300086
      1.78463185 -2.74110365 -1.76816058 3.45452142 -4.23796606
      -2.72672033 3.6001873 -4.35987425 -2.24439383 -1.2543658
      -0.321475506 3.31937051 1.01561391 2.34998941 0. -0.1796235
      0.317071587 -1.72561574 -1.31796992 0. 3.19336033 -1.32289326
      -2.64300585 -1.27129912 4.84916592 1.3201369 1.26868498
      -4.22124052 -3.73778534 4.28124762 -1.39287472 0.468101859
      -0.818551898 -4.95425558 2.29494786 4.19911003 -0.625317037
      -0.358459592 0. -1.82594097 -0.970939219 0.52918005 -0.218839183
      2.45363283 1.21222019 0.419640779 0.589424312 -0.698136926
      5.42987394 0.855508924 -5.33983517 -1.82692707 -1.12937224
      -0.587973535 2.43440151 2.2800796 2.89714074 -1.48247421
      -1.17288518 -0.596819878</_>
    <_>
      -0.152471408 -0.770505607 -0.700776279 3.50263357 -10.8024464
      -3.00765347 -6.93147707 2.28966784 -1.7714746 2.74724174
      3.18557215 5.29656458 2.5597403 -1.83728373 -0.769852638
      -4.98548317 -2.94796968 -1.286744 6.51932383 0.646195054
      9.96201992 5.1140995 -3.16042447 7.19808817 0.0574481972
      3.89772439 -4.92908525 3.59925747 6.14322138 -3.48253226
      2.82114244 -2.58825922 -5.1547513 -0.469169527 0.196824357
      12.1155014 -2.72695899 -0.0526004694 -2.84607482 -3.21044779
      2.09639502 0.536922574 -5.16691589 -11.2406664 1.71585333
      -6.79418612 0.718419373 -10.8657217 5.06881046 -4.63928413
      2.49006462 3.23209405 -2.92401218 -13.9432745 8.35312366
      -1.04487085 -0.50179559 3.05953455 6.93443871 4.87973976
      6.59395695 6.0954442 -2.81679392 1.72210646 0.128999561
      -2.26166487 -1.62311411 -1.89016175 1.42772591 15.1219616
      5.96604824 0. -4.24879408 -0.706756353 1.47048903 -1.99633515
      1.33235002 0.0183351338 2.28060293 -1.02209616 -3.56765199
      -3.10526967 0.682031155 -7.06121349 4.88699865 2.94911456
      -1.16955161 1.66984069 1.13624191 1.07949543 1.28189576 -8.2789793
      -3.80663443 3.07443285 2.59135938 -6.30907393 -1.66081333
      0.84805131 3.61269689 0. -0.774387777 7.92644882 3.9428525
      -0.792806864 -5.42838383 2.55257058 4.01424932 -2.2309761
      -1.01978779 -5.42583609 -2.21003675 0.782186747 1.28610623
      -1.43360841 -3.73052716 -1.65448344 -5.54320908 0.0108493147
      2.73812747 1.5066936 -3.23604798 2.96868515 0.132383838 1.4182024
      1.05584514 -3.22728562 -1.19968843 0. 6.36684179 4.14094543
      -2.65403152 -2.01652145 5.37113142 -0.705340564 10.8709393
      2.13642502 -3.58688855 1.29924452 1.14897823 2.02020526
      0.136250034 -3.17786884 1.03333807 6.95468903 -0.545145512
      -4.6650095 3.13938808 -5.23944044 -0.0364855565 -2.2487843
      3.89242291 0.698592782 4.68940592 -0.172618344 -3.1235795
      0.67672658 -3.16566682 -2.7420578 -2.64903402 0.451788753
      -4.50803089 0.480219334 -1.12392437 -4.70886183 3.79201221
      3.05116463 1.56580985 -4.70299101 0.705126643 -0.847234428
      -0.404137492 1.68571794 -2.83946681 -1.1867646 1.68235803
      4.79705906 7.87021399 -4.97135544 0. -0.518049419 -0.147368506
      1.20047343 1.79764616 2.30473804 -2.68559766 -0.955209911
      -5.05958939 -9.22028351 3.20711517 -2.4999187 -1.43645382
      -2.57855439 -2.0214889 -4.1685648 -1.15982044 4.32454252
      0.639857829 -2.2199235 0.712582171 -0.257767946</_>
    <_>
      1.91296232 -0.156190336 0. 0.853045821 -1.12392616 1.51482308
      -0.477173746 2.29556894 -0.543109655 2.49991727 0.58948791
      2.20613241 2.15332198 0.646426916 0.412543893 -1.31484902
      2.51002336 -0.6561234 -0.943831503 -5.00749063 -1.70477891
      0.576276124 -5.29999733 2.32501554 1.57146585 -0.155936867
      -2.20736694 1.81790853 0.402431369 0.439832985 -0.411249161
      0.379568756 -1.91790366 -0.694931507 0.767851055 2.27075267
      -0.595799863 0.683496177 -1.06637502 -0.910611629 1.11406112
      -0.643365622 -0.404028028 -0.778461516 0.538503468 -0.62931174
      -5.90251493 -0.442568988 1.88624227 0.192684129 0.909318388
      0.256358206 0.468324959 -1.12172556 1.0893662 0.823913872
      -0.457874626 -8.71976662 2.41096592 0.103286423 2.84604287
      0.524887562 1.14374149 -1.35058606 0.585506737 -3.40274954
      0.241415665 0.349971026 2.99504709 3.35176659 2.37223458
      -7.78992653 -0.526327789 -0.771989286 2.124928 -0.191047966
      0.608249068 -1.7172848 1.99239147 0.682764947 -2.77357769
      -1.96442306 -0.17697227 -1.99168169 -0.0729796588 0.729915679
      -0.831372917 -0.463023722 0.872338235 0.579493701 0.347440928
      1.02530336 -0.418713272 1.05286157 0.458653331 0.736296177
      -3.04879141 -0.132572934 -0.179542899 -3.11564469 -0.903985143
      2.04450893 0.903183401 1.63138068 -0.217229322 -1.35608351
      2.44420028 1.19285011 0.376630485 0.902759969 0.872309148
      -0.0435738526 0.262289792 -0.924030483 -4.19913292 0.361617595
      -0.0489399247 -0.327995539 0.515074849 0.980074286 1.03123665
      -1.42825091 -2.4517467 0.415911943 0.338741422 -1.12228334
      -0.126922861 0. 0.403280497 1.29108083 -0.810150027 -4.15104675
      1.57660294 1.64699626 2.54696202 0.530662239 -2.82188368
      0.742839754 0.81233871 0.497949988 -1.15617239 -1.10877144
      1.38493192 0.693925023 -0.532854915 1.44912469 2.6176722
      0.0951750427 -2.6254766 0.397047102 1.02169549 0.627833962
      1.91191041 -1.11471832 0. -1.11297846 -0.923189342 -0.723806202
      -1.18439245 0. 1.14023483 -0.3722983 0.69069165 0.0422144346
      0.853881598 -0.616328299 0.113280363 1.09956396 -1.73073709
      2.3288765 -0.321663827 0.167615399 -0.544765174 0.787992597
      0.0748405904 0.962884903 2.83172917 0.964632392 0. -0.752476275
      0.716268778 -0.462071478 0.708771348 -0.371973693 -1.90226388
      -1.131724 -0.680481791 0.7172454 -1.15599465 -0.351748258
      -1.51348734 0.204607755 0.727172494 0.184263274 1.39320457
      -0.616776705 1.51480818 1.21913493 1.16649747 -0.227463573</_>
    <_>
      1.7384578 -1.26727819 -0.674684703 5.74724817 -2.99856186
      2.83082962 0.498420805 0.329653352 -2.44825697 3.71811724
      1.4130801 10.5493011 -1.90459692 -3.39543486 -3.90113568
      -0.216416329 6.74343538 -7.01915598 5.70785379 0.350960791
      1.46066546 1.64469671 -0.945559919 4.24515724 1.26702595
      0.109505787 -5.06530523 2.07474923 2.37929869 -5.22875214
      3.16396618 -0.81471324 0.803833544 -4.95941734 -0.214547798
      9.74186325 -2.86228085 0.0966000929 -1.18683696 -0.48846522
      3.29910684 -0.989018917 -0.654870987 3.6049397 -3.55367661
      -6.45759392 -0.733759761 2.89872408 0.801173925 -0.565291941
      -1.06578374 0.771316469 -1.40022182 -0.986489534 3.26990175
      1.87499285 -3.56125069 3.4245646 5.8147049 4.76034403 4.65657377
      4.55334234 3.70873356 -0.0739597827 -2.32067966 -0.818083823
      -2.01555538 -4.89446735 6.21612167 14.5751362 2.31690121
      0.160967082 0.193572119 -2.78923512 -7.93062496 -3.10543251
      -3.7818737 0.819057107 2.98714519 -5.12070704 -1.34562242
      -3.26236153 1.13353145 -7.08477402 3.15927029 -2.8544383
      -4.02536488 1.60634935 2.08258486 -0.951424301 -0.914071023
      -1.62692535 -2.69704413 4.59112978 3.23274207 -3.59099817
      -0.368058622 0.795306325 4.13107777 -0.602295756 -1.67063868
      9.56964493 1.7349205 0.732027531 -7.03092957 -7.11225653
      7.49629116 2.14346075 -4.19213772 1.63144875 -3.76548505
      0.211256832 -0.0374774039 -6.66212177 5.68971682 -13.8935013
      -2.97687888 -5.26192141 2.60921311 -0.310345441 -1.00819707
      -0.683425069 -4.61165094 8.28489017 0.864559174 -5.22710752
      5.70466757 -1.88495231 -0.397625268 8.1086092 -4.69872618
      -8.43890667 6.96323395 0.452867419 10.9505711 3.29285026
      0.405428946 0.566256464 -6.05497789 5.68621445 4.22669315
      -0.871335089 -0.211170554 5.6684494 -2.1641798 0.660884857
      3.61466146 -0.551126301 -0.314796001 -0.138409421 -4.67888832
      4.13156939 3.73457503 0.748744249 0. -2.02064538 -5.95631695
      -0.212088257 -0.281389803 -3.24791002 -3.92644286 -6.89428902
      -3.18756056 -6.55996084 3.83705091 -3.05591702 -1.78217828
      -2.83035851 -1.34446573 4.65733767 -1.27254474 -0.187265947
      -0.219463021 -1.2712059 -4.34444475 7.42175722 3.63339186
      -0.300388545 -5.62573814 -6.58708715 -1.15977848 -3.40193892
      -1.26514947 -1.01898193 2.4366107 -1.55692124 -1.70589375
      0.86173147 6.462533 -4.31810188 0.145285234 -0.135623634
      -1.43256795 0.277471364 0.957934916 3.22580099 0.347499877
      4.10790014 0.911531925 -3.53641868</_>
    <_>
      1.87814021 1.89495587 -0.392310232 0.70269388 -1.34987354
      0.0491606034 0.78187108 0.31440267 -1.28280318 0.0143428063
      -0.256415784 0.36570695 -2.01268244 0.587516546 -0.179326877
      8.80564213 1.78628898 -2.25006557 1.55206919 1.35456645
      0.000174784378 -0.304732412 -2.73735642 0.0660649762 -2.87920284
      0.547099411 -1.08900976 -0.226175711 -1.64726365 1.90118921
      1.76389587 3.0997107 3.35028458 -3.99535489 0.0272003449
      0.479666233 -1.3674593 -0.173064724 -0.346653312 0.30885765
      0.67683053 -0.153649628 3.50161457 2.04329419 0.617765725
      0.724638283 -0.683901131 0.261716068 -0.905631363 4.16486359
      -2.48759675 -0.784383655 -1.37040758 0.203279257 -3.3823247
      1.88272154 2.05636573 -4.2899766 0. -1.48157835 2.49580884
      0.872550189 2.04112411 -0.355071932 1.83645868 -2.15007544
      -1.132599 -0.847628176 -1.58873141 -0.223027661 0.761196375
      -0.223027661 -2.41441393 -0.626513362 0.644966006 -0.6381827
      -0.229438305 -2.75464392 -0.908931494 1.31473386 -2.69865298
      -1.61174369 2.91440988 6.69602585 -3.52490067 -0.667639971
      0.137810901 -1.3152132 -1.0891161 -1.85871601 -1.56356061
      1.07221067 -0.489482969 -0.0734038576 -0.627311051 -0.273632675
      1.37503886 -0.901609421 -1.75259185 3.41964173 -0.637473464
      -1.15195763 -0.254769474 0.663632095 3.75744724 -0.320345998
      0.617765725 3.86920142 -0.924352229 -0.408774346 -1.89489174
      -0.246968344 -0.748622 -1.08322585 -1.85925138 -0.163409516
      -0.126061887 -0.593097806 0.536060989 4.92254734 1.54535639
      -1.06714559 -0.169289336 -0.6879462 -0.189630881 0.423771352
      1.71197438 0.326176494 -0.33647424 -2.15879703 -0.181265622
      -0.862402439 -1.03533173 -1.74328268 0.313033313 -0.511695743
      -0.486107379 -0.155527994 -0.245114267 -0.718447864 1.99337578
      -1.46767163 0.278615743 -0.234615058 1.14281726 -1.34588444
      -0.143268287 0.584770858 -0.144461721 -1.45978165 -6.29755497
      1.7560575 -2.66346741 2.28844261 5.0714159 0.374755204 0.727361798
      -0.152985945 -2.60069704 0. -0.0396211818 -0.564579368 1.37547576
      -2.64559484 3.48944521 1.25475991 -0.0817047581 -2.80887651
      0.708064377 2.98826075 2.59577966 -0.849734306 -0.732670903
      2.19624805 0.701921165 -2.13724518 -1.27375865 1.15647054 0.
      -0.31025973 0.990417182 -0.437536389 -1.82953632 -0.663353741
      1.53727829 0.974330246 -1.5553056 -3.37266684 0.466709793
      1.93360972 -3.40173554 -0.705729246 1.24241734 3.51870894
      -0.901053607 2.82332993 -0.471915513 0.432113677 -1.13386726
      -2.67861557</_>
    <_>
      0.253564596 1.36620522 -1.36642313 -0.547629714 -0.4121975
      -0.132339135 -1.5674144 -0.777637482 -1.89058089 0.639030695
      0.190412462 -0.4121975 -2.38107991 -0.392630637 0.98362273
      9.92907524 0.457612187 -1.74867868 2.88463092 4.43896246
      -0.788245678 -0.331070036 -2.40837002 0.59876591 -0.323916703
      1.72430885 -2.70400786 -1.99743295 -2.35765243 2.55042148
      2.01373172 4.11345291 1.4400034 -3.73281837 -0.376339108
      0.690584779 -1.00188982 -1.69646895 2.04042149 -1.71057677
      0.668681085 -2.75737667 5.57235622 1.52672994 0.56070435
      -0.263690591 -0.0570402555 -1.70674372 -3.2619698 4.04038954
      -3.23322439 -0.581251979 -1.36045361 -0.812520683 -1.18478286
      2.21978259 -0.117263287 -1.55470073 -0.572259068 -2.37827396
      0.00902883336 1.7604394 1.55899143 0. 0.840178311 -2.01164198
      1.64610291 -1.32480407 0.335822791 -0.923285663 -0.182242602 0.
      -0.181456283 -0.245086953 0.936252117 -0.837365091 0.56070435
      0.880672932 0.927730918 -1.54768491 -0.736531854 -0.130505741
      1.49734688 4.654037 -0.772738218 -1.11324632 -3.33029962
      -1.39695132 -0.164462924 -2.92841434 -2.31411076 0.335266769
      -2.62545657 -0.392272651 0.143671185 0.56070435 1.68209195
      -3.39688349 -1.87229574 0.00303864828 0.319515347 -0.257579386
      -0.241189033 -0.157718018 4.9129281 -2.31601858 -0.330462277
      2.33898091 -0.159453794 -0.253917634 -1.05463719 0.0380615592
      0.404345155 0.388848841 -3.23664308 0. 0.788743258 -0.247911587
      0.56070435 4.49129581 1.53722119 -1.25081575 -0.136355773
      -0.807196021 0.524184108 -0.904524803 0.770116866 -0.894741416
      -0.934648812 -2.31254506 -1.01673591 -2.75940633 -1.04973555
      -0.791959941 0.56070435 0.932997227 1.11598909 -0.888348818
      -0.771977603 -2.09671474 1.51484919 0.138239294 -0.0912589207
      2.8477509 -0.70525378 -0.815651298 0.892700315 1.38063395
      -0.178725868 -1.10570014 -2.81600595 2.57166815 -0.701048791
      2.30379844 6.05809259 -1.27456176 -1.11704493 -0.922171414
      0.280341297 0. 0.109598182 -1.74602163 1.5859859 -0.0421045013
      0.568466306 0.867193341 -1.02728665 -1.5726068 0.772051036
      2.10172486 0.0719045922 -2.30176115 1.09851253 3.40817857
      0.90798831 -1.07102752 -2.38061166 0.695680082 0. -4.32094049
      1.1214087 -0.49525854 -1.60590184 -0.0281792879 1.74583447
      0.178422719 -1.10304761 -4.06802416 1.06895113 2.75189924
      0.508884907 -2.14844894 0.222149804 5.21559572 -1.78514421
      4.93861771 0.739875376 2.08141661 -0.595804155 0.549149692</_>
    <_>
      1.55135286 0.0157196019 0. 0.0183608457 -3.98728442 -0.671720803
      0.366861224 -0.373132229 0.0156614017 -0.394559681 -0.290642649
      0.252203107 -2.67986608 0.25278455 -1.29975569 10.5319366
      0.343462169 -1.21986282 0.929748654 1.25792062 0.790746212
      -0.544073641 1.01936638 -1.2377907 -1.53743315 0.879148364
      -2.0275538 -0.565922081 -1.14248288 1.11463618 2.17860126
      4.30009842 4.5008688 -3.28100276 -1.77213919 -0.634017348
      -2.79756522 -0.766482115 2.51508784 2.26816654 -0.323908627
      -1.19183874 3.30810547 3.35382318 0.545085251 0.319700032
      0.86495775 0.8774876 -1.70444763 3.10579157 -0.271934092
      -1.7396853 -1.34071362 1.51765954 -2.35243559 -0.620364189
      -0.607221365 -0.0930719823 -1.40453875 -1.43923724 -0.212106153
      1.33837342 0.901827455 -1.27512217 1.59138072 -1.88967454
      1.65203118 -1.52329755 -1.35475111 -1.38241696 -0.994776249 0.
      -1.08349073 -0.72333473 -0.167781964 -1.77128422 0.5865767
      -0.816892028 -0.956494272 -0.435185492 -0.56358093 -2.13980579
      1.65437913 5.73659754 -1.4506743 0.525468349 -0.529030323
      -0.923089445 -2.97014737 -2.3517108 -1.06350327 -0.0109067885
      -0.594658434 0.193520725 -0.519924581 -1.43732131 2.65612555
      0.87094903 0.162454739 3.29266834 -0.467748374 -1.70130908
      -1.49688268 0.976495862 4.57012749 -0.131003886 -0.0610978752
      0.742958546 -1.41715801 3.35028148 -2.33169127 -0.384035975
      1.59825373 -1.4294945 -0.888680696 -0.326068014 1.39116108
      0.267892897 0.565082073 7.60388708 0.217388079 -0.894940078
      0.0797297731 -2.79596949 0.835466683 -2.89824104 -0.571644545
      0.710021496 -0.501549482 -0.929151893 -0.432011276 -0.268987924
      -0.58625257 -1.20222509 0.336494148 -1.58419621 0.138124198
      -3.13356853 -0.0599905141 -0.821551263 1.33188307 -0.458700418
      -0.257136047 3.75833678 0.252199024 -2.13060021 -0.0648417026
      0.254320711 0.864080966 -0.95036155 -0.635689199 1.54118013
      -1.48809421 5.55272484 3.6812079 0.0862801 -0.851932883
      0.471169204 -0.709658623 0. 0.230237022 -0.660560489 2.28510642
      -1.79468989 1.5352385 1.49532783 -0.173630401 -1.64176691
      0.748614013 1.31398475 1.69052708 -4.19372892 -1.23293972
      0.607178926 0.764792264 -2.59916234 -0.218097776 0.228672281 0.
      -1.2413795 0.472876549 -0.632719457 -0.761206865 0.309143573
      1.42700136 -1.20479465 -1.55717874 -2.27681947 -0.775869727
      3.29380608 0.249534756 -2.52397609 0.382550061 2.12119555
      -0.724610686 2.90763545 -1.65808272 0.146556422 -1.10645604
      -2.2506249</_>
    <_>
      0.817826331 0.122156762 0. -0.211882904 -0.0773683339 -0.108041085
      -6.72326756 0.678460419 0.452306926 -0.366876304 0.527437925
      -5.01111984 1.45433927 0.210124657 4.90579748 4.16863918
      2.33702421 0. 5.51029587 2.15931916 3.05049276 0. 0.95189923
      -2.30034304 -0.11005006 1.61800337 -0.122515157 -3.56743789
      0.19581598 1.43205178 1.8042084 -2.96122146 4.06315136
      -0.446253568 -0.666353703 0.452306926 1.318385 -0.482979715
      -1.0361253 1.9540683 0.207946688 0.226153463 -1.21886742
      0.722100616 0.226153463 0.374938637 -5.83486271 0.452306926
      -0.975928843 -1.40434277 -0.244360238 -0.256826252 -0.607408464
      0.539814591 -1.85849965 1.24459016 0.352303863 -3.98596072 0.
      0.148785129 -0.0171934273 0.421634138 1.39622009 -0.387894183
      6.32062101 -0.348668635 3.89848804 1.43311846 0.169494182
      -0.81918323 0.461696625 0.834430456 0.288313776 1.37254667
      -0.103996679 -3.35379529 0.226153463 -2.49754906 0.678460419
      0.725378513 0.452306926 -1.75350344 1.35692084 3.12316442
      -0.843443334 0.226153463 0.116103411 -0.216106474 -1.28127539
      -0.347478211 -0.741724253 0.421634138 -4.45908928 -0.256826252
      -0.134310186 -0.256826252 1.22261059 0.103638306 -2.02642584
      3.17018747 0.716559231 -0.360463649 -0.360463649 -1.05924189
      -1.95714712 0.0100469952 0.226153463 0.755930543 0. 2.23550344
      -2.28744578 -0.0773683339 1.29684603 -0.513574898 -1.49044621 0.
      -2.2662046 -0.256826252 0.226153463 3.03926444 -1.16161513
      -2.58064151 0.342256904 -0.380890131 0.195480704 -1.55698025
      -0.525446594 -1.0239588 0. 0.100497685 -2.83327174 0.964034379
      -0.187418386 -0.436743885 -0.11005006 -0.140722811 0.537737608
      -0.256826252 0. 0. 0.390961409 -3.44226718 0.678460419 1.92533112
      -0.0182067491 -0.380890131 1.02216113 -1.33856571 0.586446583
      0.116103411 -0.411093205 0.63599354 -0.720927298 -0.696176291
      -0.428430527 0.356095552 -0.458457768 -4.47962046 -3.21639752 0.
      0.116103411 -0.663985431 -0.5371176 -2.22662449 0.206093505
      1.9777534 0. -0.652190447 2.51500368 1.05339909 0.36674127
      -1.73999488 0.342256904 2.03316665 -0.0300752427 0. 0.0918432847
      1.83273292 0. -3.31919885 0.452306926 0.923504114 0.226153463
      0.753591359 1.45226812 -1.73508132 -1.70769668 -1.47495151
      0.91953361 5.67968559 0.82833159 -0.96595943 -2.7332747 1.37158084
      -0.696667194 3.57325792 0.342256904 1.35692084 0.0458451845
      -1.59504342</_>
    <_>
      0.978620231 -0.158460349 0. -1.87488484 -1.23762226 0.433976144
      0.610732436 -0.705676019 -1.39935577 -0.607705951 -0.0773189515
      0.0969438031 -3.50465775 0.685755908 -1.76826978 4.77267122
      0.535063803 -1.51953614 1.07819259 -1.36974835 -0.575824261 0.
      0.183943868 -0.227821887 -0.477854133 -0.540480971 -1.33326733
      0.733686686 -1.80015135 1.05033684 1.41155112 2.5378859 2.99283767
      -1.25956023 0.660771728 -0.0329079889 0.0225966852 0. -0.375950396
      0.986019909 -2.4188273 -0.0979700908 2.38797092 2.01196003
      0.281913966 0.0959175453 0.401320219 0.563827932 -2.72295165
      1.62186539 -1.01947165 -1.30138564 0. 0.663903952 -0.759768069
      -0.331865102 0.578071117 0.0359206311 -0.411765754 -0.0010262857
      0.0218445063 1.12765586 0.520610392 0.024984166 -0.00136566383
      -2.02694702 1.1207267 -0.564559579 0.0413022749 -0.411765754
      0.92988795 0. 0.152062163 -1.4201206 1.12765586 0.0764504299
      0.281913966 0.00330226519 -1.13937962 0.449906081 -1.01947165
      -2.31085658 0.899833977 2.40964985 -2.80438352 -0.0979700908
      -0.227821887 -1.96318364 -0.0979700908 -0.364614546 -1.18748558
      -2.24585152 -0.307995319 -1.30138564 -0.857738197 0.0969438031
      1.60345745 -1.36747396 0.199213356 1.4614203 0.282574415
      -0.791649759 0. 1.41023016 2.57190847 0.281913966 -0.541617513
      1.39757335 0. 1.97405815 -1.99506521 0.0969438031 1.06696081
      0.105861291 -1.60213447 0. 1.12765586 -0.129851788 -0.314821929
      3.84948564 1.2245996 -0.541617513 0.249005988 -0.889619887
      0.845741868 0.475801587 -0.85876441 0.3288185 0. -0.832771599
      -0.021135347 0.846402347 -0.945764542 -0.359232903 0.281913966
      -0.695732236 1.0947479 -0.694705963 -0.411765754 0. 1.31159973
      -0.379223585 0.845741868 1.44069755 0.845741868 -0.129851788
      0.643603981 0.535015821 0.893222034 0.563827932 -5.27794123
      1.5065136 -1.58329952 2.17459226 1.8910836 0.328382879 0.151035875
      -0.841808259 0.378857762 0. 0.563827932 0. -0.141848177
      -0.379884034 1.09372151 0.93356055 0. -2.5599196 0.125377804
      1.31159973 1.21114147 -0.0979700908 0.0222103987 0.632633924
      -0.0986669809 -0.564854205 -1.94432235 0.728744864 0. -0.140730783
      -0.195940182 0.435429513 -0.477854133 -0.555173099 1.56163192
      0.660771728 -0.379884034 -1.32462227 -1.88940978 0.63978672
      -0.148375168 -0.169700652 -0.671812892 1.24385309 -0.564854205
      1.9901675 -0.357673645 1.0947479 -2.83388519 -1.26820517</_>
    <_>
      2.5811584 0.0633559301 -3.45009327 -1.0146693 -1.0672437
      -0.204729885 -0.507191539 -1.57559454 -2.70753145 0.163183779
      -2.91967845 0.599006891 -2.91838288 -1.80097175 -0.054295931
      10.3059683 0.853378415 -4.27896023 1.14059806 2.3517828
      -0.564956367 -0.414274663 -2.04946399 -1.67819417 -1.49123442
      0.566234648 -1.83039987 0.214948207 -2.44118786 2.18688035
      2.84629226 0.977960348 4.87519073 -0.216238245 0.166676089
      0.163183779 -0.491966933 -1.34237993 0.302456468 0.257265508
      0.348478526 0.239794433 3.47654366 3.03027415 0.763488114
      -0.677928805 1.27160299 0.381979406 -1.77018821 4.52014256
      -1.9754796 -1.02682865 -0.819227993 -0.942019761 -4.43145132
      1.87550104 0.530189872 -1.51799905 -0.320806116 -0.966005147
      2.77021241 1.7907263 1.88596451 -0.686912179 1.46371186
      -1.11317444 0.999667525 -2.21164656 -2.06488848 -1.09546006
      -0.708774388 0. -3.7549305 1.05463624 1.42342055 -0.770060897
      0.599069953 -3.72839475 -0.71329385 1.67382228 -0.38613075
      -1.5009166 1.49350786 6.13429689 -1.8624922 0.0946717635
      -0.723398626 -1.59984851 -0.527298868 -0.642793953 -1.75110602
      0.369140089 -0.860479593 -3.12985039 0.0691645518 -2.89752388
      3.65544891 -0.641831875 -2.60858703 3.46826243 0.142847553
      -1.05048919 -0.751670003 -0.633838356 2.4572382 -0.587532759
      0.2977314 5.21628714 -0.864373803 2.41870046 -0.782343626
      0.155176938 1.07238436 -0.279662549 -2.40386295 -0.250556648
      1.19907331 -0.468065262 0.70866102 6.10671616 -0.0186188668
      0.20648919 -1.03487539 -0.73118639 -0.882882774 -0.78999716
      1.27381277 0.0440648459 -0.406182319 -0.898580611 0.719041407
      -2.2073586 -0.524087608 -1.39624751 0.297794461 -1.04462695
      0.802047491 -1.16156578 -0.203059644 -3.24595189 1.41815984
      -2.04379272 -1.9687705 4.87727356 0.42052561 -1.22344065
      -0.580151677 0.401499838 -1.73593843 -1.04293108 -2.43369532
      1.31828678 -1.06667471 4.55700111 6.16991949 -1.58713853
      1.04644942 -0.952108085 -0.413858742 0. 0.753660202 -0.0547640212
      -0.523788631 -0.801427364 2.76347065 1.03741145 -0.195729584
      -1.64936233 1.86407912 1.95981431 0.0310269948 -1.03546107
      -0.189727277 -0.391058236 0.196507156 -1.63979316 -1.73278904
      -0.697740436 -0.0548270717 -1.59150326 0.362373143 1.20950019
      -0.715210974 -0.59136343 1.77478075 -0.26324904 -1.93328822
      -1.42393506 -4.04751825 2.46143007 0.717773676 -1.45438242
      2.27881503 3.68967795 -1.47349608 3.73511076 -1.35981023
      4.16595411 -2.55368686 1.15960741</_>
    <_>
      1.79200959 -0.253607154 0. -0.417532831 -2.83411503 -0.449490935
      0.760041416 0.230407119 -1.3223784 -0.732007742 -0.594267249
      -0.237842008 -3.47482109 1.0376941 -2.1409595 7.59731245
      -0.273367435 -1.97106493 0.982081711 2.25627971 -0.585233986
      -0.455971867 0.585605681 -1.18821764 -1.02446759 -1.78239465
      -3.64751339 0.495755166 -2.4532392 1.33945322 2.65622735
      4.41651583 4.34310961 -0.504345953 -0.917280257 -1.36652112
      -3.39440584 -1.46865773 0.858667791 2.54878306 0.462866217
      -0.335198283 3.20824456 1.9582926 0.53741318 0.131138429
      1.23865616 1.29044855 -2.29149389 2.94714499 -1.34400141
      -1.35402691 -0.358143419 1.69099307 -1.14583385 1.51406884
      -0.143192127 -0.0282340273 -0.973157465 -1.50298119 0.664755583
      1.25875366 1.43391252 -0.776394904 0.547368765 -4.28852463
      0.329851002 -1.43056273 -1.98964298 -1.33767092 0.741508782 0.
      0.0248163398 -2.35023212 0.389915586 -0.42441538 0.750849009
      -0.68820715 0.21649003 -1.84538817 -2.88229322 -2.63992214
      0.838399768 3.41045785 -1.72368431 0.652745068 -0.353252143
      -2.55276322 -1.07352352 -1.32110989 -0.547299564 -0.509562254
      -0.466835111 -3.25362778 -0.764180601 -0.438840747 3.3984127
      0.861335993 0.37526077 4.09898138 0.474047661 -1.17881501
      -1.95044696 1.18527603 4.47539949 -0.548688769 0.490809441
      2.25447226 -0.0505174659 3.19730473 -1.98189425 -0.361769855
      1.25380361 -1.28236163 -0.777925611 -0.213435769 -0.280641645
      0.204528093 0.750849009 8.49690914 0.884857059 -1.43656111
      1.14290249 -3.20245433 0.982675254 -1.21233428 -0.419156522
      0.946564019 -0.161935657 0.645732224 0.255039752 0.144606248
      -0.422779143 -0.819311202 -0.385167658 -0.183027923 0.0887800083
      -1.28202355 0. -1.19203234 0.120722309 -1.82587171 1.13070869
      5.31613398 1.56782234 -2.43288231 -0.73577112 0.0129267154
      1.23162735 -1.60212064 -3.26652622 2.61261535 -2.71699905
      4.63631296 5.09471941 -0.865666509 0.196414143 -0.659967959
      -1.9456172 0. -0.579926789 -1.18567014 2.4743576 -0.657220066
      2.92715812 -0.0243399832 -0.564437032 -2.29039907 1.80168617
      1.56019926 1.58527875 -2.8264575 -1.535097 2.19978356 0.214747846
      -1.63495076 -0.936420023 -0.0612599961 0. -0.243534684
      -0.721359372 1.02945387 -1.36033189 -2.68637919 0.0444640182
      -2.3656776 -2.98882151 -1.44684863 -1.28211796 3.22813892
      1.24516022 -3.95303798 0.735174954 3.58347058 -0.83964622
      3.64786053 0.566654086 1.61848593 -0.402503878 -2.52460265</_>
    <_>
      2.13268352 2.92556405 -1.92542231 -0.371712089 -0.505689502
      -0.853579164 0.892785788 -0.689528704 -1.24249625 0.181855693
      -3.85648513 0.0882617831 -2.95987082 -1.06126976 0.347639173
      8.3496666 2.267169 -5.49090385 0.772167742 2.54758358 -3.76158333
      0. -1.59769511 -0.666085243 -1.08449292 -0.133742079 -0.976022303
      -0.501818955 -1.26032746 2.70485616 2.27677679 0.375941455
      2.65508413 -0.230747223 -0.23473379 0.318080604 -0.10431698
      -0.500263691 0.502475917 2.2965045 0.324358582 0.375614345
      2.91374111 4.49415922 0.662966907 0.580197632 0.487696141
      1.30045438 -2.4829607 2.73327184 -0.670476437 0.0964861065
      -0.0254794862 0.589149058 -1.65912473 2.00357819 0.741065145
      -5.63409472 -0.253648758 0.397417337 2.49426913 1.02516901
      1.0326767 -1.09118557 0.490061939 -2.87515569 0.435342401
      -3.09384036 -0.822930992 -0.0254794862 0.394690961 -2.86674309
      -1.70655417 -1.8682785 0.904852986 0.0273402873 0.375614345
      -3.34382701 1.48814845 -1.40335035 -1.48258495 -0.518166661
      1.62086809 4.52464294 -1.69283938 0.637487411 -1.46309471
      -0.728175342 -1.6016711 -0.89371413 -2.09453034 1.5305171
      -1.00038624 -1.37523305 0.637487411 -2.86514187 0.831616819
      -0.0216418244 -1.84219527 0.114324629 0.970570683 -0.286946774
      -0.54881984 0.0807365626 5.65544128 0.403934211 -1.85266876
      2.74188805 -0.284454316 2.22619653 -0.997535586 0.227632672
      1.68514609 0.633660913 -1.45206797 -0.0254794862 1.67812407
      -0.749081671 -0.0223373529 5.43974018 2.44878602 -2.42478991
      1.43325055 -0.727075398 0.49034062 -3.09582424 0.431821942
      0.662966907 -0.515116036 0.662966907 0.559607029 -1.43136823
      -0.455635548 0.467231989 0.255298316 0.0296029318 -2.26810741
      -0.847391486 -0.73712045 -2.20941806 2.60489559 -3.59468102
      -0.154206246 2.48603106 1.55356658 -1.29099119 -0.122001052
      -0.595365763 0.386806875 0.375077426 -4.57041645 0.523095191
      -2.02799368 1.85503054 6.40932894 0.15810284 1.02832997
      -1.54430282 0.345877528 0. 0.750129819 -0.713681996 -1.04754066
      -0.421835721 -0.337940037 -0.48941943 -1.14689052 -1.78410518
      2.31035924 2.53295255 0.283861339 -2.1932373 0.816851437
      2.33180499 -0.624349236 -1.32161188 -1.94709384 -2.89521313 0.
      -3.1283443 1.30045438 1.78242838 -0.21060805 0.299284548
      0.874027848 -2.161551 -0.574705124 -1.51969635 0.502419114
      5.11674404 -1.00213552 -2.44203591 1.12278521 4.84613609
      -3.13531733 3.27274728 0.153868213 2.34447455 -4.48832941
      0.37536642</_>
    <_>
      2.67857409 -0.919408977 -0.209000528 0.0515372641 -1.03939307
      0.107128806 0.392582715 -0.768323541 -0.406572402 0.277997762
      -2.32297873 0.10039489 -2.99353504 -2.03303599 -0.234899685
      8.85597706 -1.71507072 -2.09876537 1.69063175 1.21116066
      -1.12097657 0. 0.477360934 0.493621051 -1.03939307 -0.350287884
      -0.981935978 -0.574984193 -3.719455 2.30826569 -1.79302311
      5.16677952 3.34488487 -1.30039585 -0.843832433 -1.68870461
      -1.66536534 -1.70185721 1.78349912 1.62261069 -2.12594962
      -0.62417239 5.31398344 3.58862591 0.694022119 0.464198947
      -0.000248526019 0.371880174 -3.31144452 5.27652073 -1.01983905
      -2.48114491 -1.64427209 2.36353707 -3.12967014 1.67600489
      -0.341417521 -0.593356669 -1.57614636 -1.07663691 -0.0335342921
      -0.338570505 1.41503167 0.279147416 1.69457269 -0.828526914
      0.119772442 -2.8142879 -1.5714066 -1.42641938 0.301594615
      -0.768712342 -1.85498869 -1.44708622 -1.11109388 1.11086917
      -0.447928667 -0.661138237 0.145580024 -1.61242032 0.736266494
      -1.77807641 1.08877754 4.1017766 -0.374296606 0.459122449
      1.0036881 -2.8447721 -2.87708926 -0.592233717 -1.99855888
      0.506773651 -1.39886498 0.224222749 -0.730083466 -2.79039764
      3.46356392 0.756236315 0.904999375 3.74113703 -0.202801302
      -0.593627214 -0.241522431 3.06233716 4.3152318 -0.981935978
      -0.0705599561 2.44034719 -0.241522431 2.89275146 -0.659523487
      -0.113141425 1.97039247 -0.779482067 -0.510903001 -0.175355628
      1.11903465 0.694022119 0.0622142069 5.05552483 0.885259151
      -0.686460555 0.361203283 -5.22596979 -0.0682268217 -0.658593655
      1.04000318 1.09133506 -0.209000528 -0.304919958 0.356125087
      1.06950724 0.345981002 -1.82682335 0.10039489 -0.415795833
      1.95617855 -1.14501011 -0.384356171 -0.631807923 1.02830517
      0.271026522 -0.0771065727 2.08202529 0.179224923 -3.50254488
      0.421073288 0.714699984 -0.0604318865 -0.39994967 -3.74579573
      2.01167679 -3.68496299 3.50680113 5.46554422 -0.571513295
      -0.490874022 -0.333277643 -0.435283393 0. 0.580880702 0.
      -2.67346334 -1.46695757 2.69105124 -0.0944580585 -0.175355628
      -2.217659 0.75251478 0.233228445 -0.507686019 -0.381686002
      -2.08085561 2.00531197 -0.292281389 -1.49851549 -1.48890328
      -0.802804947 0. -0.4430089 0.580880702 -1.47516823 -0.172685474
      -0.983801544 2.4326942 -2.56459403 -2.80354047 -3.40491343
      -2.08281779 4.76999378 0.927060843 -1.42641938 -1.27286172
      5.22111797 -2.37423825 3.4642272 -1.70216191 2.48844528
      -0.178263098 0.729643762</_>
    <_>
      -0.151913434 0.326355696 -0.276033968 1.15133226 -2.10901237
      -2.02486968 1.00489604 0.384485602 0.274038076 0.354211271
      0.0252034012 -3.70487356 -5.71899462 0.533036828 -0.570203781
      8.08050728 1.28750908 -0.816886008 1.69997835 -2.3570323
      -1.50010884 -0.639090717 -2.81059575 -1.6135236 -0.934965193
      -0.969881594 0.282755762 -0.570657074 -1.24675846 1.63852477
      1.15630507 4.49963951 5.08042955 -0.0735122487 -1.2793386
      0.246112794 -2.08346033 -0.454373181 0.69917047 2.9008553
      0.727443993 -0.354498446 3.54117298 3.61822963 0.371141553
      0.386887491 1.10304654 1.2705009 -4.06407261 4.19649601
      0.031813629 -2.33674264 -0.674338639 0.797046781 -1.53777945
      1.39157593 -0.659337759 -3.61395621 -1.80815434 -1.14654148
      1.43547416 0.120727472 1.7871902 0.480068058 0.890514195
      -0.744289279 2.79127717 -2.57727599 -2.16959023 -0.862111449
      0.428080261 -0.454373181 -1.44446075 -0.593289316 -1.24360001
      0.0987261906 0.734273851 -3.245327 -0.0177575927 1.03871715
      -0.912761033 -2.79913044 0.0854098275 5.84205198 -1.25864577
      -0.723866522 1.0278883 -0.963032126 -0.539359808 -0.430761009
      -3.37345529 2.40971661 -0.615012705 -0.0552544519 0.766266167
      -0.947098017 -1.63648188 0.771486819 1.06074774 3.3980577
      0.644366324 -0.236540556 -1.71943629 2.85261059 3.03342962
      -4.59295416 -0.629478157 2.51115203 -0.0899075568 2.89011025
      -1.28325617 0.585455954 2.74983644 -1.1778506 -1.32484007
      -0.878468096 2.64899111 0.0519775264 0.5481475 8.38332462
      0.394327313 -2.24514413 0.248093352 -0.744244337 -1.16902733
      -2.40443587 1.68864775 0.741224229 -1.11810851 -2.09809995
      0.724463522 -0.871352375 -0.762369514 -1.74308705 0.734273851
      -1.28008747 -2.50316668 -1.53983581 -1.4324832 -0.0595899075
      2.61521006 -1.50027502 1.23406374 1.5405575 0.804857552
      -1.63796544 1.14788866 0.502273619 2.66064024 -0.342585474
      -3.39416552 -0.402956754 -1.90446889 4.18350697 5.87551022
      -0.396407723 -2.2057085 -0.317334145 0.105217345 0. 0.274988353
      -0.147822827 0.839499712 -0.586938143 3.8206346 2.85187721 0.
      -0.186050862 0.729720592 2.1263957 2.83744335 -0.157426775
      -2.59664607 -0.0360398144 1.00073814 -1.38067865 -3.89108515
      -0.613844633 -0.148817897 0.281922251 1.55845535 0.772108614
      -0.979808092 -0.654905558 2.36624098 -1.31126869 -1.90901148
      -0.628599823 -3.25481224 2.39108825 -3.281533 -3.91461515
      0.142130673 2.64909363 -4.04530621 -1.6031903 -1.30331302
      3.97660112 -3.2907908 0.690127969</_>
    <_>
      3.57132196 0.889684796 -0.282921612 -1.83832598 -0.964539468
      0.77459383 -0.75120312 -0.721557558 0.753091216 0.682980418
      0.658216596 -1.52169371 -1.42816997 0.151048347 0.37586695
      8.17175865 1.83953166 -1.90562904 0.82839036 -1.50589657
      -2.52971053 -1.02193892 -3.2052598 -1.68800676 0.567729235
      1.8396318 -0.936569631 0.635330379 -1.03388643 -0.570646882
      2.18655705 4.73253679 3.60308838 -1.12795758 -0.583658993
      -0.168773279 -2.39135981 -1.07087719 2.48972845 0.84156251
      -1.66062868 -2.70822287 5.81729364 -0.943536639 0.126950517
      -0.601733565 -0.54830271 0.586230636 -1.18129337 5.57025719
      1.01782751 -0.250429779 -0.3492392 0.948183954 -3.0082767
      2.57148886 -1.8415091 -6.13707209 -0.581160188 -0.304957896
      1.73067629 -0.165945858 1.68373024 -1.16928136 -0.0742293745
      -0.914903998 0.009783905 -0.0477609374 -0.728484452 -1.47110426
      0.0280958191 -7.23416328 0.243002787 -2.08139777 -1.26701915
      0.649803281 0.71167165 -1.19832516 1.291273 -0.249634847
      -0.37426427 -1.29644763 2.07199335 5.0844903 -0.375550568
      -1.65005863 -0.0283045862 -1.78218472 -3.04137921 -1.08546066
      -0.856048822 0.274929166 -0.437217802 0.71167165 -0.736415327
      -0.967072129 -1.11317384 0.00202101516 1.5036031 0.0356590226
      -2.34303546 -0.581160188 -2.32694626 -0.914137721 5.05041838
      -2.57042551 0.423786849 1.49101198 -1.13948667 0.559472203
      -0.81774354 -0.242901504 -0.00909910724 -0.40309757 -2.98766017 0.
      0.688821912 0.624005854 0.71167165 8.63238907 -1.26635134
      0.841575086 1.23804545 -1.38799036 -0.381739467 -2.28545952
      0.820216179 0.0678734928 -0.728663504 -1.87597096 0.167392239
      0.705813885 -0.899616241 -1.66116333 0.423786849 -0.543694913
      0.215784311 -1.31072044 -0.261573404 -3.08358288 2.35470295
      -1.58245492 -1.45900261 4.22886133 -0.865669906 -1.23929834
      0.381585836 -0.475256413 -2.31391406 -0.354319423 -2.99183178
      1.39739168 -1.34027708 2.63867998 7.1525898 0.36031583 0.22023429
      -1.19240415 -2.31350803 0. -0.151926443 -0.143942386 1.88807619
      -1.0381223 0.355092108 1.82732737 -0.0876658037 -1.58202255
      2.13193655 2.48202229 1.49491918 -1.74958622 -0.627274215
      1.15557277 0.413900226 -0.512467444 -3.76421213 -0.232429251 0.
      0.104652099 -0.0477609374 1.16493499 -0.610494554 1.51739156
      4.24465132 0.797382414 -0.612529993 -1.58357489 0.130911455
      2.0791707 -2.05527997 -2.77987361 1.32073724 5.28151608
      -0.143942386 4.65437937 -0.093604818 1.70308864 -1.61107779
      -1.11863804</_>
    <_>
      0.403506994 -0.319857866 0. -0.356380105 -0.845864534 -0.061190892
      -1.55371392 0.130906463 -0.520049453 -0.904204905 0.17924346
      -4.48958349 0.347197205 -0.290939182 1.78301525 3.10199165
      1.21628904 -1.64802814 1.099231 2.62532282 4.7188344 -0.324458629
      0.561796904 -0.660422683 -3.0539999 1.03012168 -0.127076313
      0.901393294 -0.117109247 0.963523328 1.59121501 2.16556168
      3.25137186 -0.333256274 -0.0157417599 -1.23334658 1.03222847
      -0.470257193 -2.13314748 0.675619543 0.152951181 -0.329246402
      -4.06329727 0.505980313 0.186463565 -0.157436535 0.820571423
      -4.38364792 -0.178715229 3.33272552 0.250592977 -0.447161436
      -0.200453475 -1.5077163 -0.277980775 -0.296042919 0.495180428
      0.831051111 -0.325281233 -0.195231482 0.236618787 0.363289803
      -0.00401778007 0. 1.94497931 -0.297150284 8.5539465 -0.313687474
      -0.90727222 -0.50538069 0.220340103 -0.0984707624 -1.03702092
      -3.60157681 -0.387598336 -0.0539676957 -0.401203752 -0.503870487
      -0.35179016 -0.228384793 -0.740401924 -1.17567563 -0.117938206
      4.21721554 -0.539702356 0.221216887 -0.478317797 -4.58617115
      -0.418678552 -1.08715177 1.47815037 -0.0393708535 -0.45378536
      -0.844677329 -0.445876032 -1.45180047 1.1720506 0.475318998
      0.29071191 4.2954936 -0.156098083 -0.812909067 -0.507177174
      0.761633754 0.959375918 -0.618689477 -1.65160811 1.30609846
      -0.722757161 -0.830527008 -0.45139581 0.141895488 0.283143282
      0.334924221 1.70877028 -2.99475265 0.688200831 0.26629585
      -4.06012964 2.10646033 0.0219615474 -2.38295293 0.281032801
      -0.884186983 -0.656206667 -0.0637967661 -0.355018705 0.284934342
      -0.0750063509 -0.438553661 0.703062236 0.420667768 0.196788982
      -0.143523902 -0.31831786 -0.502332389 0.140197128 -0.0794203132
      -1.68138373 -0.28755185 0.937672734 -0.287074834 0.151687846
      1.64189291 0.565454721 -0.538227737 0.498904198 -0.245769814
      0.177794173 -0.506612122 -0.0523253232 0.869340599 -0.476499438
      1.38537991 2.01930833 0.0485500321 0.365081191 0.242128834
      -0.134013921 -0.0984707624 -0.0249814503 -0.554504991 0.665954173
      -4.93413639 2.31220818 -1.16804743 0. -0.374738723 1.39121556
      0.671208918 1.25910664 -0.852426589 0.184210539 1.84976006
      -0.0200079214 -1.71083534 0.387743205 0.383944154 0. 0.563801944
      0.170760691 0.359438479 0.139135748 0.655885696 0.821596742
      -0.170580372 -0.555232167 -2.35641241 0.833061993 2.95004129
      0.379632562 -1.0075196 -3.42603898 0.937759042 -1.99875808
      2.94202566 -1.44169629 0.554910541 -1.30925679 0.0649937838</_>
    <_>
      1.6438092 0.835258782 0. 0.127918914 -2.35353661 1.3313247
      0.887549818 1.3313247 -0.0197347701 0.887549818 -0.510038614
      -0.575065374 -0.309372008 0.763073504 0. 3.28092742 2.1994884
      -0.393164873 -0.81361711 -3.41631985 -4.04025888 -0.568251193
      -5.83693457 0.494384915 -0.0382265635 0.318505406 -1.35655951
      0.443774909 -0.661604524 2.09546542 0.930072844 2.97513366
      3.15505838 -0.692727506 0.763073504 -0.0605168529 -2.81738567 0.
      1.17147315 1.82864738 0.940021157 -0.154137671 3.48056531
      0.99496752 0.443774909 0.383258075 -3.71291804 -0.0605168529 0.
      3.663445 0.484824508 -0.692727506 0. -0.111630253 -0.702536881
      1.90559685 0.610627651 -5.87617397 0. -0.369888842 2.21887445
      0.376443863 1.07555795 -2.20545578 0.665156484 -3.06262732
      -0.426023632 0.19836235 0.847217143 0. 0.674340367 -7.0383029
      -0.890921354 -0.999180019 0.756259322 0.911669672 0.443774909
      -3.96175313 1.02195275 1.05279911 -2.07543874 -1.59286404
      -0.673655689 1.63912833 -1.66395295 0.443774909 -0.895925522
      -1.68044472 -0.31585598 -0.36477533 -0.36477533 0.680811703
      -0.986403167 0.063959457 0.063959457 0.443774909 -1.43170583
      0.225945294 -0.496065825 0.320913076 -1.62531805 0. -0.568251193
      2.21887445 3.97060108 -2.46001983 0.443774909 2.59531832 0.
      -1.20360029 0. -0.199923888 0.669720232 0.0605366454 -4.7925396 0.
      0.829476118 0.063959457 -0.167851537 1.80199564 1.6506232
      -1.82922995 -0.927181065 -0.897456646 -0.42456761 -1.49268556
      -0.746738434 0.443774909 -0.907284558 0.350421607 0.82263881
      -2.7110343 -0.324400216 0.276041329 0.443774909 -0.207902968
      -2.74059367 0.443774909 0. -0.379815429 0.0769985467 -0.611626446
      1.14461815 2.75730395 -0.142778561 0.443774909 1.31087124
      0.589927435 -2.3629725 0.225945294 -0.702536881 1.6438092
      -0.0754475743 -0.418908089 4.12660599 0.342820555 -0.830832183
      -1.33559239 -1.85945463 0. 0.887549818 -0.393164873 1.64351964
      -0.59791255 2.79056835 -0.370165408 -0.0754475743 0. 0.0963401943
      2.28283405 1.90605247 -1.26097882 -0.405479103 2.10506773
      0.0742014274 -1.58709145 0.494384915 1.33345926 0. 0.270251095
      0.887549818 0.184570998 -0.245412543 -0.622530818 -0.114647105
      -0.583162129 -0.59791255 0. -0.918504834 2.52982354 -0.0770677775
      -0.651237488 1.3313247 2.77376056 -0.309372008 2.36624193
      -0.156128004 2.28283405 -0.672380269 -0.628768086</_>
    <_>
      1.49724603 1.74385285 -0.0736678317 0.663333237 -1.60338736
      -0.850226164 0.50218612 -0.605441749 0.779033363 0.0713378266
      -1.30327404 0.0460125543 -3.00922751 -0.156336054 -1.46672249
      9.77933979 0.325215966 -2.68790102 -0.058759436 1.27070141
      -1.88014627 -1.73651588 0.885985196 -0.765117764 -0.668103576
      -0.14819549 -0.620348275 0.067898348 -1.63169444 0.747752249
      2.31490946 4.94657898 3.95806193 -1.15253615 -1.07855821
      -0.654462457 -1.71885872 -0.809544802 1.52571976 3.04071832
      1.27433074 -0.604507625 3.45186877 4.31440306 -0.763273358
      -1.41269648 0.838075042 1.44509137 -1.88799632 3.31483674
      -0.701262414 -1.5554074 -1.84345531 0.601609826 -1.84090865
      1.50697017 -0.926910698 0.0526448563 -1.99407852 0.144083992
      1.47277689 0.785376489 1.27738035 0.361308396 0.60747546
      -0.788405478 2.17198324 -3.36088777 -0.97372365 -2.01270032
      -1.4118849 0. -1.51240051 -1.88153887 -2.91110992 -1.28175735
      -1.21503949 -0.351256251 0.647314548 1.04155493 -0.497289777
      -1.39390206 1.9826237 5.32340145 -2.38164711 -1.29586256
      -0.937484622 -1.14054441 -1.70233667 -1.849738 -1.54499233
      0.950102389 -1.19745028 -1.22150493 -0.0494030528 -0.965322495
      3.98494387 0.49294892 0.930137157 3.73601007 0.306921184
      -0.360986501 -1.72617078 0.645655811 2.36218739 -2.81041121
      -0.15232344 2.78280735 -2.4642756 1.60568452 -2.07337427
      0.510501027 1.10919774 -1.35701859 0.783972144 -3.49707103
      1.9057976 -1.88853776 -0.917235911 4.94064522 1.11491871
      -0.533765674 -2.14092946 -0.431537867 0.399101079 -3.1286211
      -0.405350298 0.546205044 -2.00410867 0.55601126 0.208843827
      0.526325166 -1.24213743 -1.36016059 -0.178186238 -1.05563366
      1.46967471 -1.33967328 -3.03716898 -0.628450274 2.91686726
      -0.596169293 0.518855035 5.14996052 0.197926357 -0.668602228
      0.0202125404 -0.168397665 1.038468 0.247440502 -4.86939573
      1.00607419 -1.26286709 6.63615894 4.48079443 -0.35481745
      -0.019720016 0.136930928 -0.817481697 -0.766795695 0.0702342167
      -2.84383059 1.25079238 -1.69999409 1.23107862 0.873487294
      -2.08407021 -2.91613007 1.57983518 1.71855009 2.07007217
      -1.70230997 -0.374894291 2.44238281 -2.06540513 -1.67162287
      -2.58155155 0.693944633 -0.897539318 -2.18688607 0.178648785
      -0.538313091 -0.0612650849 0.687226892 3.47134137 0.292446226
      -1.77244985 -1.03986192 0.216701344 3.8121841 0.304132342
      -2.51957941 0.774173439 2.37380743 -1.71970391 3.3562243
      -1.4031508 2.91754007 -3.06122231 -1.82919228</_>
    <_>
      -5.69078493 1.42148757 0.751340866 -5.63186836 3.81471252
      1.28006268 -0.518743694 -3.43009281 2.91516352 1.9873513
      -0.733645976 -0.62618041 -0.409829199 -2.00784564 0.464641631
      6.87984657 -6.02078152 2.43962479 -1.77150941 0.1905514 2.43637466
      -1.5541141 2.52034616 1.88740349 6.04766226 5.05089188 1.2220633
      0.612000704 -1.91429973 0.218208462 3.89809084 3.1481092
      -2.49926829 2.41819835 0.506732702 -0.359459072 0.781034946
      -4.55446768 3.3381207 -3.76159716 -1.60967541 -7.29468203
      2.04985952 -6.05618238 0. -1.69760942 3.54005694 -1.09205854
      -3.6587348 -2.00194073 1.88583469 -0.794294775 3.15698171
      -4.67686939 5.02045774 3.44777274 -4.8263154 -0.195027441
      -2.68390656 3.34527254 -3.66244841 -0.360499203 1.29827869
      1.4491713 -1.73637354 3.37968779 2.78442478 -2.84728765 5.40477467
      -0.12731944 -2.44922519 0.9530707 4.7514143 4.08334827 1.64026046
      -3.72314215 1.83789051 -2.44088387 4.51491213 -1.05321562
      4.53339386 1.73124993 -4.20471382 -5.90854073 0.380227596
      -4.72922897 -8.36226559 -3.16549826 3.55615544 0.701150537
      -2.25595403 -1.48209321 0.815811098 2.71230173 0.344419807
      4.43524408 -4.88606262 -6.11494493 5.05227757 -5.49583244
      3.47801399 1.82835245 -0.675765872 0.0128147984 1.78646791
      -2.41040587 -2.83166885 -1.31219888 0.852625787 -0.38517338
      0.161786631 0.00949828327 0.828543842 2.10761762 0.439456046
      1.4063822 6.03323507 -0.295985252 0.629310012 -2.85329819
      -0.59980315 2.22013307 -1.96175659 0.668121517 -0.429454505
      -1.68311536 -1.90040898 -3.02091599 -3.11749649 0.329998672
      -2.11555004 -3.71239662 -2.86504364 3.56480384 2.17342973
      2.65500236 0.728886604 -2.76582408 0.112435885 -3.19044757
      3.43879104 -0.355961293 0.0917901173 3.50673771 -5.94498682
      -2.35602546 -3.1145649 -3.43098927 1.13705778 2.26072478
      5.74187183 0.831752241 3.80978847 0.33484149 0. -4.20347548
      -5.4506917 0.655107558 4.38317585 0. 3.00836706 -3.35809302
      -0.273653895 5.02569342 -2.71152711 3.01682568 -3.1206882 2.968467
      -0.148933306 0.164679036 -5.43617296 -3.33669424 1.90236068
      1.58453202 -2.81462955 -0.867603362 -3.68465614 -2.84825587 0.
      -10.6467056 2.03569221 2.63994217 2.65680718 2.41846728
      0.709421992 -1.81794977 1.13947642 -4.87904739 0.871721208
      3.10946345 7.60630655 -2.11955428 -0.628510416 -0.363812715
      -1.75900424 4.30445576 2.77806759 5.06074333 1.59198701 9.02846909</_>
    <_>
      -2.24986887 -4.37029696 0.648712933 -2.38305664 -2.13486433
      0.0605906695 2.2788918 0.962251484 -1.98404717 -1.57025313
      0.579108 -0.274163246 -1.31340957 -1.85850191 -6.38883448
      2.32332349 -0.14019759 1.84932911 -1.15095496 -0.430384368
      4.69211817 -0.533388495 3.40842724 -1.91206825 4.87682152
      -0.766439855 -1.99009526 0.697303832 3.80879283 -0.198849633
      0.884583592 1.77649653 3.70371699 -1.27666295 3.04457474
      -1.08819759 -2.68327999 -4.24584675 5.9772501 4.94599581
      0.523837686 -7.34806442 0.609039843 5.79609156 -0.126157895
      0.218285292 4.64395523 0.729750574 -3.19617605 0.765972435
      4.41083002 -4.4400363 4.28542376 3.68052459 2.24115539 -8.03907585
      -6.08314562 8.14327812 -4.69354391 0.0307345316 -4.32719135
      -2.98143053 3.54333282 -4.74177742 0.508958042 0.610522687
      2.04294038 1.97075415 2.30965662 -2.12504768 1.84509706
      0.127754718 2.35109282 3.26037025 -3.63299417 -2.23900247
      2.60571837 6.78828478 0.723168135 -0.0178530943 6.41121864
      -1.67443752 -3.04011178 -3.90237379 -1.76417458 0.0684629008
      3.29484725 -2.65225196 -2.76601577 -1.88705742 -0.726586938
      -4.35612965 3.34057236 3.0988102 -3.74448395 0.342692375
      0.121650629 2.99759126 3.83233833 -0.783096671 -0.253239721
      -5.37363052 -5.58247423 -0.490245223 3.4534924 1.14657998
      -1.41752791 -6.65519333 -0.733173966 4.09024334 -3.05609083
      1.59368205 4.7484827 0.919204473 2.96870828 0.46542871 6.38506889
      2.82776976 0.0189868119 0.474634886 -3.41172481 -2.09617209
      1.39658833 -7.07686043 -1.45515084 -3.74587679 -5.7292223
      -1.43353212 0.562568784 0.491422087 -4.41586876 -0.280126125
      1.70612264 -0.325856268 1.21132684 0.425745308 0.69051367
      -10.5401516 0.222666904 -1.26303589 0.222996637 2.8950386
      -0.159726471 -1.14466584 -4.32581186 -3.06695914 1.80323327
      -3.79134536 5.14151621 3.06289196 14.6875181 -3.33255434
      1.46597505 3.77228045 -2.24224186 -2.91733503 -1.47450233
      6.58949089 2.99928546 0. -3.05344725 -0.960728586 1.94322407
      0.158744201 -4.49327421 0.0809474215 0.138083681 2.82612348
      -0.207319215 -0.973300874 -1.6573565 -4.65786028 -1.23540103
      -2.73610258 -0.0439529009 -5.41673422 1.90792513 -2.73148084 0.
      -6.12240744 -2.10180831 -1.12868834 11.8584957 2.78635859
      2.31669307 -5.62262964 0.788950384 4.06011295 -2.15241551
      3.83142734 8.50113201 -5.41992092 -1.82102048 -0.731465161
      3.3154707 2.65236902 -1.49128103 0.553894043 -0.569743931
      4.39806986</_>
    <_>
      1.06748974 -1.20643532 0.390817791 -0.484752685 1.99262309
      -0.678683996 -4.7676301 0.933356941 2.49811435 0.164947271
      1.09280086 -5.8694129 0.00423030742 0.969990492 -0.00280080177
      1.29699993 0.637142777 3.51888633 0.253807127 0.069396615
      -1.6250602 0.619301856 2.08494925 -5.42846727 1.97211444
      0.101331413 0.936766267 0.995079577 1.91418147 1.94753253
      0.389285386 -1.91261387 -3.29869676 1.73552859 -2.06591153
      1.1601162 1.89758134 -0.66629833 1.52382469 2.6784339 -0.9364748
      0.577665091 -3.75429225 -5.39152575 0. 0.768308163 -1.20634174
      2.0857048 -2.15262437 -3.72026396 0.180613935 -1.01904202
      0.930603147 -0.322358876 0.715206325 -0.820155442 -1.59264672
      1.99774122 0.14295429 2.81976771 -2.84171486 1.58508277
      0.791049659 -1.61821938 -0.408007979 2.10810447 -0.1703538
      2.55433345 3.78337002 -1.2868644 -1.73578537 0.441149592
      2.42538238 0.991441965 -2.49317312 -3.52837682 0.66931951
      -1.05294049 3.16538501 0.949698567 3.79566932 0.645649195
      1.39733839 -2.96027589 0.0676836595 1.46016932 0.217124358
      -0.117722683 -1.45288908 0.904568732 -1.31868923 0.0195790138
      -0.957139373 1.23364699 -0.301805884 0.287848532 0.468933612
      1.22105813 -2.0096159 0.169340461 2.02442145 0.0195705313
      -0.714542031 1.41541314 0.208922982 0.995232522 0.00553132966
      -2.1956048 0.0362380184 0.902407646 -0.218846828 -0.523486018
      1.17351449 -2.16914034 1.39956129 0.427781641 -1.65717816
      0.109943554 0.178152248 -0.506565154 -2.17513943 -2.79515529
      0.965990782 -0.172121331 0.770183146 -0.851975143 -1.53798759
      -0.0575727932 0.471318364 2.56304812 -2.36740422 2.79744077
      -0.335144073 1.09745193 -0.374620289 0.534749389 0.524720728
      0.792424917 0.53445673 0.775624037 0.771790564 -1.80664933
      0.917700648 1.43996823 -1.35336423 -0.310215652 0.516511142
      -5.59823084 0.62345618 1.04087937 5.57238913 -0.33199206
      0.658328354 -1.78681886 -3.53750801 -0.00336089428 -1.01774859
      -5.3666482 -1.82046783 0. 0.179891258 -1.37073815 -0.305577159
      -1.31390035 -3.57267284 2.28040147 0.178152248 2.23833776
      1.10383952 0.448996544 -1.73737895 -3.39665818 0.946839869
      -0.369567394 1.08289886 1.97876585 1.6393764 0.270463526 0.
      -4.88027573 0.605933905 -0.317289114 4.41715765 2.03797245
      1.89805543 1.50698733 -3.49105859 0.369217783 1.19624984
      0.410770029 3.72070861 -0.686137199 0.271279365 -5.45009947
      -1.31671441 1.39587235 -0.334879518 3.21743226 0.731103361
      0.494548589</_>
    <_>
      0.215875715 -2.24475169 0.550425172 -5.32824469 -0.859021008
      2.77750897 1.32856321 -3.93853307 0.772678792 -0.85803318
      1.54428387 -1.98378944 -4.79571724 1.68201649 -6.43466711
      6.93746614 -0.330798954 -4.12967968 1.63734663 -8.83661079
      -1.02132702 0.458676755 0.0142510133 -0.637273908 2.75873518
      -1.45921838 -0.304095507 3.18971634 -3.66051245 0.241072759
      2.06400514 1.99974978 3.90890336 -0.310527444 -0.404133618
      -1.3764497 -0.373944223 0.806685865 -1.93523419 1.2098124
      -3.91886592 -1.75009632 0.715140283 3.9583993 0. 0.845358849
      0.49707371 1.56566763 -1.56060445 -1.55701697 2.69195199
      -2.16413474 0.850675642 2.96624899 0.808557928 -3.49359536
      -0.879619241 1.92108655 -0.829623282 2.08955956 -4.07358313
      0.354391068 -0.67886281 -0.449088752 0.00721859513 -2.56437039
      0.486568481 -2.21151781 2.23192358 -0.707961082 3.47913218
      0.229338378 1.58032763 -2.48967957 1.39599597 1.18099129
      0.624371171 3.40912223 -2.77667212 1.42958653 2.90503144
      -4.77717543 1.29977739 -2.08972931 -5.75461388 0.981607378
      0.901828289 -4.72219896 1.43647468 1.31045747 -1.83942091
      -6.80983448 1.33670223 -2.59207058 -0.630984366 1.62617373
      -1.51915455 -4.90453911 0.128042534 0. 1.62006402 -0.863989055
      0.763092875 0.81606549 2.59533358 2.19347143 -1.76429474
      -1.35907507 0.296372771 6.55855131 -1.29972029 -0.302015096
      -0.36136958 -2.704602 0.573390722 0.493692786 4.61506414
      2.34301949 -2.68912244 4.70867825 2.32947421 7.75727177
      0.477863431 -0.678346276 1.00739634 0.457311302 -6.98338985
      0.24328424 2.14082837 -3.02456546 -2.03837037 2.07375169
      -2.78979969 0.152065679 0.598740876 -2.50244093 2.06467891
      -1.77984834 -0.211640224 0.264354408 3.12364769 -0.573347688
      1.21372628 0.481306791 2.29119682 0.678417981 0.105073132
      1.15849125 1.1900152 2.01991653 -0.401763052 0.964162529
      -0.0519700013 0.928113163 0.306161642 1.55575514 -0.723248482
      -1.60251534 1.5535475 0. 2.82831883 1.50666821 -3.02962446
      3.0871098 0.322882116 1.02014565 0.229338378 -3.17930079
      -0.869201362 -0.150162295 1.58777344 3.28715539 -0.200092241
      -0.278510481 -2.17512417 -0.667128623 -3.5569768 0.53549999 0.
      1.00158203 -1.96617985 4.00662422 2.5785768 0.373951197 1.32276237
      2.79070044 0.32565099 -1.44900012 -4.31794405 -1.1246413
      0.959569752 2.00497437 -4.02604103 0.961266875 -0.177542344
      0.504640996 -1.62038755 2.2361052 0.23415646 2.69952679</_>
    <_>
      -3.29251361 -1.91557682 -5.67913342 -7.78886414 3.18108511
      3.12249303 0.0473849922 -2.09758043 -4.48576641 1.4742626
      -6.88875055 1.00295627 -2.29907274 -7.00268984 -0.358650386
      1.14956176 1.40948582 -3.62314939 -1.20933771 -1.71704626
      -1.52523208 0.232065678 2.6592803 -3.47146392 7.29049253
      -0.0259455573 1.65069664 5.12880659 2.88912439 -5.13043213
      0.855892599 -7.21744633 -0.637457192 11.3240767 1.79913187
      0.150182456 5.09134579 -4.18560743 1.0951283 5.21543026
      0.0143782627 -0.027203232 -2.20706105 2.84724927 0. -5.67461872
      4.62194681 -0.66978097 -1.98329806 -0.520468056 2.22275543
      -0.539378285 2.11927938 -6.25000286 -1.08068264 -0.614603817
      -3.44019866 5.99227571 -0.792021036 2.57835317 -0.494722992
      1.31179416 1.82388079 -2.57088542 0.388496757 1.54261672
      2.10812545 -2.59684253 1.60870135 -2.51510191 -0.412277669
      0.372117221 -7.08973789 5.59578848 3.46337724 1.7170763 3.04385042
      -1.40333045 4.7747407 0.724014699 8.25547791 -1.15918958
      -5.57719564 -3.68416667 -1.06409168 1.47448492 3.84156799
      0.166340068 -3.02190781 5.89169264 0.492142975 -3.82239318
      2.0550735 -6.06358242 -0.897542953 -6.33888817 0.415326476
      0.0800884366 -1.80990541 -2.38462257 2.22055149 -0.409726053
      -1.4766537 -3.87514591 -2.13298655 0.641175568 -3.38499904
      -2.38003492 1.62334621 3.89254093 -1.16845977 0.460624009
      0.45973438 3.68842602 -0.485585302 -0.072290346 0.901838243
      1.96260786 -0.534362197 2.65366817 -2.76741147 4.49316502
      1.23720694 -1.03019488 -0.568055451 1.89923429 -2.34751821
      -0.451323301 1.27748513 6.10669899 -3.4287641 -2.04023075
      0.0990077034 1.62389553 2.17514563 0.916204572 1.1318413
      -1.64782786 1.41376173 -6.90183544 -1.47264338 1.98286748
      -11.1559868 -0.0055111926 -2.28497219 -0.622668982 2.59968853
      -3.88551807 -5.76017857 -0.739831686 11.550005 -0.517930448
      3.69629335 1.4714005 0.0822257623 -4.85290241 1.75947952
      2.73851562 6.19336367 0. 1.1037308 2.0474081 -0.372522265
      2.50570941 1.58837795 -1.57533395 -0.986720383 2.58627462
      5.21266508 -2.01883197 -5.41730738 -1.3803122 1.17594218
      -9.25292587 0.380140185 2.36404848 2.61375642 -7.78406715
      -0.469756812 -2.49926019 -1.42479432 3.22162962 6.9075017
      -0.84870255 1.20049667 -2.93581724 -0.735053182 -1.27035487
      -9.4828186 4.93260527 11.2805376 0.713196337 -2.68928742
      -0.361316741 -0.714027464 0.615264535 0.0558493435 6.14018011
      -2.05607009 12.0250015</_>
    <_>
      -4.88182306 0.361905754 0.168175623 -4.36141157 -2.44216037
      1.72756076 3.85309815 -3.64060855 5.75869656 -1.14352179
      -2.1157763 -0.878447413 -0.0717059523 -1.96809983 -7.14443111
      -0.18184182 -0.233568415 0.0785216913 1.48521805 0.944359541
      -3.56923962 1.80546296 2.48568106 -3.3038528 5.38152075
      -5.77305698 -2.44094896 -1.37714005 0.692556918 -4.13175821
      3.49031854 4.03136206 2.41616726 7.72016048 -1.49902618
      -2.62640023 -8.64410305 -4.85987806 7.87573481 7.14269447
      3.52092814 -2.16435361 -5.72243118 7.51266527 0. 0.463701725
      3.50391054 1.18448579 -1.85062051 -7.19668579 -1.94524109
      -0.118186317 4.15605545 4.00144386 -3.24177718 -3.37261128
      -7.93748808 6.97283745 -3.66517472 0.220935717 -3.41928196
      1.40166807 -1.0781846 -0.638126373 -0.362602234 -6.78022194
      -0.979512632 -0.739807129 1.77928627 -4.07410955 0.350917697
      1.00167751 1.07893097 -3.42766261 -4.95999479 3.98606205
      0.84583801 6.89573479 7.34979677 -5.00054026 10.1369648
      0.256358713 -4.51456118 -4.9692564 1.87771547 2.37775898
      2.61820483 -4.23783779 0.867547989 0.902659893 0.0601099469
      -1.78616846 1.30370116 -4.05741978 0.122335561 -3.34028649
      -0.561520159 2.28807569 2.1584394 0.498364627 6.83231783
      0.21058847 -4.67231989 0.745696008 0.808479726 3.01294708
      -2.66876769 -6.48994303 1.22465849 5.89885426 -4.70079327
      -0.343176335 1.85598779 -0.653242052 1.29413915 0.877058566
      0.489189446 6.15868568 0.803785503 2.68184519 -1.51702929
      2.23572588 1.11587214 -5.94230652 -0.00644896738 1.10517073
      -8.4919796 0.413202316 2.96153259 5.94979715 -5.13008499
      0.814174056 1.23435736 -1.98893547 1.25448728 -0.610736966
      -2.06755233 -3.20531917 -0.121623613 -2.61539912 1.24211884
      -3.07535672 0.469284326 3.30251837 -4.11513376 -7.94507313
      -0.141638324 -0.334025592 5.66913891 -2.29098248 4.48910427
      -1.26604974 -1.72848594 1.1103102 -0.400974989 0.139373884
      -2.86088586 1.66699553 6.45767021 0. -3.25526381 1.9977529
      4.82524824 3.44564652 0.163047105 -0.79061991 -0.931022167
      7.74731779 1.41274726 -2.14404011 2.14502835 -0.602125943
      -7.43803596 1.88887119 -5.01844454 2.57314873 -1.68243074
      -7.84766102 0. -1.22964323 -2.75468946 5.1147294 9.87163067
      -0.532030463 -0.377210677 -6.18466711 -4.97717619 3.10806775
      -10.5335016 4.21651983 7.65060472 -0.480662942 -4.25548553
      1.63336277 -0.528777897 3.75163221 -0.0672600493 12.1229601
      3.61670637 5.52105045</_>
    <_>
      -0.0431125797 2.14517379 -2.80852294 -3.16860247 -0.703584731
      1.23957217 3.14222431 -2.96895742 2.39306402 0.58974278
      -8.51995468 -1.12288451 -2.81851268 -5.45145512 -0.109836698
      1.68966055 0.00953618344 -4.65890121 -2.59169483 -0.319157273
      -2.87640715 1.1493113 1.45729387 -0.855202436 4.76631069
      -3.6380353 1.64751136 1.50726831 0.769205332 1.51705229
      -0.418803841 -3.21194816 1.27627802 7.93122816 1.60796165
      1.25460505 0.982535005 -2.03760028 -1.21614635 5.36717701
      0.66838336 0.395917505 -6.66850615 3.33698058 0. 1.83731925
      0.1791531 2.24624562 2.5831871 -7.65190268 2.54083109 0.998237908
      1.26771915 1.37359619 -0.558872104 1.1656431 -1.71404421
      -5.11303425 -0.420616686 5.13809681 -1.015481 -1.82274926
      -0.847428381 -0.249548361 1.37716413 -1.67373669 3.10048175
      0.173792168 -0.0967456847 0.437753499 -0.0520480461 -4.53538179
      -0.427055746 -2.00899911 0.934372485 0.924796462 1.68109107
      1.90984058 4.83813429 -0.687890828 -1.43148315 1.85941052
      -3.18746686 -4.78477335 2.38134098 1.00707757 -0.767927051
      1.85470867 0.738156676 2.30649662 3.38000965 1.98339283 4.99573135
      1.35522234 3.58507371 -3.67490602 -2.71716094 1.03535414
      2.61351085 -4.14573431 3.06088305 1.50727499 -0.639577031
      -4.60575867 2.47803426 1.68024528 -10.0394726 -1.40944016
      0.498862684 5.40089846 -0.533237338 1.32185793 1.0104109
      0.661391675 -1.08189917 0.809021115 3.48450804 1.79801154
      -1.82887101 0.909762681 1.05345142 0.516756773 4.46839094
      5.22138357 -4.66501474 -5.34217834 -2.34916091 0.982705235
      -1.19995701 5.85085487 1.45994246 -4.25459576 1.74271786
      3.30163574 1.1493113 0.920659721 -6.18753433 1.00433064
      -0.676129699 -3.73403049 2.11397552 -5.99806309 -2.85711908
      0.483456939 -0.257995605 -2.44986701 -0.512043357 -0.760313272
      0.113100737 1.97792292 -1.62163579 -3.98421931 -0.490459293
      0.0432390086 0.49912712 -0.341714501 2.50599623 -3.91986322
      4.33256626 0. 1.70310271 -0.596003115 -4.12931919 3.32871842
      -3.85714006 -1.92536068 -0.797418892 -1.95211112 2.68313575
      -0.865915716 -1.00022018 0.793332577 0.660534978 0.284163117
      1.04289234 -1.28608692 -5.03430986 -9.09549332 0. -4.54900837
      1.24467909 2.81814504 4.92757797 2.90998912 -1.17762852
      -4.93623114 1.62452757 2.56068087 -0.853788555 4.96318579
      6.2199378 0.308630735 0.701642811 -0.0446645133 -9.53109932
      1.37918568 3.57222247 3.17567682 0.378138006 6.87506104</_>
    <_>
      1.54755569 -0.484787971 1.39513481 -4.9881649 4.07799959
      1.62409186 -1.50623 -2.57881212 2.58195186 3.13422322 -0.373371035
      -0.00777089642 -2.52847934 -2.10346556 -2.62203479 0.461645305
      0.564063966 2.07508683 1.05992544 -0.31183362 2.54204464
      -2.97599864 1.62124503 -4.3154707 1.84044671 -0.89667809
      -0.642821968 0.175308183 0.423620552 -1.50292039 -2.5770793
      3.07325125 3.64741468 9.09453773 -1.50517416 0.0837716833
      1.08955717 -4.44737005 6.61635971 3.48666358 2.66910124 1.98776066
      2.21588278 2.13982224 0. 0.685427904 -0.906196058 -1.1677587
      -3.02009845 -0.978248119 1.53595376 -5.04804039 0.757649183
      2.38167071 -1.47210526 1.02575028 -0.572590888 4.04703236
      -1.96383762 -2.53110671 -2.7282517 -0.697648168 2.80573678
      -0.269800484 -2.99555087 3.94040108 -4.62607002 -0.417240858
      -0.353929371 -2.19514322 -0.632148564 -0.716119707 -2.45789623
      -2.26127028 0.843685508 -0.129990473 0.780810475 1.48411834
      0.615718842 -0.886101067 3.13885546 -6.50833035 -0.633359671
      0.583513856 1.35945535 1.13006282 -0.403366596 1.11638653
      -1.16042852 4.06269646 -1.03972495 3.61598015 2.67663407
      1.08151722 -1.49678206 0.995820224 -0.558979928 0.778690636
      2.7446506 0.368220598 1.24485683 -1.76145852 0.275310487
      -1.26015973 -0.494936496 -0.0397662036 -4.30827093 0.396374196
      0.897253573 5.94539738 3.96931052 -0.0928327218 -0.384205967
      -4.55728436 -1.86723793 -1.5524466 -1.69800746 2.24442768 0.
      4.5994792 -1.82444048 1.8130101 1.65342486 -1.9580723 -3.52435207
      -1.58381522 -2.06313229 1.07187355 -0.799613893 2.30583072
      -0.469407201 -1.41742003 -1.58155692 -2.1593225 1.50609779
      -3.84655762 -1.86154807 1.11280107 -3.86310792 -0.759781659
      -2.8386929 1.2128582 -2.62824941 1.52418792 -3.08948374
      -0.813361406 0.993165612 -2.29234815 3.99777102 3.41952586
      0.921037436 -3.90137672 -2.27191663 2.49700952 0.651041687
      -1.5306251 -2.82276344 0.234353542 0.425479978 -0.595679283
      -0.909814239 0.336758226 1.98520398 2.88993311 -1.82703531
      0.268844217 -0.358059853 2.17837238 -0.86343956 -3.25327325
      -1.63839197 1.86905897 0.412551701 -1.2185564 1.82747388
      0.692462742 -1.80443406 -5.81939125 0. 0.577820599 0.0184645858
      3.68774891 7.45784044 3.37220287 -0.125735432 -0.372710586
      -2.18551469 1.39640057 -2.98919463 -0.479256958 -0.623048365
      -0.309509814 0.463415891 -0.409476995 -5.76263237 1.64457583
      -2.13755059 1.25120318 0.993218422 4.77650452</_>
    <_>
      -4.02924013 -0.845697761 1.25037456 -4.22851086 1.18169248
      -0.122719832 0.677815914 1.46694636 1.10286367 0.00434136158
      -0.0465673208 -8.12789726 -6.21913338 -5.96180344 -0.79109627
      -0.0546353199 2.14074755 1.70760679 -0.974156976 -7.7334733
      -3.98313928 -0.753640711 -4.07291031 -0.259881467 0.954551935
      0.664690077 2.17763066 1.32710457 -1.01320982 -5.3761425 0.1066131
      1.2949214 -0.654552937 8.17528629 -2.51062822 -0.606191218
      -2.47325778 -1.73804009 4.95381784 7.4185338 -1.53574181
      0.436887473 0.0390266106 4.64626217 -0.970621765 -1.37121034
      3.86344719 -0.936401606 -5.34838581 -2.82097197 3.71582627
      2.69606519 0.0629744604 -0.675315082 3.73283458 -3.44618058
      -2.59484053 6.25620651 -2.40000606 -1.39988029 -5.30401468
      0.857590437 2.2733736 2.00435162 -2.20652771 3.32375574 1.56536996
      -0.598193884 1.10068107 0.42296055 -1.19580948 -0.0641082227
      -0.73550427 2.76070428 -1.87090838 3.44260478 1.05234873
      -5.50921965 1.06896567 -1.1772542 -3.31021237 -0.827803552
      -4.15484428 -4.1915164 3.73913264 -0.117063254 3.76816726
      -0.902680814 4.17996216 3.27588081 -8.65377617 0.897223115
      1.54936337 1.10440433 -2.12277055 3.51614618 -10.0053663
      1.35925865 7.86658621 -1.29369998 0.783608675 1.26859474
      -2.43527675 0.335804492 0.65941155 -6.7737565 -1.17876267
      -3.06211019 1.21325636 4.1668191 -0.0539043471 2.30186701
      2.55303907 4.4526906 2.77573943 -4.78453207 7.95210552 4.00027847
      -0.72770226 5.84344292 2.61205935 1.48360145 0.443141818
      -1.48545885 -3.65303016 -3.46195459 -4.26046991 0.727839053
      0.100442946 1.09221923 -2.60244346 -1.3174907 0.983234763
      0.69502759 -1.95976508 -4.09593964 -4.11196995 -1.01491094
      -8.39116478 -0.929346263 2.33290315 0.645401239 1.88233304
      2.20607662 -4.79608631 0.813088894 6.32341528 -4.84780931
      2.19459939 2.15037084 11.3089762 -2.85201883 -1.01135695
      -0.109501556 -1.17786968 -2.50427794 -0.507228732 2.97853231
      3.52799463 0. -1.55213571 1.67970955 1.95624244 2.11635971
      -3.55401278 1.44570947 -2.67774582 6.25833988 0.595134556
      -1.34567654 3.5261867 3.09751368 -0.0137766842 -4.80727243
      -0.677546263 4.95778513 -5.53692389 -6.28576231 0. 3.57397699
      0.985389292 3.33817387 5.84500551 -0.461114734 3.98554134
      -1.98495674 0.907757282 7.07710218 -8.82853508 1.6876384
      5.93360186 -1.22661448 -1.71421421 -0.425710231 -1.9398737
      -5.8896637 1.89381099 4.97446489 -7.22487497 8.74265385</_>
    <_>
      3.16291714 -0.438952565 -0.133242548 -5.66996527 1.66562212
      2.63643098 2.03592491 -0.574149609 2.80923653 -0.328807056
      1.372316 -3.01449823 -0.184274837 0.766127527 -0.131927833
      0.453021049 -1.49099195 3.6962595 -2.76694727 -8.22539234
      -1.01576388 0.993715167 -3.99074864 -1.73642886 5.27459431
      0.601526082 1.50892437 2.00162625 -2.27568936 -5.79513168
      4.35178995 2.4673667 -0.470320135 10.2612429 -1.93826079
      -2.83314872 -2.06681561 -0.753769398 5.70669413 4.34088802
      -7.65516901 -2.06139231 -1.28903377 -4.30069304 -0.24308911
      -0.606922626 -3.66163778 1.97075427 -1.72938609 0.764859438
      8.02067566 3.80454731 0.284696162 -1.43139803 0.423432946
      2.20241356 -3.12298894 -6.02399778 -0.972495556 -1.7977134
      -1.6038115 -0.126117647 1.38977492 -0.746376634 -2.56332326
      1.71447682 -0.8270123 4.37217712 3.51930141 -1.14503813
      -2.97280669 -16.0908566 4.31922483 -3.66045475 -4.14155197
      -2.03606153 2.70367479 0.482539594 2.64785767 -0.243427724
      3.46639037 -2.47724319 -0.150258809 -4.24001169 -1.83602929
      -1.45393407 -0.622772813 0.616735935 -3.62218165 3.20017648
      2.10461521 -4.19406128 1.48352349 0.426100373 1.25535285
      2.20307469 -8.8347044 3.19331932 6.63823795 -3.71148157
