<?xml version="1.0"?>
<opencv_storage>
<opencv_ml_svm>
  <format>3</format>
  <svmType>C_SVC</svmType>
  <kernel>
    <type>LINEAR</type></kernel>
  <C>1.0000000000000001e-01</C>
  <term_criteria><epsilon>9.9999999999999995e-07</epsilon>
    <iterations>20</iterations></term_criteria>
  <var_count>200</var_count>
  <class_count>16</class_count>
  <class_labels type_id="opencv-matrix">
    <rows>16</rows>
    <cols>1</cols>
    <dt>i</dt>
    <data>
      0 1 2 3 4 5 6 7 8 9 10 11 12 13 14 15</data></class_labels>
  <sv_total>120</sv_total>
  <support_vectors>
    <_>
      6.41451916e-03 -9.62548889e-03 -2.03916384e-03 1.12067992e-02
      1.51354596e-02 1.00730788e-02 -1.28091266e-03 6.88412925e-03
      7.15611922e-03 1.17143048e-02 1.38823632e-02 3.30100246e-02
      1.44804511e-02 -4.72428091e-03 -7.25714723e-03 -9.14097123e-04
      -3.29404231e-03 2.59787892e-03 -1.67352834e-03 -2.50500012e-02
      2.23679300e-02 1.18901189e-02 -3.10748490e-03 1.57561675e-02
      8.71495716e-03 -9.45148710e-03 8.44099745e-03 -1.12606622e-02
      1.22685516e-02 1.60142069e-03 -1.61834378e-02 -5.39450720e-03
      -1.37408972e-01 2.46073212e-03 6.13182457e-03 2.52978597e-02
      1.24186594e-02 6.23154594e-03 9.15879384e-03 -2.10644156e-02
      8.16937350e-03 4.98429360e-03 -8.19167793e-02 -5.52138612e-02
      6.88894745e-03 4.03254293e-03 -2.23954692e-02 -2.38805055e-03
      8.82933382e-03 -9.72111374e-02 6.33353693e-03 -7.08001526e-03
      4.24394198e-03 -1.53241763e-02 2.03657541e-02 -1.42010050e-02
      1.17177049e-04 -9.04635992e-03 2.34684702e-02 1.05461683e-02
      1.95740815e-02 1.02057690e-02 1.08551634e-02 1.95395015e-03
      -5.15945964e-02 1.92721421e-03 -6.92789722e-03 2.87509520e-05
      7.92986434e-03 4.17451188e-02 3.02508124e-03 -4.10569552e-03
      7.93618616e-03 -8.98341462e-03 1.61785092e-02 -1.05988802e-02
      3.89752933e-03 -9.11856350e-03 9.67999455e-03 -9.86238196e-03
      5.95305348e-03 3.19406437e-03 9.02223494e-03 -3.04275081e-02
      1.60881896e-02 5.20247826e-03 4.89649223e-03 7.47024175e-03
      8.97813216e-03 -8.83124419e-04 5.70524111e-03 7.27328192e-03
      -2.20611058e-02 1.17017729e-02 8.31304770e-03 2.69010873e-03
      -3.99912614e-03 4.04044142e-04 3.56097124e-03 -3.18775140e-02
      9.74143296e-03 2.42226180e-02 1.29352119e-02 2.33147480e-03
      -3.23432535e-02 -5.16531896e-03 1.15401112e-02 9.49674845e-03
      4.15705424e-03 6.28824206e-03 5.08684618e-03 2.71240692e-03
      -2.50362717e-02 6.92747394e-03 -1.43534001e-02 3.33293993e-03
      5.77172125e-03 8.83129367e-04 2.12608278e-02 5.01377508e-03
      6.74341619e-03 6.04426162e-03 1.00892205e-02 2.04255190e-02
      9.68047138e-03 1.14111574e-02 8.41658004e-03 -5.56776579e-03
      2.15618350e-02 1.22578954e-02 -2.68133450e-02 6.42498955e-04
      1.40002370e-02 2.79403082e-03 1.90193951e-02 4.34566196e-03
      -5.09393692e-04 -6.09323557e-04 4.70226118e-03 8.37988965e-03
      6.43311953e-03 -5.23138512e-03 1.02013759e-02 6.96753385e-03
      2.91994307e-03 9.95850004e-03 1.40906209e-02 -6.85001723e-03
      -3.59184891e-02 1.01038478e-02 1.18782176e-02 1.29434215e-02
      1.03090201e-02 -2.19002739e-02 -6.24221452e-02 -1.38220573e-02
      8.42105877e-03 -1.68009307e-02 7.82871153e-03 0. 6.32710801e-03
      5.93001675e-03 7.75667652e-03 6.30118418e-03 8.80602933e-03
      -1.84279457e-02 2.97675305e-03 6.53469563e-03 -1.97669808e-02
      2.20141746e-02 -6.60769409e-03 6.23742305e-03 5.96314203e-03
      -2.07108594e-02 6.23018341e-03 2.26610675e-02 1.82055086e-02
      -2.05184873e-02 0. -1.39384354e-02 7.73857022e-03 -6.09777682e-03
      1.13118123e-02 5.02566854e-03 6.42082933e-03 1.06384372e-02
      3.34105315e-03 8.43028259e-03 1.20963482e-02 -9.01303533e-03
      -5.68570150e-03 3.54137179e-03 -8.48504622e-03 -7.89126232e-02
      9.74058453e-03 -3.72853838e-02 2.81126928e-02 5.44992415e-03
      1.58533026e-02 7.15822494e-03</_>
    <_>
      6.76289061e-03 2.47785123e-03 -5.01567125e-03 8.81768484e-03
      -6.34582946e-03 3.45931319e-03 2.03627301e-03 -1.31051790e-03
      -1.91227105e-02 4.77192225e-03 8.60444829e-03 1.93469618e-02
      -3.28641152e-04 7.31697510e-05 2.00593309e-03 -1.11835590e-03
      5.54367853e-03 -1.10168848e-02 7.87563808e-03 5.88039926e-04
      5.77514619e-03 6.85666502e-03 -7.13603292e-03 8.53063259e-03
      -5.60912583e-03 4.14400455e-03 -1.19322492e-02 -1.58496620e-03
      8.25663842e-03 1.73138850e-03 5.15773147e-03 1.01710400e-04
      -9.61161498e-03 -1.52132334e-02 -6.33389736e-03 1.47415400e-02
      8.43249913e-03 5.11585735e-03 -1.43486634e-02 -1.30089447e-02
      -9.27535584e-04 -5.83024404e-04 -4.22696536e-03 -3.19571421e-03
      2.05964013e-03 -2.58332444e-03 -2.25099013e-03 -6.34686556e-04
      -8.78775754e-05 5.47849399e-04 -1.05210636e-02 -4.61750571e-03
      -1.08749676e-03 -7.06705777e-03 -3.99746094e-03 5.01320092e-03
      5.45874052e-03 -1.81422718e-02 1.73101127e-02 5.39148087e-03
      1.54649075e-02 4.17963741e-03 -2.63869268e-04 2.32116017e-03
      5.01537987e-04 -2.12181197e-03 -2.76099052e-03 -1.32243393e-03
      7.16906972e-04 2.92881969e-02 5.50023047e-03 -4.40616393e-04
      3.43505584e-04 -2.57576350e-03 9.13241971e-03 -4.50523244e-03
      3.30972113e-03 -1.53207025e-02 3.70784034e-03 -1.01909344e-03
      -1.08833294e-02 -6.28149649e-03 9.42438748e-03 2.95548351e-04
      7.06551271e-03 3.38405924e-04 -4.05815709e-03 5.58240106e-03
      -8.76222155e-04 -3.30576813e-03 -5.07731736e-03 1.46191416e-03
      -5.42130414e-03 6.04074681e-03 1.83290546e-03 -4.32333397e-03
      1.78463105e-03 -4.43531945e-03 -7.01258332e-03 -4.28654021e-04
      -7.57709192e-03 8.98941420e-03 7.10451882e-03 -1.72379042e-03
      -1.54872390e-03 -6.75330218e-03 1.37769077e-02 1.05169602e-02
      5.96337486e-05 -6.75157644e-03 -4.22510086e-03 -3.34395003e-03
      -5.69140306e-03 1.21547771e-03 -2.09388491e-02 1.83437485e-03
      -1.11276684e-02 -4.95251268e-03 1.52018527e-02 5.10731945e-03
      2.43556523e-03 -1.55736012e-02 6.26005884e-03 9.84675251e-03
      6.50276290e-03 1.29229529e-02 1.03314221e-02 -2.76243110e-04
      1.12299686e-02 -4.02949518e-03 -5.13489591e-03 -8.20174348e-03
      5.55361272e-04 -4.40976117e-03 1.61988698e-02 2.47496017e-03
      -2.10156990e-03 6.38250588e-03 5.91330556e-03 2.01118295e-03
      5.22004999e-03 -5.86601347e-03 1.79554184e-03 -3.08121135e-03
      2.92881182e-03 3.73070454e-03 6.01482438e-03 1.23575877e-03
      -1.01965256e-02 -5.28860837e-03 -1.22974971e-02 1.09229246e-02
      -3.17305024e-03 -3.93630238e-03 -2.08333338e-04 -1.51334924e-03
      1.05613831e-03 -4.89582494e-03 -5.84849622e-03 0. 4.50323056e-03
      3.49413924e-04 -6.68784080e-04 -8.22085142e-03 2.31004669e-03
      -1.33878458e-03 2.78474391e-03 -1.21035781e-02 -4.26006876e-03
      1.40103213e-02 -3.58124706e-03 -2.63024960e-03 -7.43441004e-03
      1.88912629e-04 -1.25284865e-03 5.18463925e-03 6.48675766e-03
      1.01428316e-03 0. -3.34694819e-03 6.94912951e-03 -9.15779918e-03
      -9.55137797e-03 -2.61479593e-03 -5.36333956e-03 2.57100919e-06
      -6.01786608e-03 -3.07016750e-03 8.68804660e-03 -4.47246153e-03
      -1.29138269e-02 -1.09691208e-03 -2.74975877e-03 -4.10656881e-04
      6.52099354e-03 9.87267238e-04 1.31862042e-02 7.05181374e-05
      1.26486486e-02 -1.66262165e-02</_>
    <_>
      5.59188146e-03 8.38620495e-03 -2.05193111e-03 -4.27248562e-03
      7.99071416e-03 1.57435809e-03 -1.21093858e-02 2.66956282e-03
      -2.62019946e-03 1.38523886e-02 7.40110781e-03 1.49729587e-02
      -8.27151444e-03 2.72823032e-03 2.89913453e-03 9.75787453e-03
      -7.10743060e-03 6.76334370e-04 1.23062078e-02 1.53844000e-03
      8.30043387e-03 3.05393431e-03 -6.94349641e-03 1.44520020e-02
      2.95793102e-03 2.98986881e-04 -2.07109167e-03 7.73082429e-04
      4.77839587e-03 3.67030432e-03 7.48970686e-03 3.89683666e-03
      -1.57630164e-02 -1.22489613e-02 1.15927600e-03 1.52418809e-02
      4.45341211e-05 1.63322227e-04 -3.23567912e-03 -2.48799976e-02
      6.31768210e-03 -1.29044605e-02 2.17430806e-03 -1.48803843e-02
      3.23970756e-03 -2.59532710e-03 -6.42714649e-03 -1.73447393e-02
      -1.02526660e-03 -5.10725565e-03 -1.11089665e-02 -6.23848569e-03
      -2.79133371e-03 -1.31915901e-02 6.47338759e-03 5.81863243e-03
      5.33832144e-03 -2.09801290e-02 1.46376044e-02 -3.96686327e-03
      1.16571821e-02 1.26751577e-02 9.96800791e-03 3.90612637e-03
      1.42159162e-03 -8.69245268e-03 1.75111496e-03 -1.01294788e-02
      9.68824141e-03 2.38636211e-02 1.15958098e-02 2.42130758e-04
      -2.38297670e-03 2.11046124e-03 1.16981082e-02 -1.68650877e-02
      6.43078424e-03 -1.41869225e-02 5.04859583e-03 -6.35618111e-03
      -4.05135145e-03 5.86398179e-04 7.34918611e-03 -4.24108002e-03
      4.40055830e-03 -2.30354932e-03 -9.06144548e-03 -6.10633148e-03
      9.84911062e-03 -5.01710316e-03 -5.47001371e-03 8.32026172e-03
      -2.61179195e-03 1.06473844e-02 7.73756811e-03 1.94144051e-03
      -9.42445733e-03 -2.99501270e-02 -3.99390049e-03 -1.11840395e-02
      2.98097730e-03 1.49361789e-02 8.49563815e-03 -1.10456990e-02
      4.80643380e-03 -1.27086276e-02 6.56102924e-03 4.85097477e-03
      4.34229476e-03 -9.45169479e-03 -3.39608244e-03 2.19415943e-03
      -2.64278962e-03 4.81154490e-03 -2.30070241e-02 2.86880392e-03
      1.34087482e-03 -5.69220074e-03 1.36589054e-02 1.10444578e-03
      2.16832524e-03 -8.86645354e-03 8.02879594e-03 1.79348849e-02
      2.22239108e-03 7.46277347e-03 7.28515536e-03 -9.71487071e-03
      7.60851894e-03 -2.43259128e-03 -1.43254977e-02 -1.64100397e-02
      -4.55332309e-04 6.54862355e-03 1.66351665e-02 6.72525680e-03
      -8.48017691e-04 -5.45905856e-03 6.18835911e-03 -1.02804601e-02
      3.48126981e-03 -3.00607388e-03 1.06119737e-02 -6.05278401e-05
      -8.47983733e-03 4.68594441e-03 9.97724477e-03 -1.12652797e-02
      1.62063370e-04 -1.33044226e-03 5.49580809e-03 1.36449710e-02
      5.34369890e-03 -6.09692000e-03 0. -1.07566481e-02 -1.02240278e-03
      -7.44451303e-03 2.79919733e-03 5.10204060e-04 -5.51589823e-04
      -1.11468341e-02 -2.83870636e-03 -4.07654094e-03 -3.40586784e-03
      -1.09646528e-03 -6.46356074e-03 2.84956295e-05 -8.99523776e-03
      1.52426353e-02 -1.91364568e-02 -1.42737320e-02 7.44001428e-03
      -7.84406438e-03 -5.18327998e-03 1.36945406e-02 1.02538820e-02
      -2.89969868e-03 0. -2.68733837e-02 8.30810890e-03 -8.96746013e-03
      -6.32662931e-03 1.73915847e-04 7.09903287e-03 2.95090559e-03
      -9.04994609e-04 -1.58898402e-02 1.31429797e-02 -7.70601723e-03
      -1.00356583e-02 2.26278650e-03 1.60893553e-03 -7.42997508e-06
      7.73602026e-03 7.61528360e-03 1.69615764e-02 -1.07524591e-03
      1.65181700e-02 9.03851446e-03</_>
    <_>
      5.68755670e-03 -3.87758506e-03 1.76991147e-04 -4.09468557e-05
      -1.04761245e-02 1.38932292e-03 1.76436544e-04 6.92421454e-04
      -5.71743213e-03 2.15074793e-03 5.49613871e-03 1.53853102e-02
      5.05398959e-04 6.77717791e-04 -6.76602777e-03 8.50397907e-03
      3.72362859e-03 -5.42655107e-05 9.38143954e-03 3.89841705e-04
      1.19723789e-02 3.16281733e-03 3.11563839e-04 -2.09358404e-03
      -1.39556290e-03 1.24104368e-03 -7.13808788e-03 4.73821862e-03
      7.10150553e-03 -6.27812650e-03 6.12231810e-03 -1.99343916e-03
      -2.83175078e-03 -1.12798782e-02 -5.78345219e-03 8.94390885e-03
      1.56901940e-03 -2.64320959e-04 -1.75669009e-03 -2.75412528e-03
      -5.22559602e-03 -1.15156323e-02 -2.22390634e-03 -1.66423758e-03
      1.56178628e-03 -1.72007515e-03 -2.41083562e-05 -8.93360586e-04
      1.26514002e-03 -3.97448987e-03 -6.69822504e-04 -6.63722120e-03
      -4.19708015e-03 -2.09513679e-03 1.61049445e-03 -1.02910781e-02
      -2.99327611e-03 2.35340325e-03 9.79604200e-03 -4.23620548e-03
      6.85326150e-03 9.26883519e-03 6.93503860e-03 -2.30229995e-03
      1.58080866e-03 -6.65190537e-03 1.63462435e-04 -4.25180746e-03
      8.30663834e-03 2.35661007e-02 4.08057868e-03 -2.65671243e-03
      -4.15961677e-03 -4.76092828e-04 2.09619082e-03 -9.48981196e-03
      -1.13531598e-03 3.67615325e-03 -2.79654237e-03 -1.46122964e-03
      -1.48635951e-03 -3.35183204e-03 3.77073116e-03 -2.19656317e-03
      8.64979997e-03 -1.32203777e-03 3.85714247e-06 2.82700965e-03
      -6.96153706e-03 -6.11758325e-03 -7.09283573e-04 -9.02516826e-04
      -3.82367545e-03 6.71916408e-03 -1.80292130e-03 -5.00341877e-03
      -7.03333993e-04 4.45012229e-05 6.58593199e-04 -3.22042522e-03
      -4.44173533e-03 -1.94692213e-04 -1.89878687e-03 -4.01296373e-03
      4.40437696e-04 5.35187405e-03 4.34471807e-03 -3.93716199e-03
      -2.63534789e-03 3.56329256e-03 -7.70624215e-03 1.90541160e-03
      2.86118477e-03 -2.55445880e-03 -1.68656334e-02 -9.42087863e-05
      -2.41630041e-04 3.48429289e-03 1.20345186e-02 6.81033870e-03
      2.89854920e-03 -2.63660913e-03 5.44564845e-03 -1.35776168e-03
      1.48336391e-03 -1.48692569e-02 4.67945915e-03 -4.82413638e-03
      7.59896589e-03 5.67958551e-03 -5.68140484e-03 -5.17981965e-03
      8.43413454e-03 -3.68393515e-03 1.33749237e-02 -3.73097369e-04
      -1.25035702e-03 -9.23076272e-03 4.37269034e-03 9.19982092e-04
      -1.91279058e-03 -6.09152624e-03 1.07610214e-03 6.01834501e-04
      2.80119624e-04 -4.31120116e-03 3.69948940e-03 3.23391752e-04
      -1.53545476e-03 -6.32266374e-03 8.28283653e-03 2.47830874e-03
      4.76523489e-03 5.09359734e-03 -3.47222231e-04 -7.30173429e-03
      -3.74595620e-05 -9.98247298e-04 -4.26658429e-03 5.10204060e-04
      4.47601167e-04 4.40150616e-04 -8.01655347e-04 6.96492731e-04
      4.39673476e-03 -8.30016332e-04 2.67973868e-03 -2.57048220e-03
      -2.05542799e-03 5.12781506e-03 -1.95452338e-03 -7.63628166e-03
      -1.35922374e-03 -5.37750637e-03 8.37763399e-03 3.16921459e-03
      6.50768727e-03 -6.99472730e-04 0. -7.18970643e-03 2.71725794e-03
      -5.25227282e-03 -9.61169600e-04 1.73441647e-03 -1.00542582e-03
      -3.71202617e-03 -1.95721304e-03 -3.06796515e-03 6.90872455e-03
      -5.17765293e-04 -4.17707814e-03 -4.35468368e-03 -4.71972488e-03
      4.25300706e-04 7.96062127e-03 8.94484669e-03 2.44606682e-03
      -4.41557588e-03 8.31716321e-03 -6.12374675e-03</_>
    <_>
      9.04065929e-03 -7.44739734e-03 1.76991147e-04 5.92941418e-03
      7.12907314e-03 -1.35801230e-02 -2.59363670e-02 -9.49576672e-04
      8.02647090e-04 1.29889068e-03 7.47667253e-03 -1.07644340e-02
      5.58120850e-03 7.14256708e-03 -1.69379369e-03 1.88752674e-02
      1.48689114e-02 4.89415461e-03 5.01372339e-03 -6.33300107e-04
      2.06919592e-02 7.75860250e-03 1.61670125e-03 -2.40255445e-02
      6.18349668e-03 1.63872261e-03 2.83918297e-03 -4.64538869e-04
      6.84375409e-03 5.89255476e-03 -1.90098025e-03 -9.87467542e-03
      -1.42014138e-02 -6.49152556e-04 -5.49541833e-03 2.45643575e-02
      1.85166765e-02 3.14399437e-03 -4.40103654e-03 1.35398225e-03
      7.29114562e-03 5.22117084e-03 -4.78315279e-02 -5.35443313e-02
      4.46162140e-03 -6.15976471e-03 -1.45469876e-02 -1.29993993e-03
      2.19973037e-03 -4.56661172e-02 3.22666182e-03 4.22937796e-03
      5.65356947e-03 -1.28370551e-02 3.05992109e-03 3.71524086e-03
      3.70123354e-03 -1.79685114e-04 1.77597068e-02 3.02088633e-03
      1.66224744e-02 1.15224896e-02 1.32590067e-02 -9.83630525e-05
      5.45382209e-04 -1.01396220e-03 -1.86671352e-03 8.07012990e-03
      1.61534511e-02 2.36136764e-02 1.27628855e-02 2.42130758e-04
      7.17100222e-03 5.34551404e-03 5.55864628e-03 -2.32362933e-02
      4.69107227e-03 -1.01853795e-02 1.22641753e-02 1.96190923e-03
      6.45249989e-03 -3.39605473e-03 1.80973057e-02 -1.07052149e-02
      1.00338385e-02 2.30186386e-03 5.41197974e-03 -2.11223029e-03
      -5.67146810e-03 -8.92957265e-04 -1.93858594e-02 -3.87355033e-03
      -6.19459618e-03 6.21768320e-03 7.68606830e-03 -1.60392286e-04
      5.86845726e-03 7.26499362e-04 -5.42829558e-03 0. 1.34747315e-04
      1.06801912e-02 3.80946975e-03 -1.58651732e-02 -4.86593321e-03
      3.84967029e-03 8.66141263e-03 -3.49327479e-03 3.48328357e-03
      4.47722664e-03 2.65742349e-03 -1.04125254e-02 -1.62932009e-03
      -1.38749147e-03 -1.68350860e-02 3.77627439e-03 -3.60793844e-02
      -2.14368012e-03 1.65877976e-02 1.06572108e-02 9.85031482e-03
      -1.44508178e-03 1.27844429e-02 6.61554793e-03 5.41945128e-03
      -2.28103325e-02 1.07458066e-02 -1.26582279e-03 1.42994830e-02
      1.16155306e-02 -2.74340641e-02 1.11006002e-03 1.39234876e-02
      3.45898559e-03 1.47698401e-02 3.85712273e-03 1.92297262e-03
      -4.70986962e-03 6.72555808e-03 4.19580378e-03 4.83009079e-03
      -1.18519738e-02 -6.42194180e-03 1.14813158e-02 -1.02892824e-04
      -3.51722934e-03 8.63872003e-03 -2.57408638e-02 -5.73824160e-03
      5.86973550e-03 1.14966678e-02 3.33213829e-03 8.93728528e-03
      -4.24215086e-02 -3.05187088e-02 -2.50466424e-03 -1.02413669e-02
      -3.37768719e-02 -2.31110547e-02 0. 3.05366982e-03 4.81754169e-03
      -2.10938603e-03 1.71643170e-03 -1.53136933e-02 -1.38226419e-03
      1.24395266e-03 3.59433168e-03 -1.86531292e-03 1.11963525e-02
      -7.68405898e-03 -1.31137781e-02 1.24298204e-02 2.28983321e-04
      4.28109989e-03 1.61851943e-02 1.51681844e-02 1.74096518e-03 0.
      -3.02606039e-02 8.88249557e-03 -3.63161176e-04 1.23701598e-02
      1.14626912e-02 6.38474850e-03 1.04972906e-02 -7.61886407e-03
      -1.06187984e-02 1.67850219e-02 -5.79849258e-03 3.90226603e-03
      -5.65647287e-03 -9.38297808e-03 -3.95225808e-02 9.92644019e-03
      8.65226611e-03 1.59938373e-02 1.03912549e-02 1.32294167e-02
      -8.86475760e-03</_>
    <_>
      1.15377381e-02 2.90346425e-03 0. -4.94685024e-03 -2.45597737e-04
      4.15167026e-03 4.67174599e-04 -4.00102785e-04 -2.67300289e-03
      5.34368772e-03 5.57360006e-03 6.13797642e-03 -8.66007712e-03
      -6.50350191e-03 -1.13965105e-02 4.86736512e-03 5.19522047e-03
      1.42821530e-03 1.01553565e-02 -4.69918689e-03 4.04260959e-03
      8.65760632e-03 9.24872700e-04 1.20108128e-02 4.33573499e-03
      -6.04274124e-03 -6.59619365e-03 3.43264104e-03 3.80467554e-03
      2.59743817e-03 6.30593393e-03 2.11156765e-03 4.83561959e-03
      -1.25512527e-02 3.73789546e-04 5.32951951e-03 9.19194717e-04 0.
      -1.99687900e-03 6.43760257e-04 -2.83502648e-03 -5.64121176e-03
      -4.99879417e-04 5.47207333e-03 1.71324005e-03 -3.45100160e-03 0.
      6.11816533e-04 -8.31539277e-03 -1.73422959e-04 -2.80665653e-03
      1.70212938e-03 -3.03090620e-03 9.68523032e-04 6.65406045e-03
      -3.50861019e-03 -2.44712527e-03 3.39171640e-03 1.55834528e-02
      2.69045704e-03 -2.45919032e-03 9.41054802e-03 -1.73506176e-03
      -6.27434405e-04 -6.69714250e-03 -6.42559305e-03 0. -6.00742351e-04
      5.00677666e-03 2.13771332e-02 8.00998241e-04 2.42130758e-04
      4.17744508e-03 -5.01201488e-04 3.21342703e-03 4.08119475e-03
      8.69967137e-03 1.79443788e-03 -1.59986559e-02 -3.00381891e-03
      2.25180737e-03 -4.01437515e-03 8.51072092e-03 -1.65315403e-03
      -6.42651170e-02 7.52419000e-03 1.02743949e-03 -3.96195753e-03
      -5.08516002e-03 -2.83332309e-03 -3.14769987e-03 -1.99324358e-02
      -1.90405396e-03 -3.99906142e-03 1.13238231e-03 -4.15553717e-04
      -5.10216132e-03 -4.30361088e-03 -4.22673393e-03 3.69685760e-04
      9.81502351e-04 5.59098460e-03 4.10833163e-03 -6.09938987e-04
      4.27904166e-03 5.74871665e-03 8.52818508e-03 -2.92235729e-03
      2.04330520e-03 6.33433741e-03 -4.60124528e-03 -3.46572092e-03
      -2.32197181e-03 -2.97376933e-03 8.98752070e-04 8.85891030e-04
      6.11816533e-04 3.38268059e-04 1.64142007e-03 8.67090095e-03
      4.50242870e-03 -3.24770645e-03 4.63569071e-04 -2.83496367e-04
      3.87201831e-03 1.11965314e-02 -2.54999520e-03 0. 1.27822459e-02
      -2.46847910e-03 -5.15497290e-04 6.11816533e-04 1.40813401e-03
      3.07540852e-03 1.77564528e-02 -5.27600292e-03 3.80490994e-04
      -4.19108476e-03 8.08875263e-03 3.48935323e-03 7.29256030e-03
      -2.40464136e-03 6.92898920e-03 -1.20069571e-02 6.02761051e-03
      -3.24762688e-04 5.37797716e-03 2.43428675e-03 4.84261516e-04
      4.81586019e-03 -4.66591902e-02 8.34542233e-03 2.28974805e-03
      1.80685241e-03 0. 4.50671045e-03 -1.57967280e-03 -2.12443410e-03
      -2.82297097e-03 0. 4.46499558e-03 1.25557685e-03 -4.31922870e-03
      1.57770095e-03 -1.52423477e-03 1.43880854e-04 2.45965598e-03
      -1.15571106e-02 -4.30323277e-03 3.74803646e-03 3.21880123e-03
      3.60459299e-03 1.10958330e-03 -8.85183050e-04 -1.38080213e-02
      1.04834521e-02 -3.53883132e-02 3.26020177e-03 0. -6.99078257e-04
      3.04200919e-03 -4.67009284e-03 1.71241164e-03 5.55532612e-03
      -2.82648439e-03 1.76968705e-03 -1.06677285e-03 -5.51350182e-03
      8.67946725e-03 1.13360940e-04 -1.38073019e-03 3.50293376e-05
      -1.68382283e-03 0. 5.92042319e-03 6.06177282e-03 2.17194529e-03
      -4.33467422e-03 -9.77035239e-03 -6.08644914e-03</_>
    <_>
      2.57132720e-04 -3.64991045e-03 -4.74052224e-03 -1.13542825e-02
      3.10833938e-03 8.22256505e-03 7.47772574e-04 -2.25754757e-03
      -1.20123206e-02 6.67046616e-03 -4.05557035e-03 1.34405410e-02
      -2.38055130e-03 -2.37318920e-03 -2.66102725e-03 5.16083650e-03
      7.15389429e-03 -1.29878139e-02 1.54832285e-03 -1.93083647e-03
      1.03082024e-02 3.17045394e-03 -2.57930323e-03 -1.66653935e-03
      -1.01130770e-03 2.15724809e-03 -3.49808601e-03 6.75086724e-03
      4.56682825e-03 -3.17264721e-03 4.86055156e-03 -1.37979323e-02
      -3.68167832e-03 -6.47062407e-05 -1.21742242e-03 1.45404218e-02
      -1.85665023e-03 -3.04357451e-03 -6.94167614e-03 -2.73383781e-03
      5.88970608e-04 3.38954758e-03 -1.09995271e-04 -1.06547792e-02
      1.50815956e-03 -5.98232634e-03 -2.57044425e-03 -6.37120975e-04
      3.17522953e-03 9.20838676e-04 -4.95292246e-03 -3.37155582e-03
      1.12890906e-03 -8.80666170e-03 -5.64305810e-03 7.79305701e-04
      7.23391247e-04 -7.47743947e-03 1.14666894e-02 -3.53021518e-04
      1.21994829e-02 7.56606134e-03 4.35137842e-03 7.41601456e-04
      7.60933617e-04 -2.86212051e-03 -3.71442433e-03 -3.94576555e-03
      -6.05541002e-03 2.39959136e-02 1.09519679e-02 -1.81598050e-04
      -1.73271261e-02 5.40175196e-03 1.12752113e-02 -2.19469890e-03
      3.95118166e-03 -9.33921989e-03 -9.58149321e-04 -1.12234021e-03
      -8.22308590e-04 -3.82413762e-03 1.36838329e-03 -3.02649685e-03
      3.70973768e-03 3.00562172e-03 -3.13629047e-03 2.24090484e-03
      -3.28665413e-03 4.55246354e-03 -2.71450030e-03 7.20042561e-04
      1.82031002e-03 -1.02530159e-02 2.99928244e-03 -1.29087223e-02
      -7.59265211e-04 -3.33152153e-03 -5.70169976e-03 -1.86903321e-03
      1.53194892e-03 5.91631839e-03 6.71950215e-03 -1.99678214e-03
      -1.04066450e-02 -1.64169993e-03 1.14310449e-02 9.94476024e-03
      3.02682328e-03 3.46833933e-03 -2.20124470e-03 -9.71360481e-04
      -2.51552882e-03 -8.09243415e-04 -4.71644523e-03 1.98338501e-04
      -1.73499715e-03 -6.94393588e-04 9.72433481e-03 5.71302418e-03
      -2.18260032e-03 -8.20804446e-04 4.21228772e-03 1.26486681e-02
      -9.29817441e-04 7.62674399e-03 9.88093484e-03 -2.55169673e-03
      9.96121950e-03 8.03233683e-03 -7.54389074e-03 -1.11447591e-02
      5.09825069e-03 -2.46303575e-03 1.22535275e-02 -1.75851776e-04
      -1.90735038e-04 5.39389788e-04 1.94175227e-03 -4.84692538e-03
      -6.46837507e-05 -5.31900767e-03 -8.00587330e-03 -2.80746468e-03
      -4.08474216e-03 1.43787230e-03 6.72747707e-03 -1.28936418e-03
      -1.17360586e-02 -5.43453079e-03 1.68766407e-03 4.56359674e-04
      1.73747016e-03 -6.41952909e-04 0. -9.15201753e-03 7.07761711e-03
      -6.04790589e-03 1.96695421e-03 2.55102030e-04 1.04649982e-03
      4.63023782e-03 -7.13759242e-03 -4.97085555e-03 8.75022076e-03
      -8.07891367e-04 2.28349259e-03 -9.95541457e-04 -3.89144407e-05
      7.08170002e-03 -9.95662622e-03 4.18101903e-03 1.46970910e-03
      -1.20609617e-02 1.16485392e-03 6.92340638e-03 8.75591673e-03
      -1.15366494e-02 -1.38443266e-03 -6.65481482e-03 4.31554392e-03
      1.98572176e-03 -2.98691913e-03 -9.05437768e-03 -3.34953284e-03
      1.90790521e-03 -1.32120983e-03 -5.62513387e-03 -3.19000753e-03
      -3.68983392e-03 1.24986505e-03 3.56529490e-03 7.27125676e-04
      1.56569557e-04 6.22944301e-03 3.21380445e-03 2.71117222e-03
      4.89448803e-03 4.39916458e-03 4.62915935e-03</_>
    <_>
      4.51629655e-03 -3.45977372e-03 1.76991147e-04 -6.99974224e-03
      9.31035262e-04 4.03962424e-03 2.06875196e-03 -7.67428894e-04
      -4.84772772e-03 6.69593690e-04 4.07491159e-03 1.63573418e-02
      -2.45355186e-03 -6.44802640e-04 -1.40766371e-02 -1.46684423e-03
      5.19992737e-03 -2.71161064e-03 4.02986025e-03 1.17911538e-03
      -2.07390962e-03 5.46859484e-03 -1.81620743e-03 3.77607998e-03
      3.12279863e-03 -4.01249668e-03 -1.79286692e-02 1.32204487e-03
      1.00903772e-03 -4.44360264e-03 5.20190643e-03 2.56900606e-03
      -1.39724847e-03 2.64462025e-04 -5.17195603e-03 2.89049931e-03
      -9.25953314e-03 -3.83588602e-03 -3.22840153e-03 4.26562910e-04
      -1.23439578e-03 3.97545937e-03 -1.33566437e-02 -3.37818195e-03
      2.21190159e-03 -2.63216603e-03 -1.23812968e-03 -6.34112919e-04
      -1.72102370e-03 -1.26810987e-02 -4.59412858e-03 -2.23860028e-03
      -3.90491099e-03 9.93254827e-04 -7.61433411e-03 -3.15958168e-04
      -1.11783785e-03 1.70825690e-03 1.26862889e-02 -5.68027748e-03
      9.33613628e-03 8.03458970e-03 6.07310561e-03 3.40053253e-03
      -6.45016646e-03 -1.30588878e-02 -5.02275827e-04 -9.92105063e-03
      3.31650325e-03 2.24589091e-02 7.33226491e-03 2.42130758e-04
      -1.60698383e-03 -6.92865811e-03 -2.52299453e-03 -1.88471715e-03
      2.57064612e-03 1.75289402e-03 -1.61596574e-04 -7.82337913e-04
      -2.83670542e-03 -1.08083272e-02 1.54401560e-03 -3.48182837e-03
      7.70623190e-03 2.25673197e-03 -1.15480716e-03 -6.40667882e-03
      5.46110002e-03 2.32263235e-03 -1.89297658e-03 -4.82671458e-04
      -4.73319646e-03 -2.71107047e-03 -5.64486603e-04 -4.70468588e-03
      -4.11463203e-03 -2.25737691e-03 1.71522051e-03 1.84842880e-04
      -6.18186872e-03 1.09639801e-02 -3.29571054e-03 3.11985007e-03
      -6.48689514e-04 -3.32425232e-04 6.55465573e-03 2.73667765e-03
      7.82554212e-04 4.27095406e-03 -5.85338706e-03 -1.93272741e-03
      2.65314011e-03 2.43137241e-04 -2.07207631e-02 -8.91966687e-04
      -1.02464296e-02 4.52698627e-03 1.45072732e-02 1.61172319e-02
      2.57584383e-03 -9.61143803e-03 5.74663328e-03 -7.32900575e-04
      1.24849647e-03 6.10998273e-03 -5.85395191e-03 0. 1.08547984e-02
      9.59025975e-03 -1.04909874e-02 -3.63711547e-03 4.07351367e-03
      6.25568093e-04 1.51092075e-02 -6.90265850e-04 -1.78076804e-03
      -3.00600566e-03 4.82735271e-03 1.24440808e-03 -2.94097560e-03
      -9.31323215e-04 3.05866217e-03 5.58372913e-03 -1.36027508e-03
      -3.64134670e-03 6.10932661e-03 3.08124232e-04 9.54347139e-04
      -3.35518178e-03 -3.88408080e-03 7.33525772e-03 -9.81912948e-03
      4.18331334e-03 0. -1.39356137e-03 -1.86973345e-03 -3.41064017e-03
      -4.92363377e-03 0. -5.64447138e-03 3.58416163e-03 6.55700976e-04
      3.07753077e-03 7.89406616e-03 -2.78084539e-04 -5.26664662e-05
      2.60137976e-03 -3.03455512e-03 1.08112080e-03 2.82393442e-03
      1.65649795e-03 2.28234124e-03 -2.70388694e-03 -8.38467851e-03
      1.65556073e-02 6.02125097e-03 -1.83008844e-03 0. 1.81114965e-03
      4.23487596e-04 4.04924620e-03 1.47181761e-03 -2.54665897e-03
      1.80833231e-04 -2.86743534e-03 -3.92303709e-03 -3.35297757e-03
      3.50873359e-03 -2.22728378e-03 -2.55548256e-03 -1.35222345e-03
      -3.92667437e-03 1.76132680e-03 5.11928275e-03 8.11273418e-03
      8.73117708e-03 2.93299975e-03 9.37496591e-03 -1.72802769e-02</_>
    <_>
      1.23517429e-02 3.33020883e-03 -4.86558350e-03 2.74941185e-03
      3.27677140e-03 3.49370553e-03 3.83789814e-03 2.58290651e-03
      -3.74476146e-03 7.86175299e-03 -9.29238647e-03 1.65458526e-02
      -1.94191141e-03 -3.69320274e-03 -4.69407911e-04 1.18419593e-02
      1.23546822e-02 -2.02322938e-02 6.62368489e-04 9.43955383e-05
      4.10563516e-04 8.39010440e-03 -1.55989407e-02 1.34452851e-02
      1.06333930e-03 -5.88410208e-03 6.12091608e-05 9.11863055e-03
      1.12166600e-02 4.38388018e-03 -1.19043363e-03 -1.48400404e-02
      -7.29309488e-03 5.01403934e-04 -1.15077361e-04 1.73998531e-02
      -5.01306076e-03 -1.43338970e-04 -1.62827503e-02 1.68057531e-03
      1.86237833e-03 5.29682916e-03 -1.21259922e-02 -8.07930063e-03
      1.91083062e-03 2.84289476e-03 -3.82955582e-03 -7.39742070e-04
      1.03112438e-03 -1.73957683e-02 9.53069015e-04 4.25287173e-04
      -3.57886031e-03 -4.96809650e-03 -6.18155929e-04 3.06002912e-03
      -6.18610578e-03 -2.60982160e-02 1.52276512e-02 4.82290285e-03
      1.33269280e-02 9.32723191e-03 1.03994980e-02 -2.11147289e-03
      -7.55641900e-04 -6.21274672e-03 -2.12961622e-03 -4.05814918e-03
      -1.10613019e-03 2.71956380e-02 1.57875046e-02 -9.23312269e-03
      -7.32599478e-03 -3.55185126e-03 8.22801492e-04 -1.00939525e-02
      6.09505596e-03 -1.06903482e-02 3.33955977e-03 -8.45268462e-03
      -1.50419436e-02 3.64232040e-03 5.37823327e-03 -1.27349552e-02
      1.86131168e-02 3.69310728e-03 -8.75195209e-03 6.56208349e-03
      5.86548122e-03 -7.04074977e-04 -2.51496723e-03 7.23817945e-03
      -2.96464283e-03 1.55866949e-03 1.48443878e-03 -1.09443804e-02
      -1.13901608e-02 -1.63711933e-03 1.23810803e-03 -1.42941345e-02
      4.78318334e-03 1.37311304e-02 6.89961109e-03 -2.63766642e-03
      -1.57547067e-03 4.60456638e-03 -4.73339530e-03 5.26045868e-03
      4.15919255e-03 5.81715768e-03 -3.79457697e-03 1.61835039e-03
      -1.70042343e-03 5.53567879e-05 -1.17307501e-02 3.63608962e-03
      -4.47030598e-03 1.36174331e-03 9.26252175e-03 9.16812755e-03
      5.72659960e-03 -1.62202809e-02 9.11354460e-03 1.22137265e-02
      4.26314858e-04 1.82750903e-03 1.01829497e-02 0. 6.32008025e-03
      1.00328587e-02 -5.22149587e-03 -1.23338150e-02 8.13212804e-03
      3.79192806e-03 1.41230198e-02 5.53322118e-03 -1.10547272e-02
      3.80870816e-03 2.40988913e-03 -4.45375498e-03 4.32873890e-03
      -1.17470203e-02 -3.10065504e-03 -2.01391778e-03 1.11849885e-03
      7.82291929e-04 9.58109647e-03 -4.11015470e-03 -2.98865070e-03
      3.81168304e-03 -1.27071440e-02 6.34128228e-03 -8.07080884e-03
      -6.79822871e-03 0. -2.10008863e-03 2.97691813e-03 -1.73839778e-02
      -9.85163148e-04 0. 1.35532662e-03 3.73565359e-03 -1.38137843e-02
      -1.88914570e-03 1.47905666e-03 -1.42385559e-02 1.76452275e-03
      -8.02217145e-03 -8.82782508e-04 1.03509780e-02 2.50059500e-04
      1.67509227e-03 -2.14646361e-03 -8.24322179e-03 8.53715115e-04
      6.36541331e-03 -1.23267658e-02 -1.37979826e-02 0. -1.41536174e-02
      6.65662950e-03 2.07898999e-03 4.79934411e-03 1.61400624e-03
      3.03925783e-03 -5.54944808e-03 4.10699518e-03 -4.21713013e-03
      1.29614910e-02 5.04713878e-03 -8.53518397e-03 2.05757678e-03
      -2.25811498e-03 -2.13674176e-03 -1.64441075e-02 4.31694277e-03
      1.25672081e-02 4.74977074e-03 5.40434802e-03 3.68182734e-03</_>
    <_>
      9.98993311e-03 -2.34996099e-02 -1.09890115e-03 3.36316577e-03
      1.00120660e-02 -4.61679930e-03 -8.67061259e-04 -8.75096675e-03
      -7.54559552e-03 -3.49610404e-04 2.02894467e-03 2.56094150e-02
      1.87880092e-03 -3.02027888e-03 -3.82869242e-04 1.43746082e-02
      2.13719206e-03 2.66318722e-03 1.58596653e-02 -6.59743615e-04
      9.22637340e-03 9.33833327e-03 -1.20059238e-03 2.99627357e-03
      4.90352232e-03 -6.44232193e-03 -9.13616363e-03 1.86500221e-03
      7.58382375e-04 -2.00697128e-03 9.82551463e-03 1.50253961e-03
      -5.33830374e-03 6.86328640e-05 -4.81106434e-03 1.35580711e-02
      -3.15650622e-03 -2.27253422e-05 -5.49222250e-03 -8.93329488e-05
      -4.72741085e-04 3.71378288e-03 -1.14079553e-03 2.65261950e-03
      2.78305798e-03 -5.42203942e-03 -5.51100774e-03 -5.73007448e-04
      -2.77168583e-04 1.46149017e-03 -6.98107155e-03 -3.77593818e-03
      -3.83339613e-03 2.71787576e-04 -1.09356912e-02 7.06070894e-03
      -3.52939544e-03 -6.77444099e-04 1.78142618e-02 -3.81437782e-03
      1.46767711e-02 4.35282057e-03 1.04500689e-02 -5.41903195e-04
      -7.63497828e-03 -3.47569794e-03 -1.80645157e-02 -7.19487807e-03
      3.27569782e-03 2.19349097e-02 -4.10689414e-03 -5.28681511e-03
      5.01997303e-04 -6.64305268e-03 4.15862398e-03 8.75964644e-04
      7.97401555e-03 -1.96707807e-03 -4.02932055e-03 -1.96502847e-03
      3.24712996e-03 -4.86446731e-03 4.43818979e-03 1.70025264e-03
      -3.49771610e-04 7.43286777e-03 -5.02317073e-03 -1.57749245e-03
      -5.95589075e-03 2.30023451e-03 1.07181782e-03 6.40506530e-03
      -8.44918017e-04 4.66285087e-03 -5.20029431e-03 -2.06345832e-03
      -4.44662105e-03 -2.64190440e-03 4.38117189e-03 1.84842880e-04
      -1.53176486e-03 1.61043461e-02 1.03002032e-02 4.92239790e-03
      -5.49662951e-03 2.57197185e-03 2.25747237e-03 7.50636961e-03
      2.57066987e-03 7.71947298e-03 -3.66446213e-04 -9.41828883e-04
      1.31707604e-03 -1.01409173e-02 -7.21849576e-02 3.12841090e-04
      -6.06439076e-03 4.44920128e-03 1.98610052e-02 1.17039084e-02
      7.10760360e-04 -1.28623685e-02 5.56280976e-03 5.38764382e-03
      5.51250298e-04 3.16982227e-03 3.43068293e-03 0. 1.49174752e-02
      1.11249834e-02 -2.39562569e-03 -7.34385941e-03 8.32167920e-03
      -1.06692128e-02 2.15723682e-02 4.68044635e-03 5.41575020e-03
      6.59384159e-03 4.92267357e-03 -1.65407592e-03 1.10848690e-04
      6.88621192e-04 -1.76776477e-04 -6.48958934e-03 -1.07418431e-03
      -1.67993290e-04 -3.72592695e-02 2.64713750e-03 -2.36149033e-04
      2.73892889e-03 8.53208080e-03 2.25211191e-03 -5.75906015e-04
      5.03927423e-03 0. 1.99947599e-03 7.01614539e-04 -1.33970496e-03
      -3.91104026e-03 0. 1.43295305e-03 4.14171442e-03 -3.67072877e-03
      5.65430801e-03 6.56368397e-03 -2.63218209e-03 6.63148286e-03
      -3.94427043e-04 -2.08404241e-03 1.73639983e-03 -2.46445416e-03
      -3.07177333e-03 5.38230641e-04 -5.99483261e-03 1.95112638e-03
      6.36091130e-03 -1.26322955e-02 -3.71078937e-03 0. -1.91466010e-03
      4.64753108e-03 -2.48048850e-03 -3.70328152e-03 6.58818381e-03
      -6.61895610e-05 -4.56830747e-02 -1.32203009e-03 -1.59580503e-02
      4.70574247e-03 -3.57617065e-03 -1.57038383e-02 -2.24825507e-03
      -6.18066033e-03 8.97050428e-04 2.99895997e-03 9.40163247e-03
      6.46546623e-03 2.77798681e-04 -2.27266606e-02 5.00637759e-03</_>
    <_>
      -7.84672855e-04 1.55009376e-03 8.84955734e-05 -1.43461558e-03
      -3.70099954e-03 7.99991563e-03 -1.33584789e-03 -3.68823716e-03
      -9.61157680e-03 5.35841240e-03 4.58360743e-03 3.75254941e-03
      -2.74436502e-03 -1.06644919e-02 1.36128149e-03 2.36408738e-03
      1.01581486e-02 -2.63448642e-03 8.58998578e-03 -1.14128813e-02
      6.34872261e-03 6.03966648e-03 -1.82188358e-02 5.67125669e-03
      -2.75386544e-03 -1.05614064e-03 1.76808750e-03 -2.61043734e-03
      1.71420304e-03 -3.46480124e-03 7.94847403e-03 1.63163943e-03
      -2.74195545e-03 5.15752588e-04 -5.69958007e-03 1.22008212e-02
      6.67162379e-03 1.87085161e-03 -2.55341711e-03 1.32215244e-03
      -5.33138984e-04 1.32439705e-03 -1.14248758e-02 4.18799045e-03
      1.08568906e-03 -9.28457303e-04 -2.41799443e-03 -6.31257644e-05
      -6.59701647e-03 -8.27782135e-03 -1.05605504e-04 8.75009340e-04
      -6.51735254e-03 -5.43036440e-04 6.35939324e-03 3.94707359e-03
      -8.72336514e-03 -9.69632529e-03 1.00236116e-02 6.62578968e-03
      9.95673239e-03 1.01653337e-02 7.86055159e-03 2.63697491e-03
      -6.33711275e-03 -2.19314825e-03 -3.47938156e-03 -3.80493002e-03
      -3.61656312e-05 2.93097440e-02 3.06306686e-03 -5.51520090e-04
      1.66701444e-03 -1.45574682e-03 4.44689346e-03 2.37090373e-03
      4.88310633e-03 -1.62646621e-02 2.77618738e-03 -5.72117511e-03
      -1.23306718e-02 -4.78346180e-03 -3.79786012e-03 -2.53119017e-03
      1.53663168e-02 -4.35846654e-04 -2.18845159e-03 -9.48722241e-04
      9.04550031e-03 5.71303442e-03 -1.14807123e-02 5.62007539e-03
      -2.80789169e-03 7.15868827e-03 5.25007164e-03 5.28930977e-04
      -2.26234179e-02 -2.31289631e-03 3.60291474e-03 -1.82457862e-03
      -2.33898778e-03 1.54000465e-02 -5.90975571e-04 -3.63181665e-04
      -6.06840616e-03 -1.24706412e-02 1.02361571e-02 3.17242672e-03
      3.21399630e-03 -2.95826409e-04 1.29132764e-04 2.01243605e-03
      -4.74422658e-03 -1.67831231e-03 -9.92036238e-03 -9.16280877e-03
      1.12404057e-03 4.18040017e-03 1.40350973e-02 1.01176314e-02
      5.65202534e-03 -1.15545895e-02 4.00164165e-03 1.08445063e-02
      -3.26212845e-03 1.15664750e-02 5.96862007e-03 -9.17431142e-04
      1.03915473e-02 -3.24507710e-03 -3.66048422e-03 -1.02965571e-02
      2.67002080e-03 -7.83747353e-04 1.50905345e-02 -3.91502585e-03
      -7.32708909e-03 4.87809302e-03 -6.47778576e-03 -3.11531965e-03
      -2.74957099e-04 -2.11445126e-03 3.37612419e-03 -5.71634015e-03
      -5.76197123e-03 -2.09947582e-03 7.33169029e-03 -4.86614183e-03
      -5.15278475e-03 1.24990800e-03 9.34504811e-03 5.49111329e-03
      -1.05078798e-05 -1.25614973e-03 0. -3.92159913e-03 3.59831681e-03
      -1.39739388e-03 -5.46134077e-03 0. -1.84697288e-04 3.09316767e-03
      -5.11151878e-03 2.50339787e-03 6.05700014e-04 -1.75805646e-03
      2.17008498e-03 5.73317171e-04 -7.60665070e-03 7.34992465e-03
      1.93713629e-03 5.38538117e-03 -3.09695746e-03 -7.88203068e-03
      -3.02414177e-03 1.66191645e-02 1.28280919e-03 -1.39457942e-03
      -3.33333341e-03 4.16661287e-03 4.04449319e-03 -1.13116112e-03
      2.28616199e-03 -2.51564942e-03 -2.24905158e-03 -4.93040774e-03
      -3.60001973e-03 5.14805363e-03 -5.27502131e-03 -1.25508569e-03
      -1.69922281e-02 -7.83088244e-03 -6.16642460e-03 2.34019128e-04
      2.51626782e-03 -5.34843653e-03 5.17555559e-03 -1.27437452e-04
      -1.15121184e-02 -2.13223719e-03</_>
    <_>
      1.69023369e-02 8.35096405e-04 1.02444878e-03 -3.17808497e-03
      1.80545286e-03 7.55272433e-03 1.04361819e-03 1.44433859e-03
      1.37787336e-03 9.62438527e-03 1.10528171e-02 1.54356491e-02
      6.89632213e-03 2.79257935e-03 1.82137790e-03 4.90814168e-03
      6.13124296e-03 -3.38537316e-03 6.52501825e-03 -1.94135588e-02
      1.06392326e-02 8.08972865e-03 -4.77223611e-03 5.09784045e-03
      4.09587659e-03 -5.84201515e-03 -4.76775458e-03 7.56870769e-03
      3.36357602e-03 -4.19660471e-03 7.42796157e-03 3.53223970e-03
      -3.01139783e-02 -2.33605341e-03 3.46767996e-03 1.13732815e-02
      -2.56456062e-03 2.75312923e-03 2.92660296e-03 -2.11264496e-03
      -6.53842185e-03 -1.66548451e-03 -4.07712022e-03 -7.14452472e-03
      3.32512963e-03 -3.52758355e-03 -1.09242639e-02 6.05860667e-04
      -1.26546202e-03 -1.03718834e-03 6.19063480e-03 4.02837701e-04
      -4.53630055e-04 -2.49211374e-03 8.36394960e-04 7.69765349e-03
      6.84045895e-04 -1.68256760e-02 1.53496861e-02 -4.62633237e-04
      1.30540431e-02 6.28046552e-03 4.32392536e-03 -2.46131304e-03
      -5.50797768e-03 -1.01381782e-02 2.59857252e-03 -8.14363186e-04
      7.71100540e-03 2.33284626e-02 1.83080777e-03 -2.29642913e-02
      4.24794294e-03 -6.99116103e-03 -6.52990420e-04 -1.12033244e-02
      7.31477281e-03 -4.63437568e-03 2.13496387e-05 9.34538082e-04
      -9.13831871e-03 -5.24155935e-03 1.27309859e-02 -5.53067913e-03
      1.46469949e-02 -5.61999949e-03 -5.82842063e-03 -1.03889313e-03
      -9.29405075e-03 -2.93141693e-05 -1.31416623e-03 -3.60381068e-03
      2.73907179e-04 5.40359225e-03 9.74681810e-04 -2.28075334e-03
      -1.69291366e-02 -1.60866557e-03 2.21586996e-03 -1.29870127e-03
      -6.29835483e-03 7.53897987e-03 -2.22533126e-03 -4.48088814e-03
      -3.28881433e-03 -7.67933670e-03 7.77381891e-03 -4.56916355e-03
      6.34321696e-05 6.29950967e-03 1.34574482e-03 -4.64272127e-03
      -3.44334194e-03 -1.57309370e-03 -2.91293357e-02 1.12156046e-03
      1.24789681e-03 -3.50954337e-03 1.19950753e-02 7.37071922e-03
      -5.09422505e-03 2.14528665e-03 2.02676794e-03 1.46718579e-03
      6.20156410e-04 -5.44131873e-03 1.11445077e-02 0. 3.96871381e-03
      3.85157997e-03 -6.28356310e-03 -3.33248987e-03 6.43127738e-03
      2.99702777e-04 1.64825357e-02 6.13073236e-04 -3.75175523e-03
      -1.37608754e-03 6.53371401e-03 -1.32747544e-02 4.52124188e-03
      -5.55495638e-03 1.55591406e-03 3.55023221e-04 -5.32976771e-03
      1.62772345e-03 5.90162352e-03 -8.59478302e-03 -5.48489159e-03
      1.84405921e-03 9.21525934e-04 4.44330741e-03 1.61605894e-05
      -1.15130306e-03 0. 9.13750497e-04 -4.41167416e-04 -8.81821848e-03
      -4.95894719e-03 0. 6.23997021e-03 -7.55938934e-04 -1.71997712e-03
      -2.00098986e-03 2.25736620e-03 1.53967214e-03 1.83883845e-03
      -5.20959310e-03 -5.44641772e-03 8.61405022e-03 3.38666746e-03
      -5.78439748e-03 -1.89104539e-04 -7.19380984e-03 2.68338394e-04
      9.27828066e-03 1.79849530e-03 -7.97916483e-03 0. -6.06536772e-03
      2.09353049e-03 -2.90624984e-03 4.95554134e-03 -7.88339821e-04
      5.77924075e-03 -8.62124027e-04 -5.06968587e-04 -3.46253673e-03
      4.26351372e-03 -3.82878655e-03 -1.04439985e-02 -7.32729025e-03
      -2.63802416e-04 5.66714967e-04 7.88665842e-03 7.46386312e-03
      8.18856899e-03 -3.70520819e-03 -2.85759219e-03 -7.10711628e-03</_>
    <_>
      2.33007828e-03 -1.52285490e-03 1.76991147e-04 -1.67823280e-03
      -7.66221993e-03 -1.19739037e-03 -8.39217100e-03 1.41830998e-03
      -4.26003896e-03 2.90395389e-03 7.03466544e-03 7.74795888e-03
      7.29570864e-03 -4.66311909e-03 -1.67787028e-03 -3.25743156e-03
      -8.00000317e-03 -6.39823731e-03 7.72374915e-03 1.96545850e-03
      1.63598191e-02 7.08049862e-03 -1.97596941e-03 9.24855657e-03
      3.47913196e-03 1.81598228e-03 -1.06656493e-03 -9.26962603e-05
      9.89290047e-03 -4.31025727e-03 6.01933943e-03 -7.12431094e-04
      -8.05112440e-03 -1.50326872e-04 -1.67393766e-03 1.05516315e-02
      8.80146027e-03 8.29249271e-04 -4.31083143e-03 -3.16163641e-03
      1.44300808e-03 -6.43282910e-05 -1.75624695e-02 -1.53281242e-02
      3.81088560e-03 -6.56458596e-03 -1.51632901e-03 -1.35244830e-02
      2.23411224e-03 -1.63539797e-02 8.47330957e-04 1.82212854e-03
      -5.06970426e-03 -1.24938376e-02 1.26302680e-02 2.40604253e-03
      -2.82475352e-03 3.37765529e-03 1.24927396e-02 2.60831043e-03
      9.40803438e-03 5.85237006e-03 -2.51201633e-03 2.70103361e-03
      -2.44695926e-03 -3.66030214e-03 -4.68068849e-03 -2.48819054e-03
      1.24998402e-03 2.52914783e-02 3.76207242e-03 2.42130758e-04
      -1.17255747e-03 -5.90024795e-03 3.39034689e-03 -4.57801204e-03
      1.05617719e-03 -7.63404695e-03 -1.44021178e-03 -6.16382807e-04
      -3.21441540e-03 -5.23313461e-03 -1.75695913e-03 -6.60165958e-03
      1.29137048e-02 4.42344509e-03 -5.78946620e-03 -3.23419971e-03
      3.69965303e-04 -1.11245981e-03 4.34026867e-03 -3.15293251e-03
      -9.62528586e-03 -1.71098171e-03 5.64805698e-03 -6.88847853e-03
      -6.87928812e-04 -1.42442319e-03 2.05376116e-03 0. 7.65332254e-04
      9.30658262e-03 7.96400756e-03 -8.26604955e-04 -4.30690637e-03
      2.38965079e-03 4.30485979e-03 -3.90748633e-03 2.62511836e-04
      -8.51333170e-05 -3.58323334e-04 -2.98975356e-04 -2.29711807e-03
      3.85822175e-04 -8.68025050e-03 -6.51767710e-03 -2.96854181e-03
      1.81094441e-03 7.04203919e-03 3.67697538e-03 -4.82251588e-03
      -7.56910886e-04 9.14861448e-04 5.54690696e-03 -4.78213624e-04
      3.21390433e-03 -2.99421465e-03 -5.49450575e-04 6.18956471e-03
      5.17096044e-03 -1.16517430e-03 -1.36118627e-03 5.48596447e-03
      5.15108695e-03 1.33382576e-02 3.46766494e-04 -7.50600174e-03
      1.61458249e-03 2.65918905e-03 7.12356064e-04 7.68329133e-04
      -5.66113601e-03 5.86639345e-03 1.49439136e-03 -3.61461949e-04
      -1.97540550e-03 -1.00505876e-03 -6.55962806e-03 -3.51363467e-03
      -3.03918915e-03 8.79452657e-03 3.95077886e-03 6.33288082e-03
      -8.55897181e-03 -1.85811927e-03 1.18166604e-03 -4.95294749e-04
      -2.91626249e-03 2.04937952e-03 5.10204060e-04 -5.40990965e-04
      2.44334992e-03 -8.36721621e-04 -5.81657002e-03 2.20355974e-03
      -3.93077498e-03 4.12488729e-03 -3.74735333e-03 8.48732190e-04
      3.41335847e-03 -1.01601973e-03 1.29176967e-03 -2.61814869e-03
      -1.04407861e-03 9.93918744e-04 2.55350256e-03 1.25706298e-02
      -6.09806040e-03 0. -6.04614010e-03 4.97220550e-03 1.01900287e-03
      5.08376490e-03 2.99310009e-03 -4.18282067e-03 1.58873969e-03
      -5.87932300e-03 -1.30100427e-02 4.81811166e-03 2.35367377e-04
      -2.21579731e-03 -1.92516809e-03 -1.33373681e-03 -3.74599663e-03
      -7.38626288e-04 6.10193517e-03 1.27590809e-03 -1.20618278e-02
      4.97253553e-04 -1.58858171e-03</_>
    <_>
      1.43043380e-02 -1.16844792e-02 8.84955734e-05 -2.38343468e-03
      6.37886161e-03 8.93686898e-03 -2.25941651e-03 8.33902042e-03
      -1.99344996e-02 1.22597301e-02 1.05451746e-02 2.69313660e-02
      1.83263235e-02 4.31982242e-03 1.70519680e-03 3.47345020e-03
      1.73254889e-02 -5.16958884e-04 -6.78791106e-03 -2.81115174e-02
      -4.62625921e-02 8.19765218e-03 -2.71479916e-02 1.49305081e-02
      1.26435086e-02 -3.36894533e-03 -3.09225656e-02 8.53008404e-03
      6.82119466e-03 2.73926370e-03 -7.51069281e-03 3.05850012e-03
      -2.74187475e-02 -8.21284266e-05 -2.00973102e-03 1.85078699e-02
      -1.47161982e-03 7.48754153e-03 -9.58293770e-03 -4.12863353e-03
      2.07421603e-03 -1.45429112e-02 -8.32123507e-04 -4.90642991e-03
      4.55366587e-03 -8.20546469e-04 -3.46955284e-02 -1.14672899e-03
      9.46790166e-03 5.30480582e-04 -2.41918350e-03 5.54976519e-03
      3.88661935e-03 -9.55537893e-04 4.44383128e-03 6.82967622e-03
      -5.05716912e-03 -6.53603524e-02 2.03265361e-02 4.23278008e-03
      2.10042689e-02 9.94417258e-03 1.66550372e-02 -7.17537059e-03
      4.28092491e-04 -2.36274693e-02 1.27648318e-03 -1.09085080e-03
      1.65953748e-02 3.55840698e-02 1.80343948e-02 -5.15671857e-02
      6.56172633e-05 2.29105772e-03 1.42576536e-02 1.93592539e-04
      7.15922844e-03 -1.07107805e-02 9.56025068e-03 6.27652556e-03
      -2.69639585e-02 -4.65438478e-02 -5.65834530e-03 -1.30983593e-03
      2.45566247e-03 7.59117212e-03 -7.39367772e-03 -1.20987673e-03
      6.85947761e-03 3.10938759e-03 8.50553904e-03 2.62661651e-03
      -4.43823915e-03 6.93325466e-03 4.88582719e-03 4.23491467e-03
      -1.56018091e-02 8.99932231e-04 1.97544717e-03 -4.25651707e-02
      -4.54608817e-03 1.55553073e-02 9.26734041e-03 6.59175124e-03
      1.13942532e-03 -9.95307323e-03 1.43615380e-02 4.46257321e-03
      2.85224104e-03 1.11753715e-03 4.91797132e-03 -6.72053639e-03
      3.37644294e-03 -5.98157616e-03 -4.61823493e-02 3.51035944e-03
      7.66800856e-03 5.26351156e-04 1.69031955e-02 7.57417502e-03
      1.70306000e-03 -7.40658084e-04 -2.64774747e-02 6.25003828e-03
      6.44367561e-03 5.86131820e-03 -5.81087638e-03 0. 1.79348756e-02
      1.44720804e-02 -1.34700360e-02 -3.43328230e-02 3.77280614e-03
      1.27771962e-02 2.01673973e-02 9.19652055e-04 -4.05218406e-03
      6.75294967e-03 4.93004546e-03 3.90649680e-03 1.13823535e-02
      -2.12828023e-03 7.34023238e-03 6.59981696e-03 -3.22166737e-03
      1.03398087e-02 1.15340436e-02 2.15813424e-03 -1.06143756e-02
      5.30568510e-03 1.12613477e-02 1.00207739e-02 8.94456357e-03
      2.09868373e-03 0. -5.10571301e-02 1.22372154e-02 -1.18027218e-02
      3.44827375e-03 0. 8.70411936e-03 1.43532420e-03 3.50499270e-03
      -6.20451197e-03 1.86612050e-03 -1.17435433e-04 1.08026585e-03
      6.41794503e-03 -6.15870301e-03 1.97976064e-02 -1.44232967e-04
      4.00858605e-03 -2.35513924e-03 2.83873850e-03 1.76205975e-03
      1.36203058e-02 1.32301887e-02 4.54958808e-03 0. -1.71818398e-02
      5.94029296e-03 1.09964190e-03 4.97591682e-03 -4.71034739e-03
      -1.31593406e-04 -3.22446460e-03 -1.72501933e-02 7.13999989e-03
      -1.35962265e-02 -1.27080446e-02 -1.22990087e-02 2.56414339e-03
      5.00132446e-04 1.02766999e-03 1.31730810e-02 2.80322926e-03
      1.02045992e-02 7.22383661e-03 4.53670649e-03 1.81068713e-03</_>
    <_>
      2.97036744e-03 -3.49025405e-03 -5.12664032e-04 5.25901746e-03
      -5.17662195e-03 4.86132689e-03 1.05273898e-03 1.74391584e-03
      -7.67585309e-03 3.87500226e-03 3.14102275e-03 1.66649539e-02
      -4.41612722e-03 -4.23761929e-04 -7.06321653e-03 7.71187653e-04
      1.00213131e-02 -1.13347434e-02 7.59593770e-03 1.51276600e-03
      5.91003709e-03 1.21063145e-03 -4.58383147e-04 -9.26908222e-04
      3.47414589e-03 -1.57810072e-03 -5.46395825e-03 5.04860189e-03
      7.77366711e-03 -3.85847432e-03 5.23375906e-03 8.74852180e-04
      9.59740602e-04 -3.74240265e-03 1.11778769e-04 1.13425683e-02
      -5.27377892e-03 -1.65024330e-03 -1.39024097e-03 3.82882397e-04
      5.73217287e-04 -4.12530685e-03 -1.63768767e-03 4.22628876e-03
      -4.36675502e-03 -6.11176016e-03 -1.84798625e-03 7.48590042e-04
      1.68645789e-03 -4.07337648e-04 -2.03596312e-03 3.43011809e-03
      -1.70097756e-03 -3.00954189e-03 6.69804588e-03 1.64127746e-03
      8.07882869e-04 3.29064182e-03 5.99653274e-03 5.93108311e-03
      5.37376804e-03 5.04090637e-03 1.82443368e-03 -4.41379333e-03
      -4.84215049e-03 -4.98086563e-04 -7.61990144e-04 -7.69473240e-03
      7.67887523e-03 2.19613016e-02 5.66034578e-04 1.21065379e-04
      6.75376941e-05 -3.42050241e-03 -5.87036880e-03 -7.56666856e-03
      -1.99918728e-03 1.01899414e-03 1.23354921e-03 -5.42033790e-03
      -3.16303154e-03 -3.71198589e-03 3.59186856e-03 -7.04424083e-03
      5.72791928e-03 -8.73228069e-03 -4.81530977e-03 -1.82673510e-03
      3.26943095e-03 -1.74237194e-03 -1.38214987e-03 5.53245191e-03
      -1.05509267e-03 4.78400104e-03 4.85921139e-03 -4.02603950e-03
      -2.26500531e-04 -5.87555405e-04 3.46288318e-03 -7.24637706e-04
      -3.49942222e-03 1.35654137e-02 1.71763613e-03 -2.83510634e-03
      -7.70653551e-03 -6.19294494e-03 6.22038962e-03 -4.42172983e-04
      -4.68922406e-03 -2.39514819e-04 -1.94334961e-03 -5.58285858e-04
      -1.68458140e-03 -6.54176204e-03 2.56010727e-03 -1.91707592e-02
      -4.66400106e-03 -7.68009387e-03 5.37182298e-03 4.68612736e-04
      6.63652318e-04 3.87439010e-04 -8.82697105e-03 1.31252035e-02
      -1.03084347e-03 -4.60485136e-03 6.20366400e-03 -6.06674654e-03
      -1.21913734e-03 1.11921439e-02 -8.01948179e-03 -1.20728491e-02
      6.78072218e-03 5.20954083e-04 1.07013118e-02 2.78342864e-03
      -3.51121183e-03 2.98644812e-03 -9.64156445e-03 2.10524350e-03
      6.01612357e-03 -3.79604334e-03 2.62964563e-03 3.01910401e-03
      -1.75460591e-03 4.41401280e-05 4.95264586e-03 -2.68563745e-03
      -4.71836072e-04 1.31577067e-03 -2.43358663e-03 5.79720922e-03
      3.06730787e-03 4.18688683e-03 0. 6.86325002e-05 -2.48302054e-03
      -1.23238971e-03 1.38528572e-04 -3.33495857e-03 -2.12753238e-03
      -3.06546781e-03 -3.12382961e-03 -4.62974980e-03 1.86694309e-03
      -1.07397721e-03 -1.05987033e-02 -1.80439535e-03 -1.95408100e-03
      5.55011071e-03 1.64613116e-03 -4.94625745e-03 2.78863125e-03
      -1.84751151e-03 -6.98969280e-03 1.21294362e-02 1.61564106e-03
      -8.66728660e-04 -7.87720457e-03 -1.20460466e-02 -4.29847278e-04
      -9.23646323e-04 -1.20367249e-03 1.84516027e-03 2.44717137e-03
      -2.29277503e-04 -4.51876456e-03 4.81395487e-04 5.02031622e-03
      -3.80771118e-03 8.64968169e-04 1.31397543e-03 -2.80047860e-03
      6.18653139e-04 7.00980425e-03 5.76505763e-03 3.33039532e-03
      2.66548595e-03 4.63416381e-03 -4.01732884e-03</_>
    <_>
      -1.01031925e-04 1.43667618e-02 -9.43484064e-03 -2.16182927e-03
      -2.27014814e-02 -5.99893136e-03 4.38802596e-03 -4.02639853e-03
      -1.11996038e-02 -1.00411028e-02 -1.13597489e-03 -1.12925751e-04
      -2.30046455e-03 7.31240259e-03 6.37139706e-03 1.06339417e-02
      1.91984959e-02 -5.90549037e-03 9.94478632e-03 3.01945172e-02
      -5.95910288e-03 -1.36549433e-03 -2.07650512e-02 -3.87661648e-03
      -2.23773699e-02 9.24698543e-03 -2.01220699e-02 -3.84700904e-03
      -5.60180191e-03 -5.42742293e-03 2.27244347e-02 2.32609222e-03
      1.18168481e-01 -3.16459835e-02 -6.85580866e-03 -1.62820169e-03
      -1.11273834e-02 0. -1.72859058e-02 -1.93351414e-02 -2.47731851e-03
      -4.82664350e-03 7.29761124e-02 2.65448708e-02 4.39560448e-04
      -6.96786260e-03 -1.74896675e-03 1.18950149e-03 -4.89699841e-03
      8.84841308e-02 -1.14342328e-02 6.68830890e-03 -4.74527758e-03
      1.28471488e-02 -1.35603789e-02 1.17629105e-02 5.49242133e-03
      -9.46937688e-03 -5.52486221e-04 -8.26051645e-03 5.82973519e-03
      -5.52791776e-03 -1.72332115e-02 5.44389337e-03 5.24320714e-02
      -2.39601303e-02 1.80424377e-02 -2.17784918e-03 -6.07909681e-03
      -2.53147748e-03 5.17703965e-03 3.38883582e-03 -2.07796581e-02
      4.43762774e-03 -5.97668765e-03 8.44253786e-03 -3.82905640e-03
      7.26343924e-03 -9.94895026e-03 9.11105331e-03 -1.34580061e-02
      -1.17897894e-02 4.21609310e-03 3.47423740e-02 -4.41459892e-03
      -4.63665091e-03 -5.10654505e-03 -1.01121124e-02 -5.71472757e-03
      -1.65063702e-02 -9.39530041e-03 -4.19198815e-03 3.69775901e-03
      -3.31142917e-03 -3.73867131e-03 -2.62186234e-03 -4.67100926e-03
      -1.40497768e-02 -2.49024797e-02 2.79306825e-02 -2.06208527e-02
      -4.31237742e-03 0. -3.74021870e-03 3.10568046e-02 3.61503824e-03
      -9.25933826e-04 -3.06799053e-03 -2.98373913e-03 -1.37328031e-02
      -6.86639547e-03 -5.47145586e-03 1.58259086e-02 -6.12503150e-03
      -1.74022093e-02 -8.13008111e-04 -5.94964437e-03 -2.83775688e-03
      3.30564108e-05 6.59740297e-03 -2.73697358e-03 -1.29343607e-02
      -8.31345934e-03 -5.15333982e-03 -5.10751735e-03 -5.66225406e-03
      -2.29651021e-04 1.31157576e-03 -2.83321016e-03 -1.60925537e-02
      1.34787131e-02 -1.80507880e-02 -4.91968682e-03 -3.48144560e-03
      -3.73447634e-04 -6.08579248e-05 -1.24057718e-02 7.72536453e-03
      -8.13008111e-04 -1.51027637e-02 -9.95056005e-04 -1.40426704e-03
      -2.77164392e-03 -2.02507693e-02 -1.92795036e-04 -4.21073288e-03
      -2.83775688e-03 6.31882390e-03 3.61479330e-03 -2.05706172e-02
      -2.15641577e-02 -1.00121396e-02 -1.32547775e-02 1.58444624e-02
      6.24221452e-02 1.07387304e-02 -2.30270927e-03 1.11572715e-02
      -4.60142503e-03 0. -1.30194295e-02 -3.45560862e-03 1.02585857e-03
      -1.25706503e-02 -7.15277100e-04 1.32865049e-02 -4.06504056e-04
      -1.45233441e-02 1.58384964e-02 -4.24059981e-04 5.19320462e-03
      -5.40229073e-03 -1.46560371e-02 1.54463686e-02 -2.44120974e-03
      -7.94001110e-03 -5.85106108e-03 2.43372321e-02 0. 1.20905749e-02
      -3.40391241e-04 8.46656156e-04 -1.14906598e-02 -1.37109384e-02
      -5.81474975e-03 -5.19625749e-03 -8.71191733e-03 -2.00432930e-02
      1.76298199e-03 -2.13689913e-04 -1.48141859e-02 -9.79043893e-04
      1.13486927e-02 7.93267936e-02 -7.77091412e-03 4.56657410e-02
      -7.44060427e-03 -1.33069232e-02 -8.11695680e-03 -1.59748029e-02</_>
    <_>
      -5.11944527e-04 1.71988159e-02 -1.55400774e-02 -1.01437364e-02
      -2.53412453e-03 -4.18020971e-03 -3.42790573e-03 -4.16571321e-03
      -8.10324866e-03 -5.76471903e-05 1.76829309e-03 -1.64126733e-03
      -1.27331074e-02 -1.87180791e-04 6.70043938e-03 1.22572035e-02
      1.71789285e-02 -6.95965160e-03 9.09385178e-03 2.60492284e-02
      -2.62213871e-06 -4.68384067e-04 -2.03956198e-03 -1.63099752e-03
      -5.13536669e-03 1.71129350e-02 -8.55068956e-03 -2.47070775e-03
      -9.94652137e-03 3.52653489e-03 2.61771195e-02 9.64297820e-03
      5.35026491e-02 -2.72444040e-02 -7.10652210e-03 -3.49083566e-03
      -3.85654625e-03 -3.48597998e-03 3.20333336e-03 -1.20766237e-02
      -1.43744226e-03 -1.17402868e-02 6.65811077e-02 2.22344436e-02
      4.39560448e-04 -4.27637203e-03 1.70062594e-02 -1.52094914e-02
      -1.01071382e-02 5.88369258e-02 -1.42570538e-02 1.70849320e-02
      -4.70056571e-03 7.79114943e-03 -4.78919409e-03 1.73058044e-02
      5.50599350e-03 -1.84161793e-02 -9.36768134e-04 -1.37184151e-02
      2.40783044e-03 -2.73298152e-04 2.39715609e-03 0. 2.56671607e-02
      -1.15032429e-02 1.51692750e-02 -2.35489011e-03 5.19921351e-03
      -4.54800669e-03 1.31006530e-02 0. -8.16875510e-03 1.85393412e-02
      -3.29341227e-03 3.32976779e-04 4.39560448e-04 1.31701445e-02
      -3.91007308e-03 5.63963666e-04 -7.91020133e-03 -2.58380710e-03
      9.85699226e-05 2.56668571e-02 -6.96958695e-03 -1.32534551e-02
      -1.73328612e-02 -1.65830888e-02 -5.20955957e-03 -9.99428891e-03
      -9.08599794e-03 -1.23053044e-03 9.22679342e-03 -1.58324023e-03
      -1.56853290e-03 -2.09208508e-03 -9.49187018e-03 -2.74401233e-02
      -1.18290698e-02 1.50848608e-02 3.57868010e-03 -8.92857206e-04
      -4.68384067e-04 -1.45491324e-02 3.56679372e-02 -2.54118047e-03
      -1.84855901e-03 -4.48966678e-03 -2.36115229e-04 -1.52790211e-02
      -9.27301869e-03 -1.62715116e-03 8.35587550e-03 -3.25333118e-03
      -6.08225912e-02 0. -3.00694606e-03 -3.00871534e-03 4.39560448e-04
      -5.90099662e-04 -1.73899555e-03 -1.68737657e-02 -8.08560010e-03
      -3.88124958e-03 -3.87293869e-03 -6.45720260e-03 -2.07017804e-03
      -1.02481758e-02 -7.35487370e-03 -1.80214252e-02 -1.23069407e-02
      -2.22664718e-02 -1.02037638e-02 -1.35730079e-03 4.39560448e-04
      9.74933137e-05 -3.16573214e-03 -7.03822030e-03 0. -2.27586757e-02
      -3.46989790e-03 -3.73559160e-04 3.81913327e-04 -3.36226146e-03
      -1.58268157e-02 -4.35542222e-03 4.39560448e-04 2.53116316e-03
      1.70427002e-02 -1.70602463e-02 -5.95985865e-03 1.46447949e-03
      -4.73893527e-03 2.34152507e-02 5.82251474e-02 -1.95889967e-03
      -5.99571830e-03 -3.39067704e-03 -7.54142739e-03 0. -5.93172340e-03
      -8.68226588e-03 2.72016996e-03 -4.12959792e-03 -9.73531604e-03
      1.20169874e-02 -4.34113294e-03 -1.00236339e-02 1.77441537e-02
      -1.05024454e-04 -1.04939099e-02 -1.02968635e-02 4.86392149e-04
      2.67498959e-02 -2.77658831e-03 -3.19086644e-03 -8.74317810e-03
      1.32204210e-02 0. -1.10612093e-02 8.79120897e-04 -7.22400285e-03
      -5.17880032e-03 -3.80346319e-03 -3.94940551e-04 -4.59930580e-03
      -2.27400335e-03 -1.77990086e-02 1.96611881e-03 -4.57883021e-03
      1.70695246e-03 -6.45311177e-03 9.28970054e-03 8.05020481e-02
      -2.96438625e-03 5.46989106e-02 -5.10943879e-04 -4.38755000e-04
      -2.42204196e-03 -5.76471903e-05</_>
    <_>
      -3.65629327e-03 5.66672673e-03 2.12765951e-03 -1.03258658e-02
      -2.57967208e-02 -1.19184591e-02 1.97051209e-03 -7.27896066e-03
      -9.11007170e-03 -8.53735674e-03 -6.95820153e-03 -2.31044879e-03
      -4.89606615e-03 3.74466763e-03 -9.84050240e-03 6.73632044e-03
      1.43281873e-02 -3.66937160e-03 -3.11331544e-03 2.73788758e-02
      2.22738809e-03 -2.28347862e-03 2.02989858e-03 -1.31108128e-02
      -9.87346843e-03 2.04991605e-02 -2.03998964e-02 6.60225749e-03
      -4.18735901e-03 -1.00324890e-02 2.31902469e-02 6.46976847e-03
      1.26538321e-01 -3.10431402e-02 -1.72635578e-02 -7.77661242e-03
      -1.40563259e-02 -2.38236971e-03 -4.86429548e-03 9.09833331e-03
      -9.14284959e-03 -2.27748808e-02 7.59413838e-02 4.42078412e-02
      4.39560448e-04 -9.81010683e-03 1.89346708e-02 2.29883287e-03
      -6.64759055e-03 9.09369886e-02 -3.57542397e-03 6.36514043e-03
      -8.01712275e-03 1.10992324e-02 -1.33532928e-02 -2.08381005e-03
      -3.04403598e-03 1.17498543e-02 -6.76592719e-03 -1.66578852e-02
      3.78581020e-03 -4.62497631e-03 -6.02397742e-03 -1.09400917e-02
      4.53378819e-02 -1.61530655e-02 2.77686864e-02 -3.13576148e-03
      1.93836435e-03 -7.86374416e-03 8.55921768e-03 -5.75595628e-03
      -8.07887129e-03 1.88110396e-02 -1.08500766e-02 -9.22592357e-03
      -1.19016587e-03 2.52250619e-02 -1.39073655e-02 8.55690427e-03
      -9.05964803e-03 -2.04373486e-02 1.44968319e-04 3.51588428e-02
      -1.44016463e-02 -3.48906941e-03 -2.85763713e-03 -5.58149349e-03
      -1.36593888e-02 -1.31554753e-02 -7.20771682e-03 -1.23186568e-02
      1.44423395e-02 -2.29915325e-03 -1.00013334e-02 -5.67645673e-03
      2.59783817e-03 -2.42896727e-04 -1.39323517e-03 2.60594916e-02
      -1.96566321e-02 -2.42766347e-02 -1.53251849e-02 -2.47270404e-03
      2.92996746e-02 9.21569020e-03 -1.65453553e-03 -1.38494177e-02
      -3.08993435e-03 -6.12219097e-04 -1.11740874e-02 -1.77110347e-03
      2.63218116e-02 -7.08379783e-03 -2.42821835e-02 -3.42697534e-03
      -3.74192954e-03 1.93923715e-05 -5.11599518e-03 9.43388604e-03
      -5.21023944e-03 -1.46643799e-02 -5.26433159e-03 -1.50721837e-02
      -4.03274503e-03 -2.09482200e-02 -7.64100300e-03 -5.33527602e-03
      -5.08395815e-03 -1.36862537e-02 1.06248735e-02 -8.25574622e-03
      -5.63508878e-03 -1.54428044e-02 -1.34611421e-03 -5.69980592e-03
      -1.67293020e-03 -1.35124968e-02 -5.31914877e-04 -6.30358467e-03
      -7.82110449e-03 -1.03804457e-03 -6.10967167e-03 -1.20797856e-02
      -5.56664076e-03 -1.28133995e-02 -1.60819315e-03 -6.16256613e-04
      3.42098884e-02 -7.45941186e-03 -4.05625207e-03 -6.98527507e-03
      -5.08143101e-03 3.02989464e-02 5.78970127e-02 1.15997263e-03
      -1.51375439e-02 1.76770650e-02 -1.67500917e-02 0. -2.01224443e-03
      -2.73674238e-03 4.43982426e-03 -1.11769279e-02 -1.00115277e-02
      1.07549243e-02 0. -1.01324348e-02 1.96108837e-02 -8.32674373e-03
      -6.01584977e-03 -1.31805539e-02 -6.14164444e-03 1.82038266e-02
      -3.98225151e-03 -1.55695183e-02 -1.35537051e-02 2.00553741e-02 0.
      -5.23539353e-03 -4.88576572e-03 -6.63202256e-03 -8.84995051e-03
      -8.38775095e-03 -8.09209887e-03 -9.61086527e-03 -7.08977738e-03
      -6.60533970e-03 -1.63789722e-03 1.07536819e-02 -5.46193332e-04
      -9.06911120e-03 9.50187631e-03 7.96704814e-02 -3.78875178e-03
      5.86414672e-02 -1.40808690e-02 -1.85945425e-02 -4.43168962e-03
      -1.42956069e-02</_>
    <_>
      7.18440861e-05 5.09683229e-03 0. -3.08218412e-03 -1.28457742e-03
      -2.78640888e-03 -2.04611327e-02 1.00732606e-03 8.79120897e-04
      -1.30145426e-03 3.38073703e-03 -2.19616909e-02 7.33928429e-03
      1.31868140e-03 1.39458179e-02 9.55433492e-03 1.76905841e-02
      4.39560448e-04 1.73128694e-02 2.74509806e-02 2.17134878e-02 0.
      6.01450866e-03 -9.80423577e-03 -1.59220526e-03 9.84225608e-03
      -1.87465304e-03 -2.60501076e-02 3.57142882e-03 4.09731222e-03
      5.12070442e-03 -1.67118274e-02 1.85058862e-02 -6.61516562e-04
      -2.64171464e-03 1.31868140e-03 -2.88487622e-03 -1.19047624e-03
      -3.37039633e-03 1.26557974e-02 -5.16434666e-04 4.39560448e-04
      -2.31779534e-02 4.00064688e-04 4.39560448e-04 2.77014740e-04
      -2.13878769e-02 8.79120897e-04 -1.98019808e-03 -1.14658941e-03
      -1.83511595e-03 7.69005530e-03 1.58730173e-03 6.64582197e-03
      -1.07159959e-02 7.55214319e-03 5.30823227e-03 -1.85275003e-02 0.
      8.79120897e-04 2.17506941e-03 1.28205211e-04 4.17858874e-03
      -9.90099041e-04 5.70151620e-02 -3.90151516e-03 1.16332164e-02
      6.07392611e-03 1.21104671e-03 -2.18057516e-03 5.37900999e-03
      8.69565271e-03 8.79120897e-04 9.65841766e-03 -7.72494648e-04
      -7.99240638e-03 4.39560448e-04 -1.27865467e-02 8.79120897e-04
      5.50338579e-03 8.79120897e-04 -2.30978262e-02 2.63736281e-03
      5.98185090e-03 -2.91461404e-03 -1.04166672e-03 -1.92915986e-03 0.
      -4.19919146e-03 1.03676319e-03 -2.48138476e-02 1.28205211e-04
      -1.29785752e-02 -7.50915729e-04 -1.72413792e-03 -7.50915729e-04
      3.07692331e-03 8.79120897e-04 -8.94354284e-03 2.04970427e-02
      3.03696305e-03 -1.72413792e-03 -1.72413792e-03 -1.22954398e-02
      1.07674114e-02 3.47652356e-03 -1.37862132e-03 2.41540652e-03
      4.39560448e-04 1.19502200e-02 -1.21850604e-02 4.39560448e-04
      1.01822363e-02 1.31868140e-03 -2.37978864e-02 0. -1.59894265e-02
      -7.50915729e-04 4.39560448e-04 6.43383758e-03 -1.90728810e-03
      -7.28871254e-03 -5.50538534e-04 4.39560448e-04 1.28205211e-04
      -5.16736135e-03 3.41039158e-05 -4.71377233e-03 0. 2.56410264e-03
      -1.05804671e-02 1.88922195e-03 -1.10978071e-04 1.80651987e-04
      -1.54063758e-03 -1.30145426e-03 2.04408937e-03 -1.74101477e-03 0.
      -5.50538534e-04 8.51250254e-03 -1.44744869e-02 1.31868140e-03
      3.40550556e-03 -1.39555545e-03 4.39560448e-04 -7.50915729e-04
      -3.37504921e-03 -1.07846013e-03 -3.07343248e-03 -1.70413591e-03
      3.79531411e-03 -3.44827585e-03 -2.15641242e-02 3.22496565e-03
      1.65083999e-04 -2.58603180e-03 -2.32137851e-02 -4.79624560e-03 0.
      -3.32831638e-03 0. -1.09944225e-03 -1.20515143e-02 4.17737203e-04
      8.50704871e-03 0. 0. 1.50664588e-02 2.63736281e-03 -3.16407619e-04
      -5.82922809e-03 -5.50538534e-04 1.66233666e-02 -9.48275905e-03 0.
      -8.45017028e-04 1.30707202e-02 0. -1.11054331e-02 8.79120897e-04
      7.35867675e-03 4.39560448e-04 4.25985781e-03 3.07692331e-03
      -8.92692618e-03 -4.16077301e-03 -6.14240998e-03 5.57853933e-03
      1.64625179e-02 4.01376421e-03 -4.61309543e-03 -1.32408943e-02
      1.37293926e-02 -2.27467646e-03 2.35854182e-02 3.28582420e-04
      2.63736281e-03 -9.90099041e-04 -6.67424500e-03</_>
    <_>
      3.80421546e-03 9.12130345e-03 8.99688675e-05 -8.90458096e-03
      -3.03870020e-03 -2.28099572e-03 7.12398719e-03 -4.32803109e-03
      -5.11940522e-03 -4.77714697e-03 -4.30004729e-04 -8.29234254e-03
      -1.20442268e-02 -3.47786560e-03 -8.19413178e-03 1.40781449e-02
      1.06551088e-02 1.57851522e-04 4.62066149e-03 2.00970843e-03
      -2.59913970e-03 0. 3.18415905e-03 -3.99532821e-03 -1.29956985e-03
      1.56551711e-02 -6.14967104e-03 1.12283221e-02 -5.95431076e-03
      1.32823712e-03 2.59256698e-02 8.71662889e-03 4.75460887e-02
      -1.17168324e-02 -2.80830287e-03 -6.88591460e-03 -1.05843856e-03 0.
      -1.29001425e-03 1.65882818e-02 -1.08344462e-02 -7.78043224e-03
      3.83688845e-02 3.20054255e-02 4.39560448e-04 -5.67333261e-03
      1.58419367e-02 4.21245443e-03 -1.64451394e-02 4.08850089e-02
      -7.55147403e-03 1.14442604e-02 -2.53968267e-03 1.47607950e-02
      -1.73913036e-03 4.54555266e-03 1.64395338e-03 5.01060393e-03
      -1.69491523e-03 -6.99899159e-03 -7.20332842e-03 1.31868140e-03
      -1.01945866e-02 1.21673883e-03 2.04969980e-02 -7.64922611e-03
      1.47472564e-02 2.27336539e-03 1.79937735e-04 -3.91713763e-03
      1.17860511e-02 0. -8.15794338e-04 1.55316191e-02 -2.48128688e-03
      9.12896823e-03 4.39560448e-04 1.51148587e-02 -2.97241695e-02
      7.91441090e-03 -1.16006453e-02 -4.02666489e-03 1.53068174e-03
      2.36623324e-02 -1.06358007e-01 0. -2.55492469e-03 -5.99852623e-03
      -1.31528378e-02 3.63646221e-04 -3.38983047e-03 -3.15498300e-02
      1.10924086e-02 -6.91162283e-03 -2.60869553e-03 -1.60125585e-03
      -3.80668347e-03 -3.42448987e-03 -2.56410160e-04 2.03005504e-02
      4.04706411e-03 -2.56448053e-03 -6.16780063e-03 4.02264437e-03
      3.00270990e-02 7.90992659e-03 -2.95026996e-03 -6.14959933e-03
      4.39560448e-04 6.24486664e-03 -8.17653351e-03 -4.69304342e-03
      1.39475735e-02 -9.27263219e-03 -1.84590872e-02 0. 1.75824179e-03
      -1.25535484e-03 -9.98725835e-03 1.28960423e-02 1.56985974e-04
      -7.21330848e-03 -6.72983890e-03 -1.31776361e-02 1.31868140e-03
      -1.81819201e-02 -6.32493757e-03 5.56776579e-03 0. -7.89153483e-03
      1.59127787e-02 2.89932289e-03 -6.29429892e-03 7.17736490e-04
      4.39560448e-04 -1.51600819e-02 2.90588848e-03 -8.77051894e-03 0.
      4.39560448e-04 1.32823712e-03 9.23145388e-04 1.31868140e-03
      -1.18077621e-02 1.31868140e-03 -1.25535484e-03 4.39560448e-04
      5.67843392e-03 2.01559383e-02 0. -8.46328139e-02 -8.68654985e-04
      -4.30361088e-03 2.13365499e-02 3.24616954e-02 1.30792614e-02
      -5.85071789e-03 1.34593491e-02 -4.44793282e-03 0. -1.46520149e-03
      0. 7.28759100e-04 -7.79596332e-04 -3.56918969e-03 1.66313257e-02
      -2.56410264e-03 -1.45205827e-02 1.12901554e-02 -1.36964300e-04
      6.97641587e-03 -8.69565178e-04 -2.86030117e-03 1.78987365e-02
      -1.88232157e-02 -4.81514353e-03 -5.79024553e-02 1.28488755e-02 0.
      7.08590541e-03 -8.60009459e-04 -3.68044421e-04 -2.16913526e-03
      -1.29001425e-03 -2.74497620e-03 -5.28867962e-03 -2.56448053e-03
      -8.99627618e-03 -4.78205504e-03 8.53027124e-03 4.67758626e-03
      -1.27158535e-03 7.07563013e-03 4.84350696e-02 -7.80925062e-03
      3.30297425e-02 -3.15056089e-03 -9.28678829e-03 -3.91303636e-02
      -1.07153058e-02</_>
    <_>
      2.59375456e-03 6.84391055e-03 -2.19369307e-02 -1.53431902e-02
      -1.09220203e-02 -5.98133728e-03 2.95682228e-03 -9.17075761e-03
      -1.90737005e-02 -2.14274484e-03 -9.34911706e-03 -5.21978014e-04
      -7.17414077e-03 -4.38659498e-03 5.13297273e-03 3.52262962e-03
      2.02641040e-02 -3.69385779e-02 1.77871401e-03 3.20040025e-02
      -3.15298326e-03 -5.61535265e-03 -1.91595852e-02 -7.26326182e-03
      -1.64268799e-02 1.66232139e-02 -9.33991466e-03 9.00878478e-03
      -8.39214772e-03 -1.48119284e-02 2.33620647e-02 -1.13593759e-02
      1.09675154e-01 -1.59448863e-03 -1.00099500e-02 -3.19409859e-03
      -1.01728248e-03 -3.63088422e-03 -7.56816613e-03 5.39484667e-03
      -5.84071968e-03 -7.56742898e-03 6.57231361e-02 3.84481139e-02
      -3.06708185e-04 -1.79291554e-02 1.18834907e-02 4.21245443e-03
      -4.36939672e-03 8.49601403e-02 -4.43322025e-03 9.77290329e-03
      -3.56694893e-03 -8.47145636e-03 -1.28874453e-02 1.72783416e-02
      -2.98584066e-03 -4.25019721e-03 -5.35920588e-03 -2.73460988e-03
      7.59388320e-03 -9.89431064e-05 -2.66036345e-03 2.60775955e-03
      4.25561108e-02 -1.07910633e-02 2.46086363e-02 -8.82604811e-03
      -1.61366956e-03 -2.25095777e-03 4.31964733e-03 0. -1.71200428e-02
      1.83149409e-02 -3.51165980e-03 1.04906317e-02 4.39560448e-04
      -6.84584118e-03 -5.42875240e-03 8.30652658e-03 -7.60625210e-03
      -9.46226623e-03 -4.26843669e-03 2.97690276e-02 -7.35897571e-03
      -4.98726964e-03 -9.62185673e-03 -7.64229428e-03 -1.03931138e-02
      2.67451932e-03 -4.55537299e-03 -4.16165637e-03 1.17164925e-02
      -1.67154279e-02 -6.13496930e-04 -9.72123723e-03 -8.67247581e-03
      -1.36951376e-02 -1.91701967e-02 2.33147237e-02 -3.42621631e-03
      -1.23931631e-03 -8.33333354e-04 -1.00708436e-02 1.81608293e-02
      6.88469410e-03 -2.37004273e-03 3.73016665e-04 -1.66182476e-03
      -9.16234404e-03 -3.11310915e-03 -2.85077229e-04 2.08112802e-02
      -6.22679014e-03 -2.55912282e-02 -8.91274714e-04 -9.10268724e-03
      -5.21978014e-04 4.39560448e-04 -8.36153340e-04 -7.96698127e-03
      -1.88631017e-03 -1.29097039e-02 -6.29412057e-03 -9.28051211e-03
      -7.00409198e-03 -8.86376540e-04 1.69602572e-04 -7.24637706e-04
      2.02712807e-04 2.84613064e-03 -1.63673703e-02 -4.21539415e-03
      -5.05848136e-03 -5.21978014e-04 -1.12759136e-02 -2.20781285e-03
      -4.62238770e-03 0. -2.63396222e-02 -1.27461562e-02 -1.59299951e-02
      -8.14603362e-03 -1.29138734e-02 -4.31220280e-03 -7.96020124e-03
      -4.51714237e-04 -1.36542728e-03 1.11921038e-02 -1.10891704e-02
      -5.37643163e-03 -6.57100044e-03 -2.40836875e-03 2.39500795e-02
      6.19958863e-02 -2.88265385e-03 -3.71677103e-03 -7.43573823e-04
      -3.20639135e-03 0. -5.96084679e-03 0. -9.93318297e-03
      -1.22187128e-02 -1.17014674e-02 6.99094450e-03 -1.70634920e-03
      -1.13425674e-02 1.89690404e-02 -1.09673953e-02 -7.39882188e-03
      -5.23374043e-03 -7.39736576e-03 1.37985731e-02 -1.03415009e-02
      -7.83045031e-03 -3.94044211e-03 8.58976506e-03 0. 2.25784071e-03
      -5.33012580e-03 7.99593329e-03 -2.34540435e-03 -4.57080873e-03
      -2.57887598e-03 -3.77032836e-03 -1.06565282e-02 -2.36541242e-03
      -1.48833338e-02 4.58180113e-03 6.62642904e-03 -3.22277332e-03
      9.78574716e-03 8.03349689e-02 -6.18226128e-03 5.80027364e-02
      -7.78853148e-03 -2.13644910e-03 -1.21846199e-02 -2.43693567e-03</_>
    <_>
      -9.85013600e-03 5.47399884e-03 2.12765951e-03 -5.11858007e-03
      -1.22958114e-02 -6.07567839e-03 7.84245040e-03 -3.34636122e-03
      -7.55898235e-03 -1.44411135e-03 -1.41879870e-02 -1.30286382e-03
      -8.97855964e-03 6.47105929e-03 -1.82555299e-02 3.45338765e-03
      1.74002610e-02 -3.13533004e-03 2.59910035e-03 3.02468706e-02
      -2.46671271e-02 -6.06060610e-04 -7.16857892e-03 -3.11070378e-03
      -6.34756451e-03 1.38403140e-02 -2.52744872e-02 1.09365080e-02
      -5.38125634e-03 -1.16068954e-02 2.54445430e-02 8.67339224e-03
      1.02659553e-01 -1.29085779e-02 -1.19276084e-02 -4.11513597e-02
      -1.74174123e-02 -7.86960125e-03 -1.42064495e-02 1.85990464e-02
      -1.26604602e-04 -3.89248179e-03 6.38982654e-02 3.49268056e-02
      -7.23230245e-04 -1.46673527e-02 1.83472801e-02 1.20493560e-03
      -1.74242421e-03 6.99236766e-02 -9.46062431e-03 1.46762924e-02
      4.50938009e-04 1.24994796e-02 -1.54918553e-02 1.13720782e-02
      -4.13066987e-03 -4.28308500e-03 -1.16161618e-03 -1.98261533e-02
      6.72096433e-03 -4.50169842e-04 -3.97061376e-04 -5.19928942e-03
      4.23603207e-02 -2.06544921e-02 3.08574159e-02 -1.18777435e-02
      -1.85329909e-03 -4.42060223e-03 1.11606466e-02 -3.70370364e-03
      -1.05617661e-02 3.92888498e-04 -4.53948887e-04 3.62531678e-03
      4.39560448e-04 2.31907722e-02 -1.39478093e-03 4.24232380e-03
      -1.52172968e-02 -6.12038979e-03 -3.97419697e-03 1.88200213e-02
      -1.59642883e-02 -1.11111114e-03 -2.00201594e-03 -9.50051565e-03
      -3.72875272e-03 -2.57731345e-03 -3.53298034e-03 -2.46943347e-03
      9.70667414e-03 -7.40493182e-03 -1.21263722e-02 -2.81942589e-03
      -2.21044663e-03 -2.40839971e-03 3.00033321e-03 3.04069258e-02
      1.16592715e-03 -5.11249714e-03 -1.09936325e-02 1.79572974e-03
      1.67769939e-02 6.67984877e-03 -2.17531016e-03 -9.84829850e-04
      -1.34615391e-03 -2.85227085e-03 -8.25205073e-03 -1.83434132e-03
      2.53206864e-02 -1.22364862e-02 -3.75150256e-02 -4.72586509e-03
      -1.29492525e-02 -6.96803210e-04 4.39560448e-04 4.97308746e-03
      -6.21128874e-03 -3.39905941e-03 -6.43546507e-03 -2.71584559e-02
      -9.31396708e-03 -1.66229100e-03 -3.44730215e-03 5.56776579e-03
      -5.55555569e-04 5.12820529e-03 8.77126586e-03 -9.59836226e-03
      -2.63097999e-03 -1.14282910e-02 -5.20323962e-03 1.86182919e-03
      3.63718835e-03 -8.07142630e-03 -7.51879718e-03 -7.27384072e-03
      -8.75166245e-03 -1.15357647e-02 7.63125834e-04 8.49821663e-04
      -7.35312840e-03 -6.64969953e-03 -1.10107951e-03 -2.02233121e-02
      3.61760370e-02 -1.23962862e-02 -3.15255038e-02 4.11547662e-04
      -2.25478373e-02 1.51305851e-02 5.56233376e-02 2.96449545e-03
      -1.17515000e-02 9.35538206e-03 -6.64863782e-03 0. -1.95221452e-03
      0. 2.47606146e-03 -1.77978016e-02 -5.91415027e-03 -6.79300516e-04
      -1.21212122e-03 -3.78811476e-03 1.17748659e-02 -2.91999662e-03
      5.96970692e-03 -1.13121178e-02 -5.90987923e-03 2.38735676e-02
      -9.24458820e-03 -3.48484842e-03 -2.13912334e-02 4.24211891e-03 0.
      6.74191583e-03 -1.41885888e-03 5.88622270e-03 -7.93640967e-03
      -7.04218447e-03 -5.98297222e-03 -7.23139616e-03 -1.05315726e-02
      -4.33196779e-03 -1.77345127e-02 4.16271994e-03 7.03241210e-03
      -2.25316975e-02 -3.19094164e-03 7.65728578e-02 -3.67540237e-03
      5.97283989e-02 -3.39355925e-03 -9.89542622e-03 -1.49035637e-04
      -2.62912977e-02</_>
    <_>
      1.55887479e-04 1.74633767e-02 -2.28020009e-02 -9.98095330e-03
      -1.21680703e-02 -2.87812273e-03 6.88766735e-03 -1.21951220e-03
      -7.44664250e-03 -2.97626597e-03 -2.84845978e-02 4.39560448e-04
      5.96428476e-03 -2.23254226e-03 9.55758244e-03 1.60683319e-03
      2.41995808e-02 -4.66247909e-02 3.49109177e-03 2.21276600e-02
      -2.16282289e-02 0. -1.33315111e-02 2.19780297e-04 -7.89897703e-03
      1.19629847e-02 -6.55736448e-03 1.20663503e-02 -2.50735180e-03
      2.74432614e-03 1.88112892e-02 -2.27134135e-02 6.06015027e-02
      -1.12034287e-03 -4.74611390e-03 -1.13986083e-03 3.08363535e-03
      -2.20376416e-03 -6.82101259e-03 2.25561038e-02 -4.89992509e-03
      4.39560448e-04 6.11680374e-02 4.61046621e-02 4.39560448e-04
      -2.35146098e-03 1.39257610e-02 4.01560403e-03 -1.01114791e-02
      7.39016160e-02 -3.40170506e-03 6.08735764e-03 -1.38555234e-03
      3.20877368e-03 -1.46824457e-02 1.87831130e-02 3.51218460e-03
      -2.40374822e-02 -1.96850393e-04 -1.43929233e-03 6.67479681e-03
      1.12183101e-03 4.53332020e-03 -2.70420220e-03 2.94933189e-02
      -1.32603804e-02 9.39380750e-03 -4.21279436e-03 -4.91987960e-03
      -1.96850393e-04 4.20394307e-03 -2.15621069e-02 -1.93538405e-02
      9.80146695e-03 -1.86604098e-03 1.39783528e-02 4.39560448e-04
      -5.28997555e-03 -3.40391241e-04 2.13222881e-03 -2.19956376e-02
      -2.71841232e-03 -1.04811601e-02 2.26678010e-02 -3.99551587e-03 0.
      -7.17796152e-03 -1.09890115e-03 -8.65134876e-03 6.59479527e-04
      -2.59150309e-03 -1.18867040e-03 1.16003845e-02 -6.34874683e-03
      -1.96850393e-04 -9.77545418e-03 -3.57804797e-03 -5.48018375e-03
      -1.12549374e-02 9.37584136e-03 2.29267823e-03 -1.96850393e-04 0.
      -2.49620108e-03 3.36530730e-02 9.75076761e-03 -1.30204437e-02
      -3.60417366e-03 4.39560448e-04 -8.63303430e-03 -5.24171395e-03
      2.42710070e-04 2.18740366e-02 -9.99731827e-04 -4.94446605e-03
      -1.96850393e-04 -2.91686784e-03 -1.58410110e-02 -2.38525285e-03
      -2.15707812e-03 -2.41222049e-04 -1.72429346e-02 -7.23230245e-04
      -1.75824179e-03 -9.09574144e-03 -2.70431992e-02 6.59340702e-04
      3.94174969e-03 0. 5.12820529e-03 8.65313131e-03 -2.26543732e-02
      -5.04554529e-03 4.13477747e-03 -6.59340643e-04 -3.86663625e-04
      -7.92906992e-03 -2.85714306e-03 -4.59037581e-03 -1.14533799e-02
      -3.49209365e-03 -2.60660555e-02 -4.30777902e-03 -5.32328896e-03
      -5.68111078e-04 -5.40691661e-03 4.39560448e-04 5.62057318e-03
      1.31878890e-02 -9.75431688e-03 -1.88642647e-02 -1.81273138e-03
      -4.03641351e-03 -4.19396069e-03 5.62643632e-02 1.15489345e-02
      -8.79120838e-04 -2.29979660e-02 -8.08219332e-03 0. -5.25762839e-03
      -1.40845065e-03 -1.08168460e-02 3.17596190e-04 -2.48678774e-02
      3.94015992e-03 -1.20759839e-02 -4.03383514e-03 1.95968933e-02
      -3.68696591e-03 1.81023602e-03 -1.08930608e-02 8.77767685e-04
      2.01425198e-02 -2.35433690e-03 -1.54075194e-02 -1.04311053e-02
      -1.57580040e-02 0. -3.09488061e-03 6.82270504e-04 9.29980632e-03
      -4.00637742e-03 1.10520411e-03 -1.20452186e-03 -1.07224723e-02
      -1.16279069e-03 -4.64694481e-03 -4.90771513e-03 4.20062803e-03
      -4.49395133e-03 -2.79535120e-03 3.23700579e-03 7.39088729e-02
      -1.90976132e-02 5.04008159e-02 -2.59712106e-03 -2.79925135e-03
      -1.48036955e-02 -5.30184712e-03</_>
    <_>
      4.82889405e-03 1.09601999e-03 1.06382975e-03 -7.03296682e-04
      -7.77472556e-03 -8.42092838e-03 7.84245040e-03 -2.09478871e-03
      -4.51397197e-03 -2.84507382e-03 -3.22384201e-03 -4.13048733e-03
      -8.75657983e-03 -3.53420014e-03 6.36609271e-03 5.82880247e-03
      3.72258225e-03 -5.40304114e-04 9.30014439e-03 1.34909358e-02
      9.28835571e-03 0. -2.90162070e-03 -2.54195789e-03 -5.25736669e-03
      2.23333226e-03 -4.51591797e-03 7.89970439e-03 -1.20558413e-02
      1.25440606e-03 9.31893010e-03 1.13822827e-02 8.45016986e-02
      -5.57122426e-03 -1.42269768e-02 -2.03051325e-03 -8.24261177e-03
      -9.15630069e-03 -2.02191621e-03 1.99918300e-02 -2.73538157e-02
      -1.74623181e-03 4.48270440e-02 3.87205370e-02 4.39560448e-04
      -2.86176964e-03 7.60468002e-03 3.46057466e-03 -1.05229970e-02
      1.03162311e-01 -1.74416527e-02 1.30480584e-02 -4.68376046e-03
      2.08882466e-02 -1.36380261e-02 1.50120612e-02 -1.89887825e-02
      5.54044871e-03 -1.59812141e-02 -6.35588262e-03 -1.11214258e-02
      -1.85078010e-04 -7.91742653e-03 5.69903012e-03 5.44423647e-02
      -4.15852480e-03 -5.10402434e-02 2.44078622e-03 -1.58054754e-04
      -1.26926964e-02 8.85923021e-03 -2.74515757e-03 -1.07791787e-02
      2.19505327e-03 -6.15934050e-03 1.73945259e-02 -4.68864478e-03
      1.75066702e-02 -1.95901212e-03 -6.44914247e-03 -5.75284380e-03
      -1.45461783e-02 -3.72633152e-03 2.25431751e-02 -2.86553185e-02
      -7.81892985e-03 -7.02634337e-04 -2.92974003e-02 -1.25571550e-03
      3.02656065e-03 -3.42719047e-03 -5.66299725e-03 -2.33047968e-03
      -4.14669281e-03 -1.99999996e-02 -4.68290597e-03 -7.03994650e-03
      8.79120897e-04 1.92674017e-03 2.89363377e-02 -2.63552088e-03
      -8.42496660e-03 -8.29875586e-04 6.24486664e-03 2.07828823e-02
      2.12894590e-03 -1.95604395e-02 -6.67920383e-03 4.39560448e-04
      4.35012951e-03 -9.43396240e-04 -4.68864478e-03 2.78057605e-02
      -6.63731201e-03 -1.76688433e-02 -4.18045092e-03 -2.18842514e-02
      4.39560448e-04 4.39560448e-04 1.11346152e-02 -4.35995776e-03
      -2.15181112e-02 -8.13124888e-03 -3.43032777e-02 -6.74596464e-04
      -2.47079227e-03 -5.48017619e-04 5.56776579e-03 -1.14285713e-03
      -2.66957190e-03 2.00732481e-02 -2.42160656e-03 -4.52218298e-03
      -3.03127784e-02 -5.37188537e-03 -1.80258267e-02 -5.08799509e-04
      -1.67639030e-03 -3.03759403e-03 -1.52634189e-03 6.94042828e-04
      4.67133336e-03 -2.28316952e-02 -1.15895150e-02 -1.85078010e-04
      -7.28382589e-03 -8.01837712e-04 8.15980230e-03 2.47182734e-02
      -6.43503014e-03 -1.68959685e-02 -5.30539686e-03 -3.55268829e-02
      1.52185876e-02 5.41475341e-02 7.88412616e-03 -4.83312132e-03
      1.37809021e-02 -5.35139069e-03 0. -5.31231938e-03 -8.29875586e-04
      -1.28561603e-02 -7.35076331e-03 -3.28793912e-03 7.39547843e-03
      -8.29875586e-04 -1.88679248e-03 7.22148470e-05 -1.07231596e-02
      -2.37839064e-03 -2.10679858e-03 -1.35528808e-03 2.21814252e-02
      -3.71734699e-04 -1.77327183e-03 -7.13309692e-03 5.16021857e-03 0.
      6.51883846e-03 1.27241205e-04 -5.71638299e-03 -6.10460062e-03
      1.31868140e-03 4.73775901e-04 -1.75185353e-02 -1.61688700e-02
      -1.83392242e-02 -8.03003833e-03 3.78082320e-03 3.31469579e-03
      -1.28383937e-04 -2.86420132e-03 7.35318810e-02 -7.89803453e-03
      5.58993705e-02 -1.59942992e-02 1.80645578e-03 -2.23232098e-02
      -8.16155050e-04</_>
    <_>
      -6.77371514e-04 1.14191417e-02 -2.32600071e-03 -8.43487494e-03
      -1.34881930e-02 -1.25098554e-02 7.11741392e-03 -4.75426158e-03
      -9.34792683e-03 -7.10852211e-03 7.39167852e-04 -3.57300453e-02
      -8.56277253e-03 2.49580760e-03 5.49718179e-03 -6.82967831e-04
      2.08219457e-02 -3.53759225e-03 3.35558760e-03 -7.82980770e-03
      -7.02707376e-03 -1.44754560e-03 -4.04385328e-02 -8.53152853e-03
      -3.61105707e-03 2.16211136e-02 -5.51974820e-03 4.46539139e-03
      -1.74453277e-02 -1.30029017e-04 2.12760661e-02 5.13128797e-03
      1.30257234e-01 -4.65699937e-03 -7.78162153e-03 -1.28864194e-04
      -1.39227705e-02 -3.47458874e-03 -2.78703962e-03 2.11053174e-02
      -4.96032834e-03 -1.40481058e-03 6.79668710e-02 4.09615114e-02
      4.39560448e-04 -4.67239367e-03 1.64993946e-02 2.12912099e-03
      -9.78468638e-03 7.14035034e-02 -3.95922922e-03 1.24951256e-02
      -3.44094704e-03 -5.62684191e-03 -6.90908730e-03 1.85260437e-02
      -1.99399819e-03 -1.95557959e-02 -5.14138839e-04 -9.70169902e-03
      -2.80351203e-04 -3.47606675e-03 -3.29521578e-03 6.00666692e-03
      3.13036330e-02 -3.86849442e-03 2.86656413e-02 -1.51445493e-02
      -9.70660523e-03 -3.60595621e-03 1.44170374e-02 -1.58730173e-03
      -1.87144242e-02 1.17068999e-02 -6.79915305e-03 1.46671953e-02
      4.39560448e-04 1.06793945e-03 -1.26485946e-02 2.13741930e-03
      -1.86226945e-02 -6.23284024e-04 -2.34084972e-03 2.72509530e-02
      -8.04375950e-03 -3.81609728e-03 -4.21357527e-03 -1.81956938e-03
      -1.66188006e-03 5.36019541e-03 -1.39788929e-02 -8.74604471e-03
      4.40859701e-03 -3.15084239e-03 0. -7.51615502e-03 -5.08861095e-02
      -3.98686901e-03 2.62515270e-03 2.36291829e-02 3.26581416e-03
      -5.46154194e-03 -1.44754560e-03 1.99276581e-03 2.15882882e-02
      -1.83088817e-02 -5.33293933e-04 -5.72770648e-03 -1.05008297e-03
      -6.59404183e-03 -8.49124603e-03 -2.42502289e-03 2.42316872e-02
      -1.39801130e-02 -2.53315475e-02 -1.19047624e-03 -5.39359644e-05
      -1.66936079e-03 4.39560448e-04 1.51155132e-03 1.41246986e-04
      -1.26446299e-02 -1.18620265e-02 -8.57049134e-03 -7.71803642e-03
      -1.06007271e-02 1.04245683e-03 3.91857373e-03 -6.59012794e-03
      -1.90768782e-02 1.16539337e-02 -8.97706300e-03 -9.11531691e-03
      -5.87479491e-03 -5.89724537e-03 -9.53412894e-03 -1.45998569e-02
      6.57941028e-03 -1.96208358e-02 -3.01022665e-03 -2.04690685e-03
      -9.60347895e-03 -4.35422960e-04 -7.18538836e-03 -4.33502300e-03
      -1.04936790e-02 -1.54164690e-03 -7.56525761e-03 3.23867276e-02
      -1.14117377e-02 -4.82215639e-03 -1.38226440e-02 -7.33230449e-03
      1.96321532e-02 6.51769489e-02 4.38614935e-03 -5.11198118e-03
      1.10239154e-02 -1.02282995e-02 0. -3.86430998e-03 -2.91461404e-03
      -1.74784334e-03 -5.08964434e-03 -3.66326934e-03 1.84781719e-02
      -1.42857141e-03 -5.80360647e-03 1.72150768e-02 -3.32227279e-03
      5.71200019e-03 -4.58715571e-04 -4.26421221e-03 1.37512954e-02
      -5.58829214e-03 -3.53575777e-03 -1.12795960e-02 1.01731587e-02
      -3.33333341e-03 1.47016486e-02 8.79120897e-04 7.06077833e-03
      -1.84601210e-02 -3.77026154e-04 -3.65067855e-03 -1.68825202e-02
      -6.57789968e-03 -6.91570668e-03 -2.48669256e-02 3.48186912e-03
      -2.38558594e-02 -1.80764752e-03 4.67412453e-03 7.79380351e-02
      -8.80446285e-03 9.72745474e-03 -3.12237348e-03 -7.86776748e-03
      -9.85950232e-03 -7.98787456e-03</_>
    <_>
      6.49691420e-03 1.35462368e-02 -6.89241861e-04 -2.19827667e-02
      -4.41923877e-03 -2.72347894e-03 -8.86185589e-05 -9.88492975e-04
      -2.19260040e-03 8.79120897e-04 2.08203564e-03 -8.61769728e-03
      3.10474937e-03 2.46371841e-03 -4.50792629e-03 7.19772885e-03
      2.27561668e-02 1.50618958e-04 2.01828033e-03 2.99600745e-03
      -6.04934199e-03 -3.62428278e-03 -1.68662276e-02 -1.10596381e-02
      -3.78643104e-04 1.82459950e-02 -5.56321163e-03 1.17682256e-02
      -1.50433863e-02 -8.71346705e-03 2.58490108e-02 1.04912464e-02
      -9.50549729e-04 -3.90833011e-03 -5.98884048e-03 -2.23536696e-03
      -2.66625155e-02 -2.29860237e-03 -5.90967305e-04 9.84147750e-03
      -6.73331181e-03 -9.55846906e-03 6.31639436e-02 3.21485661e-02
      1.64835175e-04 -7.35059939e-03 4.71964199e-03 3.47043946e-03
      -9.56558995e-03 7.20122382e-02 -2.45722849e-03 2.11109947e-02
      -2.30880076e-04 1.44558307e-02 -1.00773033e-02 1.83158237e-02
      -3.51205585e-03 -3.57903950e-02 -1.28549326e-03 -1.14694536e-02
      5.20465616e-03 -6.15065126e-03 3.98195209e-03 -3.11688310e-03
      2.29578558e-02 -1.01752607e-02 -3.20175057e-03 1.32214604e-03
      1.78441100e-04 -4.78976918e-03 8.46334919e-03 -3.51676978e-02
      -3.53824045e-03 1.57914171e-03 -5.47540700e-03 1.67989414e-02
      4.39560448e-04 6.94398908e-03 -1.68107578e-03 2.99890060e-03
      -8.36838316e-03 -4.10407456e-03 3.29628168e-03 2.80700177e-02
      -1.55424629e-03 -1.05411829e-02 -3.95446643e-03 -1.11060841e-02
      -7.96615984e-03 -5.49481367e-04 -8.30383785e-03 -6.58972003e-03
      9.50859580e-03 -3.25964740e-03 -4.99411533e-03 -3.63880396e-03
      -1.86071806e-02 -2.21250579e-03 -3.70619167e-03 1.40081230e-03
      -2.23593577e-03 -9.57899168e-03 -4.06459346e-03 -1.08501706e-02
      3.13056521e-02 -1.01361638e-02 -9.22121340e-04 -1.07644899e-02
      -3.04951798e-03 -2.20394623e-03 -2.54335743e-03 -2.77292456e-05
      1.63798146e-02 -2.41116923e-03 -4.90072668e-02 -2.74725287e-04
      -1.36074249e-03 -1.37862132e-03 4.39560448e-04 1.09115792e-02
      -7.89537933e-03 -5.92229748e-03 -2.13376712e-03 -1.04590729e-02
      -3.41597875e-03 -9.69658047e-03 -5.40360459e-04 2.75086425e-03
      -5.67501364e-03 -3.11825983e-03 1.55387176e-02 -2.95956642e-03
      -6.09962363e-03 -3.32060969e-03 -6.47396082e-04 -3.82146856e-04
      -5.36058936e-03 -5.16335480e-03 -5.49450575e-04 -2.17652302e-02
      2.86133349e-04 -1.53566077e-02 -3.26351053e-03 -4.01908718e-03
      -7.08324136e-03 -2.82795681e-03 -1.46559963e-03 2.33141379e-03
      3.76654230e-03 -8.45968630e-03 -1.00361351e-02 -9.72730224e-04
      -9.48337000e-03 -7.63417361e-03 5.82251474e-02 1.18297357e-02
      -6.84397528e-03 -4.74833231e-03 -3.24332155e-03 0. -1.13386614e-03
      -1.54337927e-03 1.99141703e-03 -2.77464604e-03 -5.30417729e-03
      7.43528828e-03 0. -1.25594335e-02 1.66248102e-02 -2.93161301e-03
      -5.91789605e-03 -6.88676629e-03 -5.07947942e-03 2.76511107e-02
      -9.44293570e-03 -2.93510850e-03 -6.73935795e-03 -7.33521709e-04 0.
      7.80688645e-03 -2.41938233e-03 1.09569337e-02 -3.32642184e-03
      -8.05306714e-03 9.90065746e-04 -3.99065716e-03 -5.81571041e-03
      -8.36651772e-03 -4.52794647e-03 3.02367797e-03 -1.28557067e-02
      -4.91546700e-03 1.05785122e-02 8.13509226e-02 -4.16942593e-03
      5.45248985e-02 -4.47773747e-03 -1.35645841e-03 -3.65011464e-03
      -9.10835713e-03</_>
    <_>
      2.37214868e-03 3.61880683e-03 0. -6.17833808e-03 -2.49066972e-03
      -3.51250707e-03 -2.51174364e-02 -1.49015372e-03 -5.83015755e-03
      -2.84640258e-03 3.66161577e-04 -2.46088523e-02 1.18465051e-02
      -1.04917213e-04 1.88632049e-02 5.86716831e-03 1.16145648e-02
      -1.01762209e-02 8.68066773e-03 2.16762833e-02 -6.86597684e-03
      -1.01010106e-03 1.47073390e-03 -1.48246426e-03 -9.56043974e-03
      1.49992313e-02 -1.53704302e-03 8.34040530e-03 2.42496328e-03
      1.90750428e-03 1.40577899e-02 4.78820037e-03 3.08355428e-02
      -2.89739389e-03 -1.80617371e-03 -3.52888019e-03 3.88746895e-03
      -1.01010106e-03 -3.74299800e-03 1.61760449e-02 -1.26931502e-03
      -2.08929158e-03 -1.31496396e-02 1.29079884e-02 1.41052995e-04
      -1.64252275e-03 1.82804707e-02 -3.64719369e-02 -2.28013028e-03
      -1.26392227e-02 2.54880579e-04 7.20102619e-03 -2.36520101e-03
      -8.81019514e-03 -1.38849858e-03 -4.36490081e-04 9.83682554e-03
      4.92928363e-03 -1.46328832e-03 -2.37684208e-03 -5.67666604e-04
      -1.42497825e-03 1.49041612e-03 0. 5.16423285e-02 -8.39048007e-04
      1.09855151e-02 1.25053688e-03 -1.21482816e-02 -1.19301805e-03
      9.52443667e-03 -2.98507453e-04 -3.07550607e-03 -1.15993933e-03
      -3.23931105e-03 1.92680780e-03 -3.90826585e-03 -5.73782763e-03
      -6.05200790e-03 4.13826481e-03 -5.28961699e-03 -8.96592252e-03
      -1.00792674e-02 2.26300023e-02 -1.45035144e-03 -2.70270277e-04
      -5.23799006e-03 -1.08197210e-02 -4.54950175e-04 8.57746520e-04
      -5.21222781e-03 -1.59035437e-03 -1.93015509e-03 -7.19503546e-03
      -4.49210731e-03 -6.82664104e-03 4.92608640e-04 -9.80777695e-05
      5.45985647e-04 2.37822756e-02 9.09120892e-04 -6.74708933e-03
      -2.98507453e-04 -1.09896340e-04 -1.75559092e-02 2.49677640e-03
      -1.28703434e-02 9.73253627e-04 -7.54469424e-04 -1.10174983e-03
      -1.73994899e-03 -6.41520659e-04 7.31346896e-03 -8.57925625e-04
      -8.81769415e-03 -1.53332930e-02 -1.81572873e-03 4.39560448e-04
      -2.80135795e-02 3.00456397e-03 -1.37922855e-03 -9.79526155e-03
      -1.95012917e-03 -2.47515226e-03 -4.43114375e-04 -1.77793659e-03
      -1.60864647e-03 5.01831528e-03 -4.67355922e-03 2.61868048e-03
      7.10374070e-03 9.67485888e-04 -1.31933298e-03 -9.32697498e-04
      -2.67198216e-03 -1.83163641e-03 2.09953077e-03 -6.50165975e-03
      -1.31645761e-02 -7.25220423e-04 -1.89153198e-03 -4.95434913e-04
      -1.47476397e-03 1.59705902e-04 4.79633396e-04 -2.41222652e-03
      1.69290186e-04 -7.60428328e-03 -5.60453278e-04 -5.18687442e-03
      -1.54677173e-03 1.55817228e-03 -2.42604222e-03 7.99154676e-03
      3.48155983e-02 7.30332034e-03 -3.09983094e-04 3.38005135e-03
      -1.88233942e-04 -2.98507453e-04 -2.02089199e-03 -2.98507453e-04
      1.47157023e-03 -2.63147950e-02 6.63601793e-03 3.38905072e-03 0.
      -5.68777730e-04 2.27751601e-02 1.35699159e-03 8.43620487e-03
      -4.25732695e-03 -7.22877076e-03 2.10184921e-02 5.97384751e-05
      -1.36546409e-02 -1.83062465e-03 1.06974123e-02 0. 3.08107398e-03
      -1.64014291e-05 5.60438074e-03 4.39560448e-04 1.71699550e-03
      -3.74460034e-03 -8.87013134e-03 -8.66273418e-04 -7.81849492e-03
      3.48210055e-03 1.51635539e-02 6.39596116e-03 -3.11342580e-03
      -3.03156618e-02 2.21026428e-02 -6.60815137e-03 3.29245031e-02
      -6.44977996e-03 -4.72540502e-03 -9.70575307e-03 2.83117755e-04</_>
    <_>
      5.41262701e-03 7.30474340e-03 2.12765951e-03 -1.32864323e-02
      -9.90012474e-03 1.31868140e-03 6.17160602e-03 -1.55138972e-04
      -1.35675194e-02 8.79120897e-04 1.02779572e-03 -1.91338081e-03
      4.36112937e-03 7.08282460e-03 9.55758244e-03 2.68488959e-03
      2.63973828e-02 -8.14008490e-06 -9.03144572e-03 -7.85485934e-03
      -4.32816558e-02 -1.78571441e-03 -3.06881052e-02 -5.38407685e-03
      -3.64207220e-03 2.18407903e-02 -1.42054930e-02 1.22721447e-02
      -1.78571441e-03 3.35326442e-03 1.93910990e-02 9.78122093e-03
      6.43998086e-02 -2.25274730e-03 -4.67032951e-04 -3.28393420e-03
      -3.60325836e-02 0. -6.12834468e-03 1.43224644e-02 -6.25290163e-03
      -9.56043974e-03 7.40804076e-02 2.26591304e-02 4.39560448e-04
      -3.28393420e-03 -3.29109319e-02 1.39555312e-03 0. 8.21055397e-02
      -6.39360631e-03 2.04219520e-02 -2.30880076e-04 1.43686384e-02
      -4.83682984e-03 1.87831130e-02 1.76129420e-03 -4.52509932e-02 0.
      -4.21050796e-03 9.06944927e-03 -1.49821991e-03 2.04013311e-03
      -5.40532125e-03 3.90233025e-02 -1.59243699e-02 -2.60020532e-02
      1.18631788e-03 -1.35442300e-03 0. 1.25718759e-02 -6.75671026e-02
      -7.10762292e-03 1.72451735e-02 -1.55138972e-04 1.88861247e-02
      4.39560448e-04 -4.76879887e-02 -1.39360642e-03 3.21889156e-03
      -1.80963650e-02 -4.73706573e-02 -9.79255512e-03 2.92023532e-02
      -9.67365969e-03 0. -6.56344881e-03 -4.13865549e-03 -2.37734080e-03
      3.57448123e-03 0. -2.81997421e-03 9.02833045e-03 -2.37734080e-03
      -2.81690131e-03 4.39560448e-04 -1.57732125e-02 8.79120897e-04
      7.37988375e-05 -1.68711618e-02 -6.44595129e-03 0. -1.78571441e-03
      -5.13345003e-06 3.48123945e-02 -5.48166549e-03 -4.56043985e-03
      -3.12717934e-03 4.39560448e-04 -1.73342731e-02 0. -3.61888134e-03
      2.45915968e-02 -5.30386297e-03 -3.94037850e-02 0. -2.32339068e-03
      -2.37734080e-03 -2.37734080e-03 4.84426226e-03 -5.22171473e-03
      -6.70329714e-03 -1.64238699e-02 -9.54405963e-03 -2.81997421e-03
      -6.16246508e-03 -1.41350012e-02 5.56776579e-03 0. 5.12820529e-03
      1.53959170e-02 -2.85093747e-02 -4.96503524e-03 2.71029631e-03
      4.39560448e-04 -3.06265731e-03 -3.95835284e-03 4.28571459e-03 0.
      -5.19424211e-03 -1.55138972e-04 2.91826180e-03 -4.67032951e-04
      2.56948930e-04 -3.85116111e-03 4.39560448e-04 -1.34615391e-03
      1.19976588e-02 -9.30232927e-03 -1.78571441e-03 -6.77625556e-03
      7.23982055e-04 0. -3.04758013e-03 5.81497326e-02 -3.84791605e-02
      -2.25274730e-03 8.10822472e-03 -6.50949869e-03 0. 4.39560448e-04
      -2.56410264e-03 2.07227888e-03 -7.87234027e-03 -4.90982085e-03
      8.79077706e-03 0. 0. 6.64958172e-03 -1.76684023e-03
      -9.23123583e-03 -3.57142882e-03 3.11736949e-06 2.93673314e-02
      -4.85707074e-04 -4.13865549e-03 -1.68498163e-03 2.04910785e-02 0.
      9.90911573e-03 8.79120897e-04 7.03272875e-04 -8.99789482e-03
      -1.20520778e-02 -8.66854936e-03 -7.52913766e-03 -9.99999978e-03
      4.39560448e-04 1.70130900e-03 5.72894979e-03 -9.71415080e-03
      -1.26928219e-03 1.25146750e-02 7.95894489e-02 -1.83316693e-03
      4.94293422e-02 -3.59836244e-03 1.94812100e-03 -3.47936386e-03
      -5.50920935e-03</_>
    <_>
      -3.11646564e-03 5.94174908e-03 1.78283197e-03 -6.85098954e-03
      -2.73492076e-02 -1.07979160e-02 3.49679473e-03 -6.60153385e-03
      -6.81660092e-03 -4.88712825e-03 -3.87062645e-03 -3.42010590e-03
      -1.10212145e-02 1.54667546e-03 9.25545581e-04 1.76986994e-03
      1.70635227e-02 -2.03252379e-02 -7.35855778e-04 2.99904682e-02
      -7.37170503e-03 -6.69007841e-03 1.52604957e-03 -9.24158469e-03
      -5.83808171e-03 9.72008612e-03 -1.19781345e-02 9.36334394e-03
      -7.71142589e-03 -4.17707162e-03 2.24222802e-02 3.81291122e-03
      1.34914920e-01 -4.92413435e-03 -5.00615500e-03 -4.79429122e-03
      -2.56283991e-02 -1.39955115e-02 -9.66203678e-03 2.10670698e-02
      -5.69541054e-03 -1.08017530e-02 7.83975646e-02 5.16664013e-02
      -1.08552249e-02 -9.27069504e-03 1.88573450e-02 3.29502323e-03
      -5.93326800e-03 9.19453949e-02 -3.62409465e-03 1.28444349e-02
      -5.75787667e-03 1.08464267e-02 -7.25994259e-03 1.53374420e-02
      9.35596821e-04 1.09401550e-02 -1.24160312e-02 -3.88438092e-03
      3.18636443e-03 -7.44247204e-03 -1.25672412e-03 -5.06875245e-03
      3.85030955e-02 -7.11379666e-03 2.05866359e-02 -6.08722586e-03
      -5.98752266e-03 -7.09690247e-03 7.53985671e-03 0. -5.18130185e-03
      1.07052876e-02 -1.27702989e-02 3.01576545e-03 -1.33464616e-02
      1.78807639e-02 -6.60872739e-03 3.11827241e-03 -9.96783283e-03
      -1.18836332e-02 -2.64157029e-03 3.36576886e-02 -9.01599508e-03
      -1.35925571e-02 -6.67682942e-03 -1.26817301e-02 -6.53660716e-03
      -1.92329613e-03 -5.77494642e-03 -4.59141843e-03 6.71777176e-03
      -3.05162300e-03 -3.65849538e-03 -5.08322706e-03 -1.84392178e-04
      -3.32195166e-04 5.96123689e-04 2.71092132e-02 -7.81015866e-03
      -3.63864494e-03 -7.58290291e-03 -1.46222149e-03 2.40814351e-02
      1.66927453e-03 -4.42610960e-03 -4.39158222e-03 -1.91836562e-02
      -1.31037934e-02 -1.08524766e-02 -5.40236244e-03 2.36152746e-02
      -1.25231314e-02 1.29721668e-02 -2.95579210e-02 -9.92398709e-03
      -1.69685576e-02 -1.51430788e-02 7.25046790e-04 -5.87494671e-03
      -1.79730505e-02 -1.59969348e-02 -3.95202124e-03 -6.41698157e-03
      -1.44197028e-02 -4.21418762e-03 -5.88882947e-03 -1.44111142e-02
      3.82013014e-03 1.12720793e-02 -1.30037526e-02 -7.86486268e-03
      -9.33832675e-03 -8.37810338e-03 -6.63103629e-03 2.34775175e-03
      2.34867120e-03 -2.54485607e-02 -5.97145502e-03 -3.72089585e-03
      9.82360682e-04 -3.63505632e-03 -2.68861395e-03 -7.62697496e-03
      -1.80923603e-02 -3.28696752e-03 4.84543294e-03 3.22926566e-02
      -9.91757400e-03 -1.40413428e-02 -6.88843103e-03 -9.38589219e-03
      2.70775165e-02 6.51089475e-02 1.09065110e-02 -1.10769905e-02
      1.05765183e-02 -1.09995725e-02 -6.51174271e-03 -1.06529500e-02
      -1.86862070e-02 -2.70968396e-03 -2.40609962e-02 -8.01335648e-03
      1.32324370e-02 -1.55077511e-02 -1.21136103e-02 1.26142465e-02
      -6.75383583e-03 -5.16517961e-04 -1.13848206e-02 -1.04672546e-02
      2.14118101e-02 -1.31508531e-02 -4.91742836e-03 -1.30272536e-02
      2.17826981e-02 -1.11376662e-02 4.47673444e-03 -1.00277830e-02
      5.89086628e-03 -2.68266276e-02 -3.55842430e-03 -4.79170308e-03
      -7.49822101e-03 -7.81588070e-03 -7.19367992e-03 -1.05104304e-03
      1.11150015e-02 -2.47238181e-03 -4.17033304e-03 3.60611477e-03
      8.36770386e-02 -6.86672796e-03 5.66236600e-02 -9.91634373e-03
      -2.62983772e-03 -2.47721300e-02 -9.91419423e-03</_>
    <_>
      -5.37870592e-03 1.96684711e-03 7.49940332e-03 -1.15645686e-02
      3.36915813e-03 1.64607330e-03 -2.24601547e-03 -3.25865205e-03
      8.94009136e-03 8.15634243e-03 9.29455215e-04 -1.70210551e-03
      -4.52852488e-04 -2.36368156e-03 2.17608409e-03 6.54209172e-03
      -1.07274391e-02 7.70114176e-03 -1.63464854e-03 4.78468894e-04
      -2.41088844e-03 -3.58209340e-03 1.77147742e-02 2.22755945e-03
      9.66714602e-03 3.51446145e-03 8.50511529e-03 -4.69155703e-03
      -4.60001314e-03 1.27283914e-03 4.19036997e-03 8.12812150e-03
      -2.65331995e-02 1.13260746e-02 1.36974268e-03 -6.61795784e-04
      1.29052764e-03 -3.29344347e-03 2.15364783e-03 8.28157645e-04
      -1.59085216e-03 -1.59242339e-02 3.94858513e-03 -2.35414831e-03 0.
      -1.43408030e-03 1.34826396e-02 -8.90932139e-03 -9.86706931e-04
      -3.89993028e-03 1.95454923e-03 3.33934062e-04 2.74964003e-03
      -8.82213935e-03 1.14940722e-02 7.22418539e-03 9.90368892e-04
      -2.39255689e-02 -1.20097876e-03 -8.72893725e-05 -6.13088487e-03
      1.60835660e-03 6.91084424e-03 1.29147700e-03 -2.02310730e-05
      4.35139146e-03 5.42784156e-03 -6.69803750e-03 1.20377000e-02
      2.09520644e-04 5.46383811e-03 9.58990247e-04 5.99350221e-03
      9.49080754e-03 1.01513276e-03 -1.40197454e-02 2.48306617e-03
      1.87930150e-03 2.47377506e-03 -4.91865538e-03 5.30123245e-03
      5.43051586e-03 -2.96950852e-03 -1.01618264e-02 -6.13306416e-03
      -4.03271336e-03 -1.03964647e-02 -1.68000422e-02 2.47219228e-03
      8.57078936e-03 -2.15117261e-03 1.44792348e-03 2.73323589e-04
      3.08033032e-03 2.22324533e-03 3.08766123e-03 -1.13341874e-02
      -3.57872881e-02 2.16448717e-02 -1.68514848e-02 1.26808053e-02
      4.56760451e-03 -1.82622159e-03 -1.85499480e-03 2.18242686e-03
      -2.85718357e-03 -2.14485126e-03 -6.44731289e-03 2.05721264e-03
